svm_type c_svc
kernel_type linear
nr_class 7
total_sv 67
rho -1.0002094918210678 -0.9999844701017861 -0.9999544480414777 -1.0001369840237082 -1.000415196030231 -1.0000451167423177 -1.170600836060739 -0.5762366771158244 -0.22520211817136188 -0.6117162923685474 0.49468220642964766 0.06754083481853497 0.4086879111078885 -0.2559877596641528 1.733434705673791 0.46155913505503626 -0.28509318946029427 0.8179756040349767 -0.4930080646216543 0.36369307017739816 1.1195609935807802
label 0 8 1 4 6 5 7
probA 1.981179775825363 15.435470990585678 19.708249689109927 -0.008378825282126964 43.09727345886499 2.279910963279463 -1.7870870929463138 -0.7930170860097484 -3.150535231649458 -2.223522141125818 -2.3315794606872733 -2.333024939895194 -3.3873711190728026 -2.1452046981899437 -3.4563375928844065 -2.7001917829503457 -2.1765700784670403 -2.5908682329562223 -2.773366205701049 -3.191387737483068 -2.584191420100394
probB 3.184510548237249 15.991512071036073 19.3847654298631 3.0791979744384017 42.56803832210539 4.729028789325481 -0.3307117948224394 -0.3657374586620786 0.15388762461647448 -0.4929411338209896 0.1542693785126635 -0.2584542820119803 0.33758857496482414 -0.3882799167719018 0.32739098207568795 0.09328079031195413 -0.5481138300496898 -0.14315333975179778 -0.8339157656699661 -0.31768324967864786 0.6079281664359448
nr_sv 1 7 7 4 25 4 19
SV
0.36198567156182176 0.2760311285113981 0.2816431459499833 0.3551562679389325 0.23481539505839166 0.3786406186959685 1:0.0 2:0.0 3:0.0 4:0.0 5:0.0 6:0.0 7:0.0 8:0.0 9:0.0 10:0.0 11:0.0 12:0.0 13:0.0 14:0.0 15:0.0 16:0.0 17:0.0 18:0.0 19:0.0 20:0.0 21:0.0 22:0.0 23:0.0 24:0.0 25:0.0 26:0.0 27:0.0 28:0.0 29:0.0 30:0.0 31:0.0 32:0.0 33:0.0 34:0.0 35:0.0 36:0.0 37:0.0 38:0.0 39:0.0 40:0.0 41:0.0 42:0.0 43:0.0 44:0.0 45:0.0 46:0.0 47:0.0 48:0.0 49:0.0 50:0.0 51:0.0 52:0.0 53:0.0 54:0.0 55:0.0 56:0.0 57:0.0 58:0.0 59:0.0 60:0.0 61:0.0 62:0.0 63:0.0 64:0.0 65:0.0 66:0.0 67:0.0 68:0.0 69:0.0 70:0.0 71:0.0 72:0.0 73:0.0 74:0.0 75:0.0 76:0.0 77:0.0 78:0.0 79:0.0 80:0.0 81:0.0 82:0.0 83:0.0 84:0.0 85:0.0 86:0.0 87:0.0 88:0.0 89:0.0 90:0.0 91:0.0 92:0.0 93:0.0 94:0.0 95:0.0 96:0.0 97:0.0 98:0.0 99:0.0 100:0.0 101:0.0 102:0.0 103:0.0 104:0.0 105:0.0 106:0.0 107:0.0 108:0.0 109:0.0 110:0.0 111:0.0 112:0.0 113:0.0 114:0.0 115:0.0 116:0.0 117:0.0 118:0.0 119:0.0 120:0.0 121:0.0 122:0.0 123:0.0 124:0.0 125:0.0 126:0.0 127:0.0 128:0.0 129:0.0 130:0.0 131:0.0 132:0.0 133:0.0 134:0.0 135:0.0 136:0.0 137:0.0 138:0.0 139:0.0 140:0.0 141:0.0 142:0.0 143:0.0 144:0.0 145:0.0 146:0.0 147:0.0 148:0.0 149:0.0 150:0.0 151:0.0 152:0.0 153:0.0 154:0.0 155:0.0 156:0.0 157:0.0 158:0.0 159:0.0 160:0.0 161:0.0 162:0.0 163:0.0 164:0.0 165:0.0 166:0.0 167:0.0 168:0.0 169:0.0 170:0.0 171:0.0 172:0.0 173:0.0 174:0.0 175:0.0 176:0.0 177:0.0 178:0.0 179:0.0 180:0.0 181:0.0 182:0.0 183:0.0 184:0.0 185:0.0 186:0.0 187:0.0 188:0.0 189:0.0 190:0.0 191:0.0 192:0.0 193:0.0 194:0.0 195:0.0 196:0.0 197:0.0 198:0.0 199:0.0 200:0.0 201:0.0 202:0.0 203:0.0 204:0.0 205:0.0 206:0.0 207:0.0 208:0.0 209:0.0 210:0.0 211:0.0 212:0.0 213:0.0 214:0.0 215:0.0 216:0.0 217:0.0 218:0.0 219:0.0 220:0.0 221:0.0 222:0.0 223:0.0 224:0.0 225:0.0 226:0.0 227:0.0 228:0.0 229:0.0 230:0.0 231:0.0 232:0.0 233:0.0 234:0.0 235:0.0 236:0.0 237:0.0 238:0.0 239:0.0 240:0.0 241:0.0 242:0.0 243:0.0 244:0.0 245:0.0 246:0.0 247:0.0 248:0.0 249:0.0 250:0.0 251:0.0 252:0.0 253:0.0 254:0.0 255:0.0 256:0.0 257:0.0 258:0.0 259:0.0 260:0.0 261:0.0 262:0.0 263:0.0 264:0.0 265:0.0 266:0.0 267:0.0 268:0.0 269:0.0 270:0.0 271:0.0 272:0.0 273:0.0 274:0.0 275:0.0 276:0.0 277:0.0 278:0.0 279:0.0 280:0.0 281:0.0 282:0.0 283:0.0 284:0.0 285:0.0 286:0.0 287:0.0 288:0.0 289:0.0 290:0.0 291:0.0 292:0.0 293:0.0 294:0.0 295:0.0 296:0.0 297:0.0 298:0.0 299:0.0 300:0.0 301:0.0 302:0.0 303:0.0 304:0.0 305:0.0 306:0.0 307:0.0 308:0.0 309:0.0 310:0.0 311:0.0 312:0.0 313:0.0 314:0.0 315:0.0 316:0.0 317:0.0 318:0.0 319:0.0 320:0.0 321:0.0 322:0.0 323:0.0 324:0.0 
-0.0 0.22428362322513662 0.1278379142023233 0.0 0.08327052642305122 0.07941876407385363 1:0.22761446237564087 2:0.07632315158843994 3:0.054111141711473465 4:0.21479451656341553 5:0.13267195224761963 6:0.08582386374473572 7:0.020043589174747467 8:0.04872547462582588 9:0.4612804055213928 10:0.04328552633523941 11:0.1725112348794937 12:0.1852751076221466 13:0.30724120140075684 14:0.25104159116744995 15:0.10820222645998001 16:0.10728808492422104 17:0.13197380304336548 18:0.028736915439367294 19:0.28063052892684937 20:0.021127799525856972 21:0.09118849784135818 22:0.15318462252616882 23:0.05196751654148102 24:0.09918581694364548 25:0.09353675693273544 26:0.12501713633537292 27:0.31926819682121277 28:0.3153763711452484 29:0.14823263883590698 30:0.08017435669898987 31:0.0 32:0.08503775298595428 33:0.042255599051713943 34:0.033405985683202744 35:0.010563899762928486 36:0.0 37:0.2106407880783081 38:0.09194926172494888 39:0.22098667919635773 40:0.2374914139509201 41:0.1780349612236023 42:0.034348487854003906 43:0.014764050953090191 44:0.0 45:0.014348078519105911 46:0.08499208837747574 47:0.11765696108341217 48:0.029528101906180382 49:0.19698414206504822 50:0.23717956244945526 51:0.39563941955566406 52:0.054622162133455276 53:0.026521282270550728 54:0.011004474014043808 55:0.21552710235118866 56:0.1317553073167801 57:0.1861824095249176 58:0.0628037080168724 59:0.034799203276634216 60:0.007781338412314653 61:0.06657451391220093 62:0.1311250776052475 63:0.08131580054759979 64:0.23936112225055695 65:0.23567724227905273 66:0.11247694492340088 67:0.16231968998908997 68:0.41292303800582886 69:0.0508255735039711 70:0.054553382098674774 71:0.08272170275449753 72:0.2542254626750946 73:0.0937189906835556 74:0.024488165974617004 75:0.13041311502456665 76:0.26819050312042236 77:0.15878815948963165 78:0.1588313728570938 79:0.03293200582265854 80:0.006090416572988033 81:0.02511845901608467 82:0.0906599685549736 83:0.0880056619644165 84:0.023111503571271896 85:0.0786922425031662 86:0.42380282282829285 87:0.11801374703645706 88:0.09874217957258224 89:0.054521601647138596 90:0.039672281593084335 91:0.12623514235019684 92:0.16619467735290527 93:0.08930309861898422 94:0.11028339713811874 95:0.11258840560913086 96:0.4978829324245453 97:0.29715287685394287 98:0.18448065221309662 99:0.3649367392063141 100:0.060191478580236435 101:0.041642338037490845 102:0.063747338950634 103:0.041587963700294495 104:0.06831835210323334 105:0.06680071353912354 106:0.1266539841890335 107:0.028091751039028168 108:0.04568277299404144 109:0.4141261875629425 110:0.08664344251155853 111:0.10841579735279083 112:0.06325706094503403 113:0.05657883360981941 114:0.05387125909328461 115:0.08441142737865448 116:0.11409459263086319 117:0.23851631581783295 118:0.3794701397418976 119:0.10405663400888443 120:0.21671977639198303 121:0.030543211847543716 122:0.03960518538951874 123:0.037954237312078476 124:0.03640270233154297 125:0.04570261389017105 126:0.03578359633684158 127:0.5135447978973389 128:0.0710054337978363 129:0.07201309502124786 130:0.05584603548049927 131:0.07921037077903748 132:0.04319462180137634 133:0.05601018667221069 134:0.01265141274780035 135:0.15378433465957642 136:0.39404726028442383 137:0.037954237312078476 138:0.00800145510584116 139:0.06108642369508743 140:0.0678946003317833 141:0.030543211847543716 142:0.09601746499538422 143:0.10895968228578568 144:0.11120401322841644 145:0.19045615196228027 146:0.17575611174106598 147:0.30773234367370605 148:0.15796607732772827 149:0.06497196853160858 150:0.061943329870700836 151:0.05104692652821541 152:0.05465557053685188 153:0.011657838709652424 154:0.06777126342058182 155:0.16592299938201904 156:0.09309415519237518 157:0.15559762716293335 158:0.06834737211465836 159:0.1281089335680008 160:0.07998122274875641 161:0.07544677704572678 162:0.07785899937152863 163:0.29604098200798035 164:0.041372451931238174 165:0.04706627130508423 166:0.03741389140486717 167:0.21684935688972473 168:0.18527330458164215 169:0.36091771721839905 170:0.4223925769329071 171:0.2702997028827667 172:0.1576385498046875 173:0.06426359713077545 174:0.050355736166238785 175:0.049743153154850006 176:0.2647552192211151 177:0.04460055008530617 178:0.07314211875200272 179:0.14743949472904205 180:0.07709160447120667 181:0.09183957427740097 182:0.03832222521305084 183:0.015576719306409359 184:0.04422406479716301 185:0.10374970734119415 186:0.13430413603782654 187:0.4105106294155121 188:0.40234309434890747 189:0.06003129854798317 190:0.17829792201519012 191:0.06820288300514221 192:0.09344001114368439 193:0.048298295587301254 194:0.09371084719896317 195:0.2182304859161377 196:0.03659064695239067 197:0.20560802519321442 198:0.13828186690807343 199:0.19789287447929382 200:0.3057404160499573 201:0.3234541714191437 202:0.23327749967575073 203:0.07410828769207001 204:0.07538708299398422 205:0.05729644373059273 206:0.046084530651569366 207:0.10689648240804672 208:0.21482481062412262 209:0.1417342573404312 210:0.01900608465075493 211:0.18551431596279144 212:0.13086318969726562 213:0.11237727850675583 214:0.05909480154514313 215:0.05491809919476509 216:0.03848597779870033 217:0.5841330885887146 218:0.08783350139856339 219:0.057109128683805466 220:0.0 221:0.07268805801868439 222:0.04359947517514229 223:0.25128012895584106 224:0.10835695266723633 225:0.07661993056535721 226:0.17768190801143646 227:0.0 228:0.10279642045497894 229:0.11583743989467621 230:0.14537611603736877 231:0.0 232:0.11421824991703033 233:0.11241858452558517 234:0.10215991735458374 235:0.2395460307598114 236:0.03611898422241211 237:0.03426547721028328 238:0.11583743989467621 239:0.17768190801143646 240:0.13107801973819733 241:0.3274935781955719 242:0.14174027740955353 243:0.26664412021636963 244:0.040382251143455505 245:0.03611898422241211 246:0.12564007937908173 247:0.17439788579940796 248:0.18575836718082428 249:0.14137743413448334 250:0.10279642790555954 251:0.10835695266723633 252:0.025539979338645935 253:0.059497181326150894 254:0.006305493880063295 255:0.05830605700612068 256:0.09251631796360016 257:0.20938484370708466 258:0.13099265098571777 259:0.0641462579369545 260:0.07619930058717728 261:0.029461385682225227 262:0.2773803472518921 263:0.1439715027809143 264:0.03409496694803238 265:0.18178443610668182 266:0.3107365667819977 267:0.2610069513320923 268:0.2509689927101135 269:0.21947677433490753 270:0.3094864785671234 271:0.0653153657913208 272:0.02522197552025318 273:0.25947025418281555 274:0.24401912093162537 275:0.13869333267211914 276:0.07177691161632538 277:0.04386739060282707 278:0.03152747079730034 279:0.017834629863500595 280:0.02847825363278389 281:0.043112900108098984 282:0.10884375125169754 283:0.38327792286872864 284:0.26557472348213196 285:0.09311193972826004 286:0.04858936741948128 287:0.06605645269155502 288:0.049366168677806854 289:0.31607893109321594 290:0.11828859895467758 291:0.07323034852743149 292:0.20718622207641602 293:0.2334800362586975 294:0.11770176142454147 295:0.04301224648952484 296:0.12173021584749222 297:0.2010461986064911 298:0.08686013519763947 299:0.09755529463291168 300:0.11579371243715286 301:0.07517952471971512 302:0.07240898907184601 303:0.057343412190675735 304:0.10335884243249893 305:0.04043853282928467 306:0.026938393712043762 307:0.01804889738559723 308:0.024423087015748024 309:0.038916923105716705 310:0.1424960494041443 311:0.5220872759819031 312:0.15819509327411652 313:0.03846802935004234 314:0.005765508860349655 315:0.0 316:0.013310489244759083 317:0.018593207001686096 318:0.0957598090171814 319:0.27383264899253845 320:0.4937906265258789 321:0.06285154819488525 322:0.018681036308407784 323:0.0 324:0.0 
-0.06986162828358485 0.5004001590644419 0.15270732077351942 0.2541592096340225 0.060602420188755314 0.5736710843926953 1:0.04374321177601814 2:0.0727374255657196 3:0.08411376178264618 4:0.2316029816865921 5:0.5762582421302795 6:0.21525390446186066 7:0.02225434221327305 8:0.034738123416900635 9:0.0055651431903243065 10:0.03821287676692009 11:0.059461671859025955 12:0.05938867852091789 13:0.28323376178741455 14:0.585450291633606 15:0.09386739879846573 16:0.03561613708734512 17:0.021348457783460617 18:0.029010109603405 19:0.14595073461532593 20:0.10045105963945389 21:0.04506830498576164 22:0.07785812765359879 23:0.05020366609096527 24:0.015936747193336487 25:0.06704587489366531 26:0.08522623032331467 27:0.07393892854452133 28:0.07278512418270111 29:0.06537967175245285 30:0.115273118019104 31:0.0774306207895279 32:0.06921251118183136 33:0.06721604615449905 34:0.08116976171731949 35:0.05173106864094734 36:0.04639991372823715 37:0.030010215938091278 38:0.025078967213630676 39:0.022633394226431847 40:0.13404305279254913 41:0.6217929124832153 42:0.0686245933175087 43:0.03972000256180763 44:0.03041950613260269 45:0.03989970684051514 46:0.027590995654463768 47:0.01511393766850233 48:0.011937654577195644 49:0.1969410926103592 50:0.6239635944366455 51:0.12418611347675323 52:0.04976588860154152 53:0.0334099642932415 54:0.0033366759307682514 55:0.04609574005007744 56:0.06912205368280411 57:0.045986466109752655 58:0.059992264956235886 59:0.06148861348628998 60:0.042320795357227325 61:0.05084512382745743 62:0.04923200234770775 63:0.043043103069067 64:0.06519730389118195 65:0.03411916643381119 66:0.03884795308113098 67:0.03510301187634468 68:0.30087903141975403 69:0.053925156593322754 70:0.03753892332315445 71:0.05382629483938217 72:0.07305072247982025 73:0.04771214723587036 74:0.02175304666161537 75:0.028654849156737328 76:0.08425801992416382 77:0.7574760317802429 78:0.10446929931640625 79:0.03584285452961922 80:0.01148265041410923 81:0.0 82:0.02380703017115593 83:0.02536904439330101 84:0.013883479870855808 85:0.1482578068971634 86:0.5416158437728882 87:0.14576472342014313 88:0.05826403200626373 89:0.023679718375205994 90:0.015112635679543018 91:0.13049697875976562 92:0.034139543771743774 93:0.05662328749895096 94:0.021519631147384644 95:0.04839034378528595 96:0.07571689784526825 97:0.037339381873607635 98:0.03502088412642479 99:0.029359525069594383 100:0.06302615255117416 101:0.06770355999469757 102:0.027606163173913956 103:0.03750880807638168 104:0.03926559537649155 105:0.07993729412555695 106:0.03950762748718262 107:0.08475691080093384 108:0.015621762722730637 109:0.18941594660282135 110:0.10520070046186447 111:0.0762549564242363 112:0.2468695491552353 113:0.2000056952238083 114:0.12023025751113892 115:0.06574560701847076 116:0.11032494157552719 117:0.1509934514760971 118:0.10967452079057693 119:0.12151465564966202 120:0.19322866201400757 121:0.18273736536502838 122:0.06652034819126129 123:0.13658490777015686 124:0.25556594133377075 125:0.30667930841445923 126:0.10641015321016312 127:0.35976487398147583 128:0.2159656137228012 129:0.04153130203485489 130:0.13551346957683563 131:0.11523248255252838 132:0.06686004251241684 133:0.06244790554046631 134:0.09153585135936737 135:0.25537797808647156 136:0.13656233251094818 137:0.14602245390415192 138:0.19246134161949158 139:0.1163722425699234 140:0.09895211458206177 141:0.12170929461717606 142:0.22664299607276917 143:0.1862574815750122 144:0.09286979585886002 145:0.1579117625951767 146:0.2741023302078247 147:0.5053597688674927 148:0.03427420184016228 149:0.07508346438407898 150:0.04030996561050415 151:0.024243954569101334 152:0.008019615896046162 153:0.029855750501155853 154:0.039633069187402725 155:0.2778254747390747 156:0.2525094151496887 157:0.11406257748603821 158:0.21712887287139893 159:0.06686125695705414 160:0.017511507496237755 161:0.08674287796020508 162:0.1360611766576767 163:0.5002061128616333 164:0.2070947140455246 165:0.07045978307723999 166:0.011916534043848515 167:0.034094955772161484 168:0.02632487565279007 169:0.01030753180384636 170:0.03683307394385338 171:0.30741360783576965 172:0.04565637558698654 173:0.015080132521688938 174:0.03066452592611313 175:0.015380061231553555 176:0.007525991648435593 177:0.017965903505682945 178:0.015155766159296036 179:0.019146868959069252 180:0.024246690794825554 181:0.21001918613910675 182:0.05961550027132034 183:0.05488774925470352 184:0.045510753989219666 185:0.42248812317848206 186:0.2213866114616394 187:0.3482315242290497 188:0.20777671039104462 189:0.19151735305786133 190:0.07575443387031555 191:0.057365115731954575 192:0.06610527634620667 193:0.035493116825819016 194:0.06397819519042969 195:0.09169439971446991 196:0.05926031991839409 197:0.08633778989315033 198:0.041396498680114746 199:0.04214730113744736 200:0.02012202888727188 201:0.015082018449902534 202:0.024371007457375526 203:0.02412991039454937 204:0.023436132818460464 205:0.03818236663937569 206:0.014101240783929825 207:0.01802690140902996 208:0.23340125381946564 209:0.1543804556131363 210:0.013212844729423523 211:0.05484914779663086 212:0.027945617213845253 213:0.18969908356666565 214:0.21941283345222473 215:0.45751407742500305 216:0.3113749921321869 217:0.2580067813396454 218:0.28918489813804626 219:0.06534205377101898 220:0.016559546813368797 221:0.09234855324029922 222:0.1560450941324234 223:0.05037757754325867 224:0.22620554268360138 225:0.333657443523407 226:0.14083118736743927 227:0.14231866598129272 228:0.10719192773103714 229:0.14739690721035004 230:0.06463596969842911 231:0.11380833387374878 232:0.07024222612380981 233:0.1068350151181221 234:0.15210437774658203 235:0.19372247159481049 236:0.23048952221870422 237:0.07838443666696548 238:0.0640968605875969 239:0.07680585980415344 240:0.14218586683273315 241:0.22220070660114288 242:0.16489550471305847 243:0.15877006947994232 244:0.24281999468803406 245:0.023361552506685257 246:0.07209203392267227 247:0.34009528160095215 248:0.21910695731639862 249:0.06811488419771194 250:0.1881825029850006 251:0.10906956344842911 252:0.0911642387509346 253:0.15646129846572876 254:0.037616875022649765 255:0.017830710858106613 256:0.007555023301392794 257:0.061252571642398834 258:0.1369832456111908 259:0.6169244647026062 260:0.3922477662563324 261:0.08180397003889084 262:0.09960728883743286 263:0.02881097048521042 264:0.03210318461060524 265:0.01867716573178768 266:0.12386946380138397 267:0.09350743144750595 268:0.21056251227855682 269:0.2793744206428528 270:0.044228654354810715 271:0.020795913413167 272:0.018796177580952644 273:0.019930968061089516 274:0.03952339291572571 275:0.019413987174630165 276:0.05931660905480385 277:0.04851502925157547 278:0.014314740896224976 279:0.009014715440571308 280:0.07881604135036469 281:0.03660254552960396 282:0.08623220026493073 283:0.09687047451734543 284:0.24942460656166077 285:0.22825664281845093 286:0.21545425057411194 287:0.1678461879491806 288:0.16415755450725555 289:0.061449360102415085 290:0.16577495634555817 291:0.1266896277666092 292:0.11979026347398758 293:0.12184175848960876 294:0.013271929696202278 295:0.026637470349669456 296:0.07381690293550491 297:0.08347175270318985 298:0.2586574852466583 299:0.2802989184856415 300:0.2469572126865387 301:0.12102082371711731 302:0.14577947556972504 303:0.06843926757574081 304:0.07460080087184906 305:0.08608216047286987 306:0.18560665845870972 307:0.04021650180220604 308:0.1106356531381607 309:0.2732517123222351 310:0.2815864384174347 311:0.6238306164741516 312:0.07267755270004272 313:0.0036701003555208445 314:0.14909520745277405 315:0.13049785792827606 316:0.04421300068497658 317:0.030275601893663406 318:0.04247469827532768 319:0.025536073371767998 320:0.06202782317996025 321:0.04118811711668968 322:0.030365046113729477 323:0.030620552599430084 324:0.03825832158327103 
-0.1133879960735854 0.09912176504837927 0.14553337055644305 0.27943899462336474 0.04950133444015966 0.06050392219554843 1:0.019823893904685974 2:0.0342135913670063 3:0.031351253390312195 4:0.01023343950510025 5:0.009565475396811962 6:0.02149284817278385 7:0.014713313430547714 8:0.005322601180523634 9:0.017511557787656784 10:0.02471378818154335 11:0.009719817899167538 12:0.014989920891821384 13:0.016689298674464226 14:0.0272507444024086 15:0.019308559596538544 16:0.01734500750899315 17:0.010818026028573513 18:0.01526352483779192 19:0.09129878878593445 20:0.04873812198638916 21:0.13440068066120148 22:0.03286488354206085 23:0.09331357479095459 24:0.013158196583390236 25:0.021995453163981438 26:0.012240886688232422 27:0.019192097708582878 28:0.01188584603369236 29:0.12229381501674652 30:0.8761295676231384 31:0.3938092887401581 32:0.040582891553640366 33:0.023295734077692032 34:0.010839168913662434 35:0.015037188306450844 36:0.11494789272546768 37:0.0256042443215847 38:0.009359000250697136 39:0.031375862658023834 40:0.2946762442588806 41:0.15445689857006073 42:0.11764025688171387 43:0.01810814067721367 44:0.016094788908958435 45:0.014420926570892334 46:0.007928191684186459 47:0.0211225263774395 48:0.10443317890167236 49:0.026507657021284103 50:0.4308960735797882 51:0.17438453435897827 52:0.05175859481096268 53:0.0356941893696785 54:0.03830501809716225 55:0.0181192047894001 56:0.06476839631795883 57:0.07292477786540985 58:0.5269507765769958 59:0.3244023025035858 60:0.025550145655870438 61:0.06970702856779099 62:0.010892764665186405 63:0.007639081683009863 64:0.03171846270561218 65:0.05357857793569565 66:0.07614436000585556 67:0.07276809960603714 68:0.439128041267395 69:0.13416799902915955 70:0.11517620086669922 71:0.03236304968595505 72:0.027680298313498497 73:0.00824338011443615 74:0.008865417912602425 75:0.026106998324394226 76:0.02496633306145668 77:0.08559072017669678 78:0.018116086721420288 79:0.019548965618014336 80:0.008052097633481026 81:0.02721180021762848 82:0.012851431965827942 83:0.009924004785716534 84:0.013686686754226685 85:0.01257407572120428 86:0.019794929772615433 87:0.016296548768877983 88:0.018079964444041252 89:0.0359550304710865 90:0.012605268508195877 91:0.014676489867269993 92:0.026316020637750626 93:4.212770436424762E-4 94:0.0035993927158415318 95:0.29914721846580505 96:0.3100104331970215 97:0.40355291962623596 98:0.057419512420892715 99:0.003486687783151865 100:0.026873061433434486 101:0.0 102:0.002948939334601164 103:0.050976235419511795 104:0.11788880825042725 105:0.10500020533800125 106:0.7685609459877014 107:0.1225326657295227 108:0.005399025976657867 109:0.30762261152267456 110:0.5858014822006226 111:0.2859862744808197 112:0.08040410280227661 113:0.0027350899763405323 114:0.006259264424443245 115:0.006385131739079952 116:0.01243461761623621 117:0.08455931395292282 118:0.029812680557370186 119:0.005641842260956764 120:0.0562107115983963 121:0.023901553824543953 122:0.014786512590944767 123:0.02337169460952282 124:0.012633913196623325 125:0.013041201047599316 126:0.009036170318722725 127:0.21404342353343964 128:0.019265588372945786 129:0.006411966402083635 130:0.0 131:0.0030280365608632565 132:0.0013946277322247624 133:0.008962192572653294 134:0.3057559132575989 135:0.5652644038200378 136:0.016699520871043205 137:0.01635906659066677 138:0.01652655377984047 139:0.01552378199994564 140:0.00659639248624444 141:0.010934199206531048 142:0.006086625624448061 143:0.011531537398695946 144:0.003070011269301176 145:0.16748912632465363 146:0.20437733829021454 147:0.1274566650390625 148:0.1889478713274002 149:0.16788628697395325 150:0.049554891884326935 151:0.14827103912830353 152:0.0863277018070221 153:0.1843891590833664 154:0.18437053263187408 155:0.1795159876346588 156:0.11140333861112595 157:0.14669543504714966 158:0.18248994648456573 159:0.08976402133703232 160:0.14844633638858795 161:0.16796669363975525 162:0.1306953877210617 163:0.32574039697647095 164:0.15637145936489105 165:0.0 166:0.06560976058244705 167:0.11323418468236923 168:0.28848153352737427 169:0.15762761235237122 170:0.20630070567131042 171:0.18702831864356995 172:0.3507406413555145 173:0.16606299579143524 174:0.10068999230861664 175:0.10720131546258926 176:0.12353040277957916 177:0.12117206305265427 178:0.07475810497999191 179:0.09305620938539505 180:0.16001111268997192 181:0.02727949246764183 182:0.025861501693725586 183:0.03410131484270096 184:0.018088877201080322 185:0.009170906618237495 186:0.01477799192070961 187:0.00951602216809988 188:0.015932956710457802 189:0.02551470883190632 190:0.1588774472475052 191:0.010107211768627167 192:0.01619131863117218 193:0.029803480952978134 194:0.018385954201221466 195:0.016399506479501724 196:0.33492016792297363 197:0.3075530529022217 198:0.32813742756843567 199:0.039256658405065536 200:0.01437088381499052 201:0.017953326925635338 202:0.00410997960716486 203:0.023734254762530327 204:0.027909621596336365 205:0.022610090672969818 206:0.024232907220721245 207:0.00976943876594305 208:0.1776779443025589 209:0.49959301948547363 210:0.5933394432067871 211:0.06266243010759354 212:0.07681888341903687 213:0.005808224901556969 214:0.010592707432806492 215:0.0114581398665905 216:0.0795024037361145 217:0.04476156085729599 218:0.0061345407739281654 219:0.010167306289076805 220:0.010121971368789673 221:0.020107362419366837 222:0.056839775294065475 223:0.4136276841163635 224:0.4724106192588806 225:0.05898038297891617 226:0.0 227:0.012608134187757969 228:0.053177401423454285 229:0.09981100261211395 230:0.16415472328662872 231:0.32824188470840454 232:0.6327453851699829 233:0.033598627895116806 234:0.010547289624810219 235:0.04058701545000076 236:0.01197979599237442 237:0.015575931407511234 238:0.009450094774365425 239:0.009585829451680183 240:0.0015310404123738408 241:0.005591781344264746 242:7.655202061869204E-4 243:0.017048029229044914 244:0.010213038884103298 245:0.023505812510848045 246:0.054803457111120224 247:0.07696553319692612 248:0.16727884113788605 249:0.06378404796123505 250:0.05289152264595032 251:0.012755893170833588 252:0.0 253:0.03421436622738838 254:0.005024980753660202 255:0.19618520140647888 256:0.06874006241559982 257:0.6807605624198914 258:0.04316376522183418 259:0.022475440055131912 260:0.01894335448741913 261:0.01133343018591404 262:0.0336819663643837 263:0.03820297494530678 264:0.11847981065511703 265:0.4436888098716736 266:0.49149420857429504 267:0.07079385966062546 268:0.059935230761766434 269:0.011928718537092209 270:0.02119438908994198 271:0.02365635335445404 272:0.01231017243117094 273:0.016086358577013016 274:0.08307092636823654 275:0.10984418541193008 276:0.01968667097389698 277:0.00503379013389349 278:0.00666340347379446 279:0.015460636466741562 280:0.01253005862236023 281:0.012125322595238686 282:0.009958523325622082 283:0.030387697741389275 284:0.03530135378241539 285:0.018298523500561714 286:0.03668953478336334 287:0.01243042666465044 288:0.002336568431928754 289:0.04538153111934662 290:0.06490176916122437 291:0.71809983253479 292:0.31117919087409973 293:0.357692152261734 294:0.16247573494911194 295:0.051584940403699875 296:0.020266739651560783 297:0.02658170461654663 298:0.05541663616895676 299:0.26201748847961426 300:0.3157859742641449 301:0.17359080910682678 302:0.0630393922328949 303:0.029422076418995857 304:0.03350236266851425 305:0.03117024526000023 306:0.05803236365318298 307:0.0040292455814778805 308:0.0011038179509341717 309:0.010504473932087421 310:0.027003543451428413 311:0.023317985236644745 312:0.06189597398042679 313:0.02151050791144371 314:0.030603861436247826 315:0.007568704895675182 316:0.03729576617479324 317:0.03036201372742653 318:0.029484523460268974 319:0.029909608885645866 320:0.012951495125889778 321:0.006113465875387192 322:0.00812767818570137 323:0.009953120723366737 324:0.009627530351281166 
-0.08107416003003953 0.3916283247400029 0.11570490554250297 0.21295764690756241 0.10793198245456705 0.4860508767769337 1:0.028609972447156906 2:0.04413887858390808 3:0.07975601404905319 4:0.1447688341140747 5:0.5414767265319824 6:0.018354328349232674 7:0.0 8:0.04530889913439751 9:0.02390051819384098 10:0.11869541555643082 11:0.15593819320201874 12:0.19579295814037323 13:0.19456854462623596 14:0.44839027523994446 15:0.2684417963027954 16:0.3128269612789154 17:0.10623515397310257 18:0.07222088426351547 19:0.16526876389980316 20:0.037290968000888824 21:0.16807039082050323 22:0.08064396679401398 23:0.04959024116396904 24:0.026271743699908257 25:0.11111032217741013 26:0.029866967350244522 27:0.10859780758619308 28:0.15916582942008972 29:0.045454949140548706 30:0.10078540444374084 31:0.10146831721067429 32:0.12705330550670624 33:0.028479324653744698 34:0.013752889819443226 35:0.12073635309934616 36:0.021730270236730576 37:0.11700344830751419 38:0.05967705324292183 39:0.28899523615837097 40:0.1998140811920166 41:0.44893360137939453 42:0.22041180729866028 43:0.10044989734888077 44:0.09069707244634628 45:0.14264710247516632 46:0.02706431970000267 47:0.05389412119984627 48:0.05052977800369263 49:0.230667382478714 50:0.5544037222862244 51:0.30032241344451904 52:0.1050589457154274 53:0.09345555305480957 54:0.006449987180531025 55:0.12178678810596466 56:0.06392662227153778 57:0.040851134806871414 58:0.055857885628938675 59:0.05853193998336792 60:0.042576223611831665 61:0.08656889200210571 62:0.10509113222360611 63:0.037209175527095795 64:0.12590044736862183 65:0.04204649478197098 66:0.0464971661567688 67:0.054711975157260895 68:0.05091743916273117 69:0.06160475313663483 70:0.07640951126813889 71:0.06131311506032944 72:0.07823891192674637 73:0.024638177827000618 74:0.029291195794939995 75:0.0896817147731781 76:0.35756176710128784 77:0.4113974869251251 78:0.36885887384414673 79:0.07173638045787811 80:0.04659426584839821 81:0.00897361058741808 82:0.03231626749038696 83:0.0647968128323555 84:0.08767581731081009 85:0.264234334230423 86:0.38783660531044006 87:0.35215330123901367 88:0.14417670667171478 89:0.12305376678705215 90:0.005565197207033634 91:0.0774611309170723 92:0.07670536637306213 93:0.075299933552742 94:0.07185686379671097 95:0.1080484688282013 96:0.10752353072166443 97:0.06932938098907471 98:0.12302283942699432 99:0.04888247326016426 100:0.08606983721256256 101:0.12149173766374588 102:0.06261641532182693 103:0.09722869843244553 104:0.1167178824543953 105:0.12443380802869797 106:0.11776085942983627 107:0.06028785556554794 108:0.07977843284606934 109:0.08208368718624115 110:0.06721299886703491 111:0.06833959370851517 112:0.07191234827041626 113:0.07122591882944107 114:0.0358281172811985 115:0.042153291404247284 116:0.021518923342227936 117:0.11364464461803436 118:0.09232478588819504 119:0.020423397421836853 120:0.08108735829591751 121:0.09545740485191345 122:0.058399610221385956 123:0.06867200136184692 124:0.028757305815815926 125:0.07652400434017181 126:0.045275770127773285 127:0.11527504026889801 128:0.02261444739997387 129:0.028016764670610428 130:0.04701189324259758 131:0.048207614570856094 132:0.04420560598373413 133:0.05106855556368828 134:0.021798832342028618 135:0.046747077256441116 136:0.6820868253707886 137:0.5223828554153442 138:0.12873142957687378 139:0.25902166962623596 140:0.013969097286462784 141:0.03180786222219467 142:0.17992544174194336 143:0.04531934857368469 144:0.17927108705043793 145:0.04365997761487961 146:0.17460665106773376 147:0.28350573778152466 148:0.11597141623497009 149:0.39233288168907166 150:0.004222711082547903 151:0.05179371312260628 152:0.06283631920814514 153:0.07513195276260376 154:0.12302783131599426 155:0.04121347889304161 156:0.03814135864377022 157:0.12061811238527298 158:0.5218394994735718 159:0.2785143554210663 160:0.04523608833551407 161:0.11950015276670456 162:0.1695679873228073 163:0.028276916593313217 164:0.2546752989292145 165:0.39668238162994385 166:0.021075546741485596 167:0.0784233957529068 168:0.03264113888144493 169:0.034885261207818985 170:0.06988464295864105 171:0.03640696406364441 172:0.026755021885037422 173:0.03980452939867973 174:0.022468313574790955 175:0.06441310793161392 176:0.029249433428049088 177:0.14439281821250916 178:0.08104418963193893 179:0.07200415432453156 180:0.035272449254989624 181:0.101580411195755 182:0.030846301466226578 183:0.0761687308549881 184:0.10301525145769119 185:0.05654355138540268 186:0.064820796251297 187:0.13615679740905762 188:0.03788610175251961 189:0.02563372626900673 190:0.07795204967260361 191:0.08535728603601456 192:0.06531984359025955 193:0.0452696867287159 194:0.06527106463909149 195:0.050932858139276505 196:0.07757021486759186 197:0.07814285904169083 198:0.05096955597400665 199:0.3410989046096802 200:0.1569989174604416 201:0.20845511555671692 202:0.01340487040579319 203:0.11327042430639267 204:0.32610639929771423 205:0.338522732257843 206:0.6562138199806213 207:0.15559877455234528 208:0.08944999426603317 209:0.029961127787828445 210:0.04529895633459091 211:0.03580062463879585 212:0.07939598709344864 213:0.02795221284031868 214:0.08802007138729095 215:0.048962462693452835 216:0.018389403820037842 217:0.09942474216222763 218:0.015235389582812786 219:0.012460866011679173 220:0.030930593609809875 221:0.018727999180555344 222:0.052611637860536575 223:0.07774603366851807 224:0.08728774636983871 225:0.08963368088006973 226:0.2934185564517975 227:0.04920880123972893 228:0.04743226617574692 229:0.04189867898821831 230:0.03284687176346779 231:0.10465706884860992 232:0.3887214660644531 233:0.6199095249176025 234:0.46826082468032837 235:0.04927806556224823 236:0.06526561081409454 237:0.050778113305568695 238:0.044296957552433014 239:0.024663683027029037 240:0.06177600100636482 241:0.045849159359931946 242:0.01677260547876358 243:0.003701445646584034 244:0.11837419867515564 245:0.0750899538397789 246:0.09870124608278275 247:0.12513591349124908 248:0.10000468045473099 249:0.08750150352716446 250:0.04848255217075348 251:0.1287602335214615 252:0.0710703656077385 253:0.09324481338262558 254:0.029578430578112602 255:0.09478341042995453 256:0.09896566718816757 257:0.0446142852306366 258:0.15138693153858185 259:0.5039383769035339 260:0.21755029261112213 261:0.13321436941623688 262:0.17857034504413605 263:0.13492539525032043 264:0.0830954760313034 265:0.089394211769104 266:0.15613961219787598 267:0.2212372124195099 268:0.15631639957427979 269:0.14559276401996613 270:0.06916439533233643 271:0.09214597940444946 272:0.0436156764626503 273:0.06811851263046265 274:0.07585026323795319 275:0.1828233152627945 276:0.1109158918261528 277:0.4801781475543976 278:0.22772598266601562 279:0.21047240495681763 280:0.12313666194677353 281:0.06804902851581573 282:0.037283629179000854 283:0.07267432659864426 284:0.05951374024152756 285:0.045507676899433136 286:0.07375438511371613 287:0.07417727261781693 288:0.05219406634569168 289:0.5916066765785217 290:0.1974489688873291 291:0.18732604384422302 292:0.06810294091701508 293:0.45365795493125916 294:0.09474296867847443 295:0.08869520574808121 296:0.19052408635616302 297:0.12275399267673492 298:0.23845592141151428 299:0.17656183242797852 300:0.09229572862386703 301:0.10652554780244827 302:0.11131543666124344 303:0.08573166280984879 304:0.07364589720964432 305:0.05779707431793213 306:0.15804579854011536 307:0.056474972516298294 308:0.08115971833467484 309:0.08304709196090698 310:0.10359452664852142 311:0.0804213359951973 312:0.13314050436019897 313:0.15912844240665436 314:0.058098260313272476 315:0.05020136386156082 316:0.05231785401701927 317:0.05242576822638512 318:0.11415404826402664 319:0.11149464547634125 320:0.06218548119068146 321:0.10171709209680557 322:0.03112245537340641 323:0.06039205193519592 324:0.05736691877245903 
-0.05119681446706374 0.15717201770237169 0.09657533629364491 0.21869858162714081 0.015710945084509667 0.31505016788600143 1:0.37046241760253906 2:0.1181880533695221 3:0.1247602179646492 4:0.1047460213303566 5:0.06663218885660172 6:0.08347830176353455 7:0.14941205084323883 8:0.059730157256126404 9:0.40964066982269287 10:0.13996799290180206 11:0.11974941194057465 12:0.11802934855222702 13:0.17663145065307617 14:0.23860664665699005 15:0.1707235723733902 16:0.0889022946357727 17:0.07149326056241989 18:0.015050677582621574 19:0.319837749004364 20:0.059730153530836105 21:0.11196497082710266 22:0.04525405913591385 23:0.16182102262973785 24:0.031927309930324554 25:0.05081474781036377 26:0.01064243633300066 27:0.3999037444591522 28:0.23020538687705994 29:0.23914170265197754 30:0.12485426664352417 31:0.01064243633300066 32:0.03331609442830086 33:0.02569311484694481 34:0.026923468336462975 35:0.01064243633300066 36:0.0 37:0.182858407497406 38:0.2524242103099823 39:0.15827889740467072 40:0.1615900695323944 41:0.1766008585691452 42:0.0290385689586401 43:0.024576392024755478 44:0.029190968722105026 45:0.06677323579788208 46:0.0785689726471901 47:0.053094904869794846 48:0.04581059142947197 49:0.13315404951572418 50:0.256500244140625 51:0.23301821947097778 52:0.13363313674926758 53:0.022754961624741554 54:0.05689319223165512 55:0.20917274057865143 56:0.11508739739656448 57:0.11850567907094955 58:0.025896765291690826 59:0.044338490813970566 60:0.0638217031955719 61:0.04101342335343361 62:0.057861700654029846 63:0.1723656952381134 64:0.4765610098838806 65:0.16206197440624237 66:0.10074049979448318 67:0.2934735119342804 68:0.3987625539302826 69:0.03218037635087967 70:0.02937355823814869 71:0.10924751311540604 72:0.09069579094648361 73:0.044199202209711075 74:0.07761235535144806 75:0.1759723275899887 76:0.3151583671569824 77:0.15757997334003448 78:0.10677416622638702 79:0.061944205313920975 80:0.04293254017829895 81:0.0 82:0.07679383456707001 83:0.10425577312707901 84:0.09294500946998596 85:0.14675672352313995 86:0.3350503146648407 87:0.14778171479701996 88:0.11824481189250946 89:0.029947180300951004 90:0.009182038716971874 91:0.12715771794319153 92:0.15713119506835938 93:0.12567612528800964 94:0.06443258374929428 95:0.17245547473430634 96:0.39988988637924194 97:0.1717761605978012 98:0.3536648154258728 99:0.40956154465675354 100:0.04195045307278633 101:0.03246340900659561 102:0.07247071713209152 103:0.12178017199039459 104:0.09049271047115326 105:0.09303487092256546 106:0.03510712832212448 107:0.09956981986761093 108:0.011971913278102875 109:0.4197596311569214 110:0.04300908371806145 111:0.0634697750210762 112:0.0143363606184721 113:0.08334840089082718 114:0.0 115:0.09973820298910141 116:0.0 117:0.2589365839958191 118:0.3705267310142517 119:0.08046212792396545 120:0.20854352414608002 121:0.0143363606184721 122:0.12181688845157623 123:0.0860181599855423 124:0.045335553586483 125:0.04300908371806145 126:0.03899911791086197 127:0.40758582949638367 128:0.0573454424738884 129:0.0181342214345932 130:0.04300908371806145 131:0.08334840089082718 132:0.0143363606184721 133:0.09067109227180481 134:0.08046212792396545 135:0.32269614934921265 136:0.4240249693393707 137:0.13241159915924072 138:0.0725368782877922 139:0.0286727212369442 140:0.08334840089082718 141:0.0632837563753128 142:0.0634697750210762 143:0.051789406687021255 144:0.0 145:0.17088526487350464 146:0.2420242577791214 147:0.08608783036470413 148:0.22319217026233673 149:0.10184071958065033 150:0.040271930396556854 151:0.0669369176030159 152:0.04480823874473572 153:0.06493772566318512 154:0.13328897953033447 155:0.11032368987798691 156:0.051620904356241226 157:0.1387258917093277 158:0.14091557264328003 159:0.038424864411354065 160:0.038148149847984314 161:0.021713275462388992 162:0.050551123917102814 163:0.09250487387180328 164:0.16001534461975098 165:0.020366569980978966 166:0.05080939456820488 167:0.08038092404603958 168:0.3442757725715637 169:0.40187522768974304 170:0.3268326222896576 171:0.43116798996925354 172:0.16446883976459503 173:0.01915135234594345 174:0.07740943133831024 175:0.08188767731189728 176:0.25729888677597046 177:0.031069893389940262 178:0.10759547352790833 179:0.12303557991981506 180:0.06529717147350311 181:0.07000337541103363 182:0.03835929185152054 183:0.03858716040849686 184:0.05009676143527031 185:0.06477916985750198 186:0.2214837372303009 187:0.212601900100708 188:0.43958958983421326 189:0.11345090717077255 190:0.20872078835964203 191:0.04007817432284355 192:0.08366672694683075 193:0.05976981669664383 194:0.10205554217100143 195:0.22304515540599823 196:0.11527061462402344 197:0.14855413138866425 198:0.1552521288394928 199:0.19126413762569427 200:0.33197516202926636 201:0.35028475522994995 202:0.23217113316059113 203:0.02649354748427868 204:0.03674112632870674 205:0.035849060863256454 206:0.0196977611631155 207:0.13830730319023132 208:0.31975266337394714 209:0.07615608721971512 210:0.08048561215400696 211:0.18175141513347626 212:0.03291623666882515 213:0.06946336477994919 214:0.019169418141245842 215:0.09502671658992767 216:0.02442116104066372 217:0.7404917478561401 218:0.07943396270275116 219:0.04019075632095337 220:0.031773585826158524 221:0.042628735303878784 222:0.015886792913079262 223:0.05023844912648201 224:0.031773585826158524 225:0.15295493602752686 226:0.1716678887605667 227:0.09532075375318527 228:0.060286134481430054 229:0.05424090102314949 230:0.11367662996053696 231:0.060821425169706345 232:0.1909060776233673 233:0.0732770562171936 234:0.0674019530415535 235:0.1645631045103073 236:0.10836372524499893 237:0.030143067240715027 238:0.10848180204629898 239:0.10657183825969696 240:0.11778806895017624 241:0.2466658353805542 242:0.11120753735303879 243:0.20443053543567657 244:0.13614393770694733 245:0.047660376876592636 246:0.12609358131885529 247:0.15614217519760132 248:0.11426465213298798 249:0.1176944151520729 250:0.11151949316263199 251:0.08916384726762772 252:0.0742284283041954 253:0.05204859748482704 254:0.0349152609705925 255:0.0518384724855423 256:0.030598117038607597 257:0.17436279356479645 258:0.12089535593986511 259:0.09300020337104797 260:0.015174643136560917 261:0.010730093345046043 262:0.38210469484329224 263:0.026840824633836746 264:0.10005425661802292 265:0.1153440773487091 266:0.4122066795825958 267:0.14876331388950348 268:0.19264763593673706 269:0.1225748211145401 270:0.36849650740623474 271:0.01821700856089592 272:0.0398445762693882 273:0.2128298133611679 274:0.1577436923980713 275:0.2272798866033554 276:0.06964528560638428 277:0.020424367859959602 278:0.023276841267943382 279:0.008229605853557587 280:0.021241754293441772 281:0.0421082004904747 282:0.07059647142887115 283:0.2367543876171112 284:0.4233068823814392 285:0.11369846761226654 286:0.05354788899421692 287:0.02339770831167698 288:0.0 289:0.3425534665584564 290:0.1410319060087204 291:0.09001205861568451 292:0.1866607517004013 293:0.14899204671382904 294:0.14610610902309418 295:0.10344889014959335 296:0.14471223950386047 297:0.07732642441987991 298:0.060676440596580505 299:0.03546932712197304 300:0.11467337608337402 301:0.13136999309062958 302:0.10468754172325134 303:0.08083756268024445 304:0.02522599883377552 305:0.0 306:0.0 307:0.015289264731109142 308:0.014885677956044674 309:0.02162228524684906 310:0.1583440899848938 311:0.5503808856010437 312:0.11014195531606674 313:0.045531317591667175 314:0.017093919217586517 315:0.008058150298893452 316:0.010606360621750355 317:0.005697972606867552 318:0.14385177195072174 319:0.19692209362983704 320:0.5304510593414307 321:0.01375612337142229 322:0.02197912521660328 323:0.005697972606867552 324:0.0 
-0.041581740594451716 0.17709588288190561 0.13596903203190727 0.16866527557815253 0.04494719094474145 0.2735193686987431 1:0.32561904191970825 2:0.13180144131183624 3:0.0904417410492897 4:0.03968610614538193 5:0.050351932644844055 6:0.04357655718922615 7:0.044304825365543365 8:0.039315637201070786 9:0.0420897975564003 10:0.03736800700426102 11:0.1403077095746994 12:0.11519796401262283 13:0.1269015520811081 14:0.10233048349618912 15:0.0620514415204525 16:0.009479247033596039 17:0.06377291679382324 18:0.01512335054576397 19:0.25921007990837097 20:0.08801053464412689 21:0.10107789933681488 22:0.06440770626068115 23:0.00898941233754158 24:0.03276917710900307 25:0.022209784016013145 26:0.0964043140411377 27:0.21382662653923035 28:0.1673811674118042 29:0.49303045868873596 30:0.44964954257011414 31:0.3509475588798523 32:0.12595604360103607 33:0.019232917577028275 34:0.11070509999990463 35:0.03399055451154709 36:0.12614397704601288 37:0.09327439963817596 38:0.09176180511713028 39:0.10350611060857773 40:0.15708301961421967 41:0.12328017503023148 42:0.20731279253959656 43:0.09568316489458084 44:0.01859995350241661 45:0.011535201221704483 46:0.07433206588029861 47:0.07281307131052017 48:0.16433490812778473 49:0.06626083701848984 50:0.2501380741596222 51:0.130192831158638 52:0.06347393989562988 53:0.03800847753882408 54:0.0400690957903862 55:0.18333449959754944 56:0.3635927140712738 57:0.34522193670272827 58:0.4042402505874634 59:0.2331567108631134 60:0.0409507118165493 61:0.0523286871612072 62:0.07025045156478882 63:0.0736473947763443 64:0.19043809175491333 65:0.2291097342967987 66:0.059262488037347794 67:0.07302271574735641 68:0.1681969165802002 69:0.10721264034509659 70:0.1012495681643486 71:0.0671401396393776 72:0.2849140763282776 73:0.12095098942518234 74:0.08097963035106659 75:0.1627831608057022 76:0.11365212500095367 77:0.19664570689201355 78:0.10500330477952957 79:0.06780038774013519 80:0.1085629016160965 81:0.02535395510494709 82:0.06797122955322266 83:0.02295198105275631 84:0.08022071421146393 85:0.07428659498691559 86:0.11239389330148697 87:0.11241122335195541 88:0.054272137582302094 89:0.041203323751688004 90:0.0059843724593520164 91:0.31231847405433655 92:0.1841842383146286 93:0.026165910065174103 94:0.1739829033613205 95:0.32680803537368774 96:0.09991399943828583 97:0.41758427023887634 98:0.20365078747272491 99:0.21858146786689758 100:0.24153390526771545 101:0.14114703238010406 102:0.2753118574619293 103:0.22089722752571106 104:0.11503251641988754 105:0.13528241217136383 106:0.03312419727444649 107:0.04129327833652496 108:0.21354955434799194 109:0.2234892100095749 110:0.1556447148323059 111:0.09014537185430527 112:0.007816683501005173 113:0.07279837876558304 114:0.08305379003286362 115:0.044069305062294006 116:0.02774995192885399 117:0.23294766247272491 118:0.3392157256603241 119:0.26570045948028564 120:0.11060544103384018 121:0.09373454749584198 122:0.07708851248025894 123:0.03852226212620735 124:0.06526469439268112 125:0.1648467630147934 126:0.36774182319641113 127:0.03371807560324669 128:0.0396806038916111 129:0.05141445994377136 130:0.030615702271461487 131:0.03533059358596802 132:0.021037083119153976 133:0.05093841627240181 134:0.11168648302555084 135:0.08871457725763321 136:0.08528608083724976 137:0.061847586184740067 138:0.00150706572458148 139:0.01551619078963995 140:0.16372288763523102 141:0.3914938271045685 142:0.24562910199165344 143:0.42211875319480896 144:0.08266203105449677 145:0.1362125277519226 146:0.14995712041854858 147:0.17264099419116974 148:0.0628776103258133 149:0.025205301120877266 150:0.056121230125427246 151:0.005905969068408012 152:0.13944008946418762 153:0.048475608229637146 154:0.10754140466451645 155:0.0858476534485817 156:0.053340427577495575 157:0.1182423084974289 158:0.0735582709312439 159:0.03122992441058159 160:0.065515898168087 161:0.04537295550107956 162:0.04318350553512573 163:0.17077665030956268 164:0.1023646667599678 165:0.032644469290971756 166:0.15639305114746094 167:0.30336496233940125 168:0.30691903829574585 169:0.23770074546337128 170:0.16133056581020355 171:0.20892532169818878 172:0.13566508889198303 173:0.13462921977043152 174:0.24049361050128937 175:0.4860483407974243 176:0.30971020460128784 177:0.14018993079662323 178:0.02657686173915863 179:0.15352526307106018 180:0.034461475908756256 181:0.10432176291942596 182:0.06671668589115143 183:0.08010168373584747 184:0.040273517370224 185:0.027391960844397545 186:0.07397567480802536 187:0.07445325702428818 188:0.04683190956711769 189:0.08862525969743729 190:0.38537856936454773 191:0.4778549373149872 192:0.12022826820611954 193:0.14638929069042206 194:0.1611434519290924 195:0.09242025762796402 196:0.08114539086818695 197:0.14181771874427795 198:0.1912321299314499 199:0.15119612216949463 200:0.18743425607681274 201:0.34725987911224365 202:0.20585046708583832 203:0.21466724574565887 204:0.07799158245325089 205:0.021992221474647522 206:0.07873579859733582 207:0.04287947341799736 208:0.19116275012493134 209:0.11714998632669449 210:0.24120590090751648 211:0.13879741728305817 212:0.08119495958089828 213:0.12353774160146713 214:0.02124115638434887 215:0.03898965194821358 216:0.1054142564535141 217:0.18517689406871796 218:0.13734716176986694 219:0.055175889283418655 220:0.08502086997032166 221:0.11238305270671844 222:0.07361883670091629 223:0.2174248844385147 224:0.1619785726070404 225:0.12640655040740967 226:0.11005330830812454 227:0.03654755279421806 228:0.060181666165590286 229:0.16742417216300964 230:0.19020295143127441 231:0.10711389034986496 232:0.06372980773448944 233:0.05924316495656967 234:0.028164010494947433 235:0.24680174887180328 236:0.18277160823345184 237:0.22795487940311432 238:0.12656190991401672 239:0.1591634601354599 240:0.22547903656959534 241:0.4333575963973999 242:0.10960737615823746 243:0.2948214113712311 244:0.19504795968532562 245:0.13478678464889526 246:0.16601082682609558 247:0.1421622335910797 248:0.17878925800323486 249:0.08494876325130463 250:0.119466133415699 251:0.20732547342777252 252:0.04791060462594032 253:0.09646882861852646 254:0.11429913341999054 255:0.0908077284693718 256:0.23994407057762146 257:0.3460105061531067 258:0.24055767059326172 259:0.058479033410549164 260:0.010193190537393093 261:0.06121300160884857 262:0.14285415410995483 263:0.049801237881183624 264:0.13075152039527893 265:0.07546687871217728 266:0.677871823310852 267:0.006321548484265804 268:0.06239672750234604 269:0.020386381074786186 270:0.08446093648672104 271:0.08323605358600616 272:0.0766197070479393 273:0.06683716922998428 274:0.0565948411822319 275:0.12514503300189972 276:0.21517892181873322 277:0.18827947974205017 278:0.059903088957071304 279:0.008940019644796848 280:0.10123209655284882 281:0.05196395888924599 282:0.1521979421377182 283:0.09708505123853683 284:0.13348376750946045 285:0.1062203124165535 286:0.06858499348163605 287:0.053153593093156815 288:0.08098895102739334 289:0.23900815844535828 290:0.08347220718860626 291:0.09301713854074478 292:0.05584646761417389 293:0.14832578599452972 294:0.08079644292593002 295:0.08837234228849411 296:0.14797274768352509 297:0.16335232555866241 298:0.24386277794837952 299:0.26187753677368164 300:0.20084695518016815 301:0.0686567947268486 302:0.11011243611574173 303:0.14354939758777618 304:0.2593516409397125 305:0.15825842320919037 306:0.08521541953086853 307:0.4980166256427765 308:0.1254221349954605 309:0.10557704418897629 310:0.15638260543346405 311:0.09978939592838287 312:0.035950541496276855 313:0.06359663605690002 314:0.1978389322757721 315:0.14895060658454895 316:0.15688906610012054 317:0.17790359258651733 318:0.017273079603910446 319:0.10042930394411087 320:0.055056218057870865 321:0.13570380210876465 322:0.10100246965885162 323:0.16230536997318268 324:0.18220876157283783 
-0.004883332113096514 0.2688231550885336 0.24496146810396577 0.09039528032628417 0.11297285700081629 0.32521435947421534 1:0.2704727351665497 2:0.14624734222888947 3:0.0846085250377655 4:0.10790426284074783 5:0.04138427972793579 6:0.04952314868569374 7:0.07280489802360535 8:0.006851885002106428 9:0.09098830074071884 10:0.04410117492079735 11:0.03972255438566208 12:0.1831667125225067 13:0.15150263905525208 14:0.02760627120733261 15:0.07709110528230667 16:0.054386697709560394 17:0.059226687997579575 18:0.036141540855169296 19:0.3349579870700836 20:0.0787564143538475 21:0.06958990544080734 22:0.013000537641346455 23:0.016444524750113487 24:0.024514049291610718 25:0.02251617982983589 26:0.0137672433629632 27:0.17534491419792175 28:0.11160480231046677 29:0.39430591464042664 30:0.5874350666999817 31:0.29565998911857605 32:0.07851094007492065 33:0.05009949579834938 34:0.05871586874127388 35:0.10529355704784393 36:0.12247069180011749 37:0.10755239427089691 38:0.09844120591878891 39:0.10237228870391846 40:0.12204098701477051 41:0.20474335551261902 42:0.10106955468654633 43:0.09047647565603256 44:0.0926220491528511 45:0.03465946763753891 46:0.08216327428817749 47:0.13982489705085754 48:0.10944273322820663 49:0.04733540490269661 50:0.201497420668602 51:0.19659410417079926 52:0.05992398411035538 53:0.09857993572950363 54:0.037990882992744446 55:0.21101151406764984 56:0.35779187083244324 57:0.36206111311912537 58:0.3897484242916107 59:0.1962359994649887 60:0.06801480054855347 61:0.020804325118660927 62:0.05043063312768936 63:0.047999631613492966 64:0.12770593166351318 65:0.10531186312437057 66:0.0700753927230835 67:0.12793774902820587 68:0.17712154984474182 69:0.1303594410419464 70:0.08695425093173981 71:0.08557945489883423 72:0.36451032757759094 73:0.13773339986801147 74:0.08974055200815201 75:0.10028520971536636 76:0.13583458960056305 77:0.04140527918934822 78:0.2218906581401825 79:0.0804794579744339 80:0.04892453923821449 81:0.03272245079278946 82:0.07551013678312302 83:0.03643081709742546 84:0.06124461442232132 85:0.12668778002262115 86:0.09795532375574112 87:0.04886062070727348 88:0.09949056059122086 89:0.03687999024987221 90:0.02305549383163452 91:0.21655695140361786 92:0.0965256616473198 93:0.1548130363225937 94:0.07200846076011658 95:0.25571581721305847 96:0.10371551662683487 97:0.32981494069099426 98:0.24508759379386902 99:0.34878847002983093 100:0.49882522225379944 101:0.12672480940818787 102:0.06482736766338348 103:0.1773064136505127 104:0.16875439882278442 105:0.17811252176761627 106:0.011829397641122341 107:0.03328428417444229 108:0.13778860867023468 109:0.30755552649497986 110:0.11970990151166916 111:0.06341519206762314 112:0.03226584941148758 113:0.055408261716365814 114:0.0645175576210022 115:0.0267505943775177 116:0.018241753801703453 117:0.13278378546237946 118:0.47029373049736023 119:0.1935049593448639 120:0.0875195562839508 121:0.07822906225919724 122:0.08584269881248474 123:0.07823677361011505 124:0.06981504708528519 125:0.19852326810359955 126:0.19863733649253845 127:0.1492720991373062 128:0.054240502417087555 129:0.031749553978443146 130:0.022431034594774246 131:0.026129260659217834 132:0.020731763914227486 133:0.02939942292869091 134:0.11126534640789032 135:0.15224631130695343 136:0.0722660943865776 137:0.0489548034965992 138:0.0429103747010231 139:0.00929691456258297 140:0.24926641583442688 141:0.3795901834964752 142:0.15748609602451324 143:0.42584386467933655 144:0.06547299772500992 145:0.21316677331924438 146:0.08583635091781616 147:0.19030937552452087 148:0.1368163377046585 149:0.02980964444577694 150:0.023927442729473114 151:0.04648555815219879 152:0.028309978544712067 153:0.06015823036432266 154:0.1173061951994896 155:0.0418052077293396 156:0.05407104641199112 157:0.06528682261705399 158:0.09333551675081253 159:0.043918002396821976 160:0.012716146185994148 161:0.0846005231142044 162:0.04274853691458702 163:0.27539530396461487 164:0.14989081025123596 165:0.11361946910619736 166:0.17404165863990784 167:0.43713071942329407 168:0.03568612411618233 169:0.24049799144268036 170:0.15550929307937622 171:0.13799792528152466 172:0.07417422533035278 173:0.23546093702316284 174:0.1776738464832306 175:0.4488043785095215 176:0.2288554161787033 177:0.22066007554531097 178:0.02577139250934124 179:0.09579814970493317 180:0.044221095740795135 181:0.08208677917718887 182:0.11311419308185577 183:0.05341798812150955 184:0.06537067890167236 185:0.06733299791812897 186:0.03845217078924179 187:0.07591111212968826 188:0.05546065419912338 189:0.04317193105816841 190:0.26431357860565186 191:0.49918386340141296 192:0.19284071028232574 193:0.14428091049194336 194:0.1263236254453659 195:0.1649802029132843 196:0.14903707802295685 197:0.06735339760780334 198:0.2705008387565613 199:0.08286961168050766 200:0.20486119389533997 201:0.36160048842430115 202:0.3055950701236725 203:0.14205770194530487 204:0.06854908168315887 205:0.06002039462327957 206:0.017599264159798622 207:0.052118025720119476 208:0.1178043931722641 209:0.1815410852432251 210:0.24672643840312958 211:0.05449235439300537 212:0.07577935606241226 213:0.04486914724111557 214:0.08315874636173248 215:0.04738364368677139 216:0.06632034480571747 217:0.4106331467628479 218:0.12705779075622559 219:0.08024188131093979 220:0.09748232364654541 221:0.12822675704956055 222:0.12652158737182617 223:0.09559451788663864 224:0.2175467312335968 225:0.23411773145198822 226:0.14696229994297028 227:0.14205819368362427 228:0.09151127189397812 229:0.07428260892629623 230:0.09145261347293854 231:0.07009714841842651 232:0.10202887654304504 233:0.09560761600732803 234:0.0 235:0.19851920008659363 236:0.17030896246433258 237:0.21841278672218323 238:0.2911972403526306 239:0.10092271864414215 240:0.31603115797042847 241:0.21558532118797302 242:0.13881030678749084 243:0.16240310668945312 244:0.08572179824113846 245:0.12730537354946136 246:0.10442312806844711 247:0.198508620262146 248:0.18849244713783264 249:0.08120894432067871 250:0.18171346187591553 251:0.10461457073688507 252:0.06341589242219925 253:0.19726374745368958 254:0.0773155689239502 255:0.12936557829380035 256:0.2410978376865387 257:0.36507904529571533 258:0.10629823058843613 259:0.10564857721328735 260:0.11199816316366196 261:0.09050749987363815 262:0.07652854174375534 263:0.23273363709449768 264:0.049445074051618576 265:0.3453787565231323 266:0.4929848313331604 267:0.08935565501451492 268:0.06762369722127914 269:0.10524702072143555 270:0.030871743336319923 271:0.02459045685827732 272:0.05700833722949028 273:0.16223271191120148 274:0.17677341401576996 275:0.1273939311504364 276:0.15874329209327698 277:0.1248476654291153 278:0.032744430005550385 279:0.018413880839943886 280:0.15898191928863525 281:0.07335889339447021 282:0.07277938723564148 283:0.08181478828191757 284:0.2067084163427353 285:0.16537171602249146 286:0.040882792323827744 287:0.05027155205607414 288:0.1327425241470337 289:0.22872920334339142 290:0.22938628494739532 291:0.22424207627773285 292:0.08784481883049011 293:0.08985929936170578 294:0.2638770639896393 295:0.13150940835475922 296:0.21775086224079132 297:0.05093773826956749 298:0.3270474076271057 299:0.21092435717582703 300:0.06354011595249176 301:0.01674429140985012 302:0.12054409831762314 303:0.14838942885398865 304:0.17644453048706055 305:0.22411338984966278 306:0.15006105601787567 307:0.2965354919433594 308:0.1515241414308548 309:0.029384708032011986 310:0.06671066582202911 311:0.17686030268669128 312:0.07035702466964722 313:0.14386588335037231 314:0.14636485278606415 315:0.1871665120124817 316:0.18076075613498688 317:0.17921791970729828 318:0.04519573599100113 319:0.06071670725941658 320:0.05990619957447052 321:0.10516002774238586 322:0.10105548799037933 323:0.2536330819129944 324:0.08098360896110535 
-0.03173150638153516 -0.32782341901906187 0.0 0.0 0.0 0.28888937471021553 1:0.044305577874183655 2:0.019970763474702835 3:0.021763857454061508 4:0.21416236460208893 5:0.6904208064079285 6:0.042431123554706573 7:0.060185689479112625 8:0.0035582957789301872 9:0.029808370396494865 10:0.0830812156200409 11:0.06306500732898712 12:0.0826740488409996 13:0.277023583650589 14:0.3674001097679138 15:0.29612407088279724 16:0.048277128487825394 17:0.032098568975925446 18:0.049182869493961334 19:0.1813790649175644 20:0.11395597457885742 21:0.12802806496620178 22:0.06283073127269745 23:0.03522024303674698 24:0.025207646191120148 25:0.08332982659339905 26:0.04436706751585007 27:0.09971699863672256 28:0.10590784251689911 29:0.07852117717266083 30:0.07390767335891724 31:0.05265369266271591 32:0.060601796954870224 33:0.14302870631217957 34:0.06127757206559181 35:0.06389599293470383 36:0.02908533811569214 37:0.027049211785197258 38:0.0177720058709383 39:0.016885852441191673 40:0.2307988554239273 41:0.5233185887336731 42:0.1963275820016861 43:0.02828057110309601 44:0.04495261237025261 45:0.013090076856315136 46:0.04742303118109703 47:0.04056611657142639 48:0.03913441300392151 49:0.26042044162750244 50:0.6689233183860779 51:0.072798952460289 52:0.04852577671408653 53:0.05211209878325462 54:0.03579442575573921 55:0.08225077390670776 56:0.07893362641334534 57:0.0678894966840744 58:0.09368883818387985 59:0.01901407353579998 60:0.0793454647064209 61:0.031723953783512115 62:0.046904705464839935 63:0.02615625038743019 64:0.17632868885993958 65:0.02060006745159626 66:0.04170798137784004 67:0.028255632147192955 68:0.03485913574695587 69:0.0705176442861557 70:0.09418176114559174 71:0.028582634404301643 72:0.10385765135288239 73:0.009538060985505581 74:0.0418354794383049 75:0.06701872497797012 76:0.35330313444137573 77:0.4446845054626465 78:0.4482153356075287 79:0.04743533954024315 80:0.0 81:0.0 82:0.02258215844631195 83:0.05774318426847458 84:0.0333247072994709 85:0.2382853925228119 86:0.47978442907333374 87:0.1988956481218338 88:0.12603238224983215 89:0.09798247367143631 90:0.043941352516412735 91:0.10647912323474884 92:0.04334735870361328 93:0.09199769794940948 94:0.031667258590459824 95:0.06112523376941681 96:0.13263145089149475 97:0.08138936012983322 98:0.048255372792482376 99:0.02513660490512848 100:0.0390847884118557 101:0.05143611878156662 102:0.12160414457321167 103:0.08772900700569153 104:0.10028337687253952 105:0.10629076510667801 106:0.07497766613960266 107:0.02002551220357418 108:0.03768473118543625 109:0.19790850579738617 110:0.17245332896709442 111:0.2901187837123871 112:0.16198702156543732 113:0.14869996905326843 114:0.08844424784183502 115:0.10557615756988525 116:0.2360173761844635 117:0.186317577958107 118:0.24731048941612244 119:0.18396598100662231 120:0.18633495271205902 121:0.20201772451400757 122:0.10308939218521118 123:0.1763090342283249 124:0.08837375044822693 125:0.09104491770267487 126:0.10903867334127426 127:0.3212694525718689 128:0.05884545296430588 129:0.0829586535692215 130:0.05062958970665932 131:0.06736236065626144 132:0.04834088683128357 133:0.08548177778720856 134:0.05219435319304466 135:0.25673219561576843 136:0.15627311170101166 137:0.20897722244262695 138:0.19754783809185028 139:0.1717873513698578 140:0.16973267495632172 141:0.17036442458629608 142:0.14388418197631836 143:0.14775003492832184 144:0.114067442715168 145:0.39387089014053345 146:0.0581895112991333 147:0.0877004936337471 148:0.09637988358736038 149:0.17131012678146362 150:0.16743186116218567 151:0.15194864571094513 152:0.17296597361564636 153:0.039344772696495056 154:0.21779516339302063 155:0.10938194394111633 156:0.1644984781742096 157:0.028619518503546715 158:0.12004707753658295 159:0.09242022782564163 160:0.08498243987560272 161:0.32315585017204285 162:0.26235631108283997 163:0.19456446170806885 164:0.0860334038734436 165:0.042234666645526886 166:0.05970148369669914 167:0.08106056600809097 168:0.1668982356786728 169:0.1858067363500595 170:0.10563867539167404 171:0.053965479135513306 172:0.31038349866867065 173:0.26021334528923035 174:0.15181700885295868 175:0.03815935552120209 176:0.16718967258930206 177:0.04047411307692528 178:0.09704948961734772 179:0.1782345324754715 180:0.169983372092247 181:0.29592201113700867 182:0.10773807764053345 183:0.19381876289844513 184:0.06785599887371063 185:0.0922098234295845 186:0.2175949215888977 187:0.18157397210597992 188:0.20161888003349304 189:0.08915617316961288 190:0.40635520219802856 191:0.20653380453586578 192:0.10584878921508789 193:0.137480229139328 194:0.06546992808580399 195:0.20385578274726868 196:0.1239762008190155 197:0.13402827084064484 198:0.15470866858959198 199:0.16555123031139374 200:0.18072138726711273 201:0.16706758737564087 202:0.13296028971672058 203:0.061105262488126755 204:0.101581871509552 205:0.07746264338493347 206:0.04879840090870857 207:0.06680065393447876 208:0.11647043377161026 209:0.17655563354492188 210:0.1403244286775589 211:0.13058476150035858 212:0.10475187748670578 213:0.1709374189376831 214:0.20240885019302368 215:0.2725074887275696 216:0.10382489860057831 217:0.4472886323928833 218:0.033113010227680206 219:0.05585450679063797 220:0.10535193979740143 221:0.1071767508983612 222:0.06490378081798553 223:0.12534120678901672 224:0.14159107208251953 225:0.20288987457752228 226:0.1512637585401535 227:0.22372467815876007 228:0.10832233726978302 229:0.1158527210354805 230:0.09901423752307892 231:0.12150246649980545 232:0.19012700021266937 233:0.21029460430145264 234:0.05970858782529831 235:0.30467361211776733 236:0.21181483566761017 237:0.099761001765728 238:0.040408212691545486 239:0.05329113453626633 240:0.1081317663192749 241:0.10165893286466599 242:0.05874091759324074 243:0.17594492435455322 244:0.31661972403526306 245:0.16403889656066895 246:0.17279431223869324 247:0.14996019005775452 248:0.13621124625205994 249:0.12223780155181885 250:0.18465951085090637 251:0.16322246193885803 252:0.0557914674282074 253:0.08893442898988724 254:0.23187284171581268 255:0.21272385120391846 256:0.1116405576467514 257:0.06682731211185455 258:0.10500568151473999 259:0.13982518017292023 260:0.18382628262043 261:0.08803946524858475 262:0.31704628467559814 263:0.2956896424293518 264:0.22316893935203552 265:0.13821305334568024 266:0.18707433342933655 267:0.10133502632379532 268:0.05734001100063324 269:0.12142112851142883 270:0.07842349261045456 271:0.14594976603984833 272:0.1659175008535385 273:0.14743508398532867 274:0.22792479395866394 275:0.13771960139274597 276:0.20572122931480408 277:0.20565572381019592 278:0.29696333408355713 279:0.10583972930908203 280:0.12404600530862808 281:0.1784079372882843 282:0.09063884615898132 283:0.1573278158903122 284:0.09191441535949707 285:0.19215252995491028 286:0.11123882234096527 287:0.056822117418050766 288:0.10522916167974472 289:0.2127266526222229 290:0.18791921436786652 291:0.07678372412919998 292:0.2932492196559906 293:0.18464553356170654 294:0.16832229495048523 295:0.06731041520833969 296:0.13098958134651184 297:0.1516847163438797 298:0.2683926820755005 299:0.16864491999149323 300:0.07548453658819199 301:0.04701573774218559 302:0.05772006884217262 303:0.16358457505702972 304:0.20435050129890442 305:0.13436977565288544 306:0.20857678353786469 307:0.18698668479919434 308:0.08417011797428131 309:0.10472780466079712 310:0.2370321899652481 311:0.17336001992225647 312:0.13755500316619873 313:0.1259371042251587 314:0.048399753868579865 315:0.0730503723025322 316:0.32991236448287964 317:0.19772590696811676 318:0.09543155133724213 319:0.19382691383361816 320:0.11557868868112564 321:0.061645060777664185 322:0.16850142180919647 323:0.18046942353248596 324:0.15548552572727203 
-0.05893739072529316 -0.2623124818160732 0.17166758782148853 0.23765925533349966 0.2293429250851056 0.5705615211207192 1:0.10920219123363495 2:0.09107979387044907 3:0.14974141120910645 4:0.19594711065292358 5:0.07988589257001877 6:0.07199104130268097 7:0.08795227110385895 8:0.09621081501245499 9:0.17025084793567657 10:0.07655356824398041 11:0.09333132207393646 12:0.25184741616249084 13:0.06303278356790543 14:0.26758700609207153 15:0.16870196163654327 16:0.03684430941939354 17:0.09657255560159683 18:0.052421849220991135 19:0.22962349653244019 20:0.053510554134845734 21:0.2410581111907959 22:0.10213861614465714 23:0.20753079652786255 24:0.3121596872806549 25:0.09900559484958649 26:0.09750896692276001 27:0.12771481275558472 28:0.2497955560684204 29:0.15795205533504486 30:0.07313157618045807 31:0.2566181719303131 32:0.10342367738485336 33:0.426540344953537 34:0.03937854245305061 35:0.05697839707136154 36:0.09853635728359222 37:0.20481187105178833 38:0.07511784881353378 39:0.2536875903606415 40:0.09964190423488617 41:0.1719556748867035 42:0.08894597738981247 43:0.21212990581989288 44:0.1098213940858841 45:0.07732383161783218 46:0.20074188709259033 47:0.10341951996088028 48:0.17940105497837067 49:0.09121040254831314 50:0.27675002813339233 51:0.14042304456233978 52:0.36780041456222534 53:0.04863247647881508 54:0.04343252629041672 55:0.05470310524106026 56:0.09064527601003647 57:0.16554445028305054 58:0.2871648073196411 59:0.3664763569831848 60:0.21803663671016693 61:0.0585610568523407 62:0.11491329967975616 63:0.2102731615304947 64:0.07473234087228775 65:0.01939961314201355 66:0.10224851965904236 67:0.13834331929683685 68:0.13967721164226532 69:0.12953324615955353 70:0.10472037643194199 71:0.06073039025068283 72:0.0 73:0.18298408389091492 74:0.09610828012228012 75:0.08905832469463348 76:0.20402957499027252 77:0.35595226287841797 78:0.2517014145851135 79:0.1525190770626068 80:0.2091161012649536 81:0.13144758343696594 82:0.14137986302375793 83:0.07986164838075638 84:0.054114874452352524 85:0.12783804535865784 86:0.342633992433548 87:0.21391519904136658 88:0.16130109131336212 89:0.2089930921792984 90:0.18413031101226807 91:0.14736807346343994 92:0.09559521079063416 93:0.08838538080453873 94:0.03964802250266075 95:0.10232089459896088 96:0.09176655113697052 97:0.04732713848352432 98:0.06788256019353867 99:0.04205308109521866 100:0.13891327381134033 101:0.23230411112308502 102:0.24998164176940918 103:0.1313714236021042 104:0.21340367197990417 105:0.15339502692222595 106:0.05986494570970535 107:0.059677910059690475 108:0.15500034391880035 109:0.25225481390953064 110:0.07347722351551056 111:0.07847736030817032 112:0.07101555168628693 113:0.16082686185836792 114:0.13319545984268188 115:0.16962149739265442 116:0.13877113163471222 117:0.24291932582855225 118:0.08972802758216858 119:0.11602260172367096 120:0.15401701629161835 121:0.05988703668117523 122:0.042671170085668564 123:0.13318540155887604 124:0.14480924606323242 125:0.07659666985273361 126:0.0777726024389267 127:0.2112109214067459 128:0.22275465726852417 129:0.09666509181261063 130:0.23508310317993164 131:0.23885832726955414 132:0.18671970069408417 133:0.1676424741744995 134:0.0928339958190918 135:0.14596955478191376 136:0.21904297173023224 137:0.3093692660331726 138:0.09328261762857437 139:0.13902342319488525 140:0.34933847188949585 141:0.15448372066020966 142:0.13206379115581512 143:0.1382286548614502 144:0.07002587616443634 145:0.04865233600139618 146:0.03764057904481888 147:0.07824069261550903 148:0.18864946067333221 149:0.35235080122947693 150:0.24341243505477905 151:0.024743014946579933 152:0.009780535474419594 153:0.0 154:0.09766155481338501 155:0.0950448215007782 156:0.08153925836086273 157:0.23717254400253296 158:0.32904544472694397 159:0.24023401737213135 160:0.09067472815513611 161:0.20023775100708008 162:0.0 163:0.1503487527370453 164:0.1429663896560669 165:0.07915118336677551 166:0.2136533409357071 167:0.408130407333374 168:0.03526422381401062 169:0.14676152169704437 170:0.25695958733558655 171:0.14894011616706848 172:0.15487632155418396 173:0.1259690374135971 174:0.12476718425750732 175:0.1535012573003769 176:0.08310578018426895 177:0.08728700876235962 178:0.0680432915687561 179:0.05888636037707329 180:0.022303052246570587 181:0.2022688239812851 182:0.11945781111717224 183:0.24394084513187408 184:0.2500312030315399 185:0.37926316261291504 186:0.139394611120224 187:0.05453196540474892 188:0.07396229356527328 189:0.01615167036652565 190:0.05681245028972626 191:0.16126848757266998 192:0.30826276540756226 193:0.20255236327648163 194:0.23062799870967865 195:0.23099488019943237 196:0.14575420320034027 197:0.06176816672086716 198:0.01615167036652565 199:0.05107606574892998 200:0.07588524371385574 201:0.061755210161209106 202:0.18684859573841095 203:0.2153051793575287 204:0.1739758402109146 205:0.11954117566347122 206:0.05537472665309906 207:0.04845501482486725 208:0.06179703399538994 209:0.011420955881476402 210:0.15003862977027893 211:0.25961676239967346 212:0.22083552181720734 213:0.20606748759746552 214:0.14606937766075134 215:0.059564415365457535 216:0.01615167036652565 217:0.2552664577960968 218:0.1796250343322754 219:0.11833491921424866 220:0.20176877081394196 221:0.2171199470758438 222:0.22071965038776398 223:0.08610277622938156 224:0.13324421644210815 225:0.16503354907035828 226:0.11837535351514816 227:0.09653442353010178 228:0.25833290815353394 229:0.1916908174753189 230:0.06740154325962067 231:0.08444641530513763 232:0.09944137185811996 233:0.08275295794010162 234:0.08303671330213547 235:0.07756254076957703 236:0.13623742759227753 237:0.14706796407699585 238:0.13722741603851318 239:0.18085314333438873 240:0.17622007429599762 241:0.0796094611287117 242:0.17117802798748016 243:0.2036759853363037 244:0.16889791190624237 245:0.02419789507985115 246:0.08037734031677246 247:0.34923800826072693 248:0.20252397656440735 249:0.27893131971359253 250:0.22131453454494476 251:0.07885901629924774 252:0.0 253:0.08889622241258621 254:0.07430512458086014 255:0.06498971581459045 256:0.15631568431854248 257:0.23595020174980164 258:0.10374593734741211 259:0.11149808764457703 260:0.019481049850583076 261:0.07731255143880844 262:0.21945545077323914 263:0.021780475974082947 264:0.11978530883789062 265:0.21620164811611176 266:0.340954065322876 267:0.20562021434307098 268:0.13088619709014893 269:0.1883166879415512 270:0.07619356364011765 271:0.026843469589948654 272:0.08766473084688187 273:0.10515093803405762 274:0.3445981740951538 275:0.3024531602859497 276:0.1879747062921524 277:0.0909137949347496 278:0.041261523962020874 279:0.030802244320511818 280:0.09201426059007645 281:0.03141225129365921 282:0.043647050857543945 283:0.3020012676715851 284:0.31512802839279175 285:0.2015978842973709 286:0.10516543686389923 287:0.10357315838336945 288:0.07615945488214493 289:0.07186847925186157 290:0.04169099032878876 291:0.12873166799545288 292:0.11518163979053497 293:0.1588703840970993 294:0.1501654088497162 295:0.10458485037088394 296:0.0712476596236229 297:0.027910683304071426 298:0.1904432475566864 299:0.0296037495136261 300:0.050546128302812576 301:0.0673823431134224 302:0.11069189757108688 303:0.04223814606666565 304:0.10038703680038452 305:0.10725724697113037 306:0.045160431414842606 307:0.10221666842699051 308:0.08349215239286423 309:0.18638494610786438 310:0.30024126172065735 311:0.3066478371620178 312:0.13761736452579498 313:0.13766571879386902 314:0.04169099032878876 315:0.03120509162545204 316:0.18257176876068115 317:0.09924644231796265 318:0.39155882596969604 319:0.3331371247768402 320:0.4121381342411041 321:0.22852438688278198 322:0.06575245410203934 323:0.0 324:0.07715550810098648 
-0.04417817478092517 -0.3555939650911491 0.16696148619801965 0.20694780080118721 0.047771235368495465 0.37458594300080644 1:0.20847442746162415 2:0.06424956768751144 3:0.14318187534809113 4:0.17455755174160004 5:0.11996547877788544 6:0.3280920684337616 7:0.09137263149023056 8:0.1315724104642868 9:0.17484629154205322 10:0.18877780437469482 11:0.17288538813591003 12:0.050993066281080246 13:0.2035093456506729 14:0.18662339448928833 15:0.1743922084569931 16:0.06821370124816895 17:0.02135956473648548 18:0.12691393494606018 19:0.3445504903793335 20:0.055698931217193604 21:0.28888165950775146 22:0.10736794769763947 23:0.07681359350681305 24:0.07608554512262344 25:0.13880139589309692 26:0.07588307559490204 27:0.20596788823604584 28:0.22602888941764832 29:0.09450025856494904 30:0.18516764044761658 31:0.06516837328672409 32:0.2872612774372101 33:0.08517035841941833 34:0.04811292514204979 35:0.09701190888881683 36:0.17659084498882294 37:0.20687633752822876 38:0.09391875565052032 39:0.11701135337352753 40:0.08986393362283707 41:0.2637077271938324 42:0.1373554915189743 43:0.11718063056468964 44:0.11887367814779282 45:0.020490925759077072 46:0.15655916929244995 47:0.1783452332019806 48:0.220179483294487 49:0.3009633719921112 50:0.40408405661582947 51:0.19070960581302643 52:0.08290421217679977 53:0.08557850122451782 54:0.10177592188119888 55:0.11968602985143661 56:0.1052517294883728 57:0.11084824800491333 58:0.14468559622764587 59:0.1647234410047531 60:0.07778935134410858 61:0.1764041781425476 62:0.0872187614440918 63:0.03514165058732033 64:0.1072019562125206 65:0.22891901433467865 66:0.23052598536014557 67:0.15160726010799408 68:0.24535761773586273 69:0.11693953722715378 70:0.1846710592508316 71:0.09134839475154877 72:0.0471474714577198 73:0.0433899462223053 74:0.0 75:0.03757299855351448 76:0.2897011935710907 77:0.5396699905395508 78:0.15311290323734283 79:0.018408793956041336 80:0.009702286683022976 81:0.03584572300314903 82:0.06942391395568848 83:0.056744009256362915 84:0.05237630009651184 85:0.07027017325162888 86:0.17427800595760345 87:0.27597367763519287 88:0.17623105645179749 89:0.11129731684923172 90:0.09381607174873352 91:0.10076068341732025 92:0.1311558485031128 93:0.14863337576389313 94:0.1156955361366272 95:0.20021048188209534 96:0.24048179388046265 97:0.09256582707166672 98:0.10738029330968857 99:0.08959266543388367 100:0.12961113452911377 101:0.14620038866996765 102:0.07837013900279999 103:0.19747620820999146 104:0.10901513695716858 105:0.21343916654586792 106:0.1985672414302826 107:0.056697726249694824 108:0.22271613776683807 109:0.3493359386920929 110:0.09523200988769531 111:0.07953960448503494 112:0.04355539008975029 113:0.06587599217891693 114:0.0660419911146164 115:0.07166362553834915 116:0.26386311650276184 117:0.11884373426437378 118:0.1947070062160492 119:0.10707589983940125 120:0.06510672718286514 121:0.06621742248535156 122:0.15792769193649292 123:0.12756595015525818 124:0.09377217292785645 125:0.2544606328010559 126:0.11948169767856598 127:0.2831331789493561 128:0.1576956808567047 129:0.1759307086467743 130:0.1027844175696373 131:0.12203661352396011 132:0.06134853512048721 133:0.2019210159778595 134:0.0662696585059166 135:0.46124789118766785 136:0.22059130668640137 137:0.13852056860923767 138:0.06904470175504684 139:0.06134853884577751 140:0.050673842430114746 141:0.15280193090438843 142:0.11554402112960815 143:0.17339389026165009 144:0.08499126136302948 145:0.10137496888637543 146:0.132229745388031 147:0.1856917440891266 148:0.28011810779571533 149:0.22971045970916748 150:0.12383122742176056 151:0.10542470216751099 152:0.171963170170784 153:0.08006031066179276 154:0.18954631686210632 155:0.08512046933174133 156:0.20907500386238098 157:0.26095473766326904 158:0.28963375091552734 159:0.19066038727760315 160:0.2263472080230713 161:0.12444626539945602 162:0.0 163:0.2918098568916321 164:0.172236368060112 165:0.10428430140018463 166:0.23171353340148926 167:0.08235485106706619 168:0.13062173128128052 169:0.13374778628349304 170:0.0738242045044899 171:0.054249051958322525 172:0.11909812688827515 173:0.08987338095903397 174:0.15513890981674194 175:0.08260951191186905 176:0.19448836147785187 177:0.12948329746723175 178:0.1890064924955368 179:0.16906845569610596 180:0.024254124611616135 181:0.07911570370197296 182:0.02820754610002041 183:0.0896156057715416 184:0.3861818313598633 185:0.1887197345495224 186:0.13033552467823029 187:0.0619867779314518 188:0.06314849108457565 189:0.06571859121322632 190:0.12257418036460876 191:0.2568953037261963 192:0.17574599385261536 193:0.29205799102783203 194:0.17474517226219177 195:0.39564037322998047 196:0.20163995027542114 197:0.07139693200588226 198:0.04941396042704582 199:0.08334998041391373 200:0.052351146936416626 201:0.20780351758003235 202:0.10299020260572433 203:0.06760208308696747 204:0.10282304137945175 205:0.1831400841474533 206:0.07800978422164917 207:0.11527916043996811 208:0.17254488170146942 209:0.06941264122724533 210:0.11744267493486404 211:0.14704124629497528 212:0.18941999971866608 213:0.2779444754123688 214:0.1311694085597992 215:0.07580569386482239 216:0.030539508908987045 217:0.24227303266525269 218:0.10908287763595581 219:0.05307336896657944 220:0.06570401042699814 221:0.13678988814353943 222:0.1731262356042862 223:0.13269665837287903 224:0.08604849129915237 225:0.29282277822494507 226:0.11136041581630707 227:0.06364653259515762 228:0.11702612787485123 229:0.10064241290092468 230:0.05361798033118248 231:0.17784081399440765 232:0.07895097136497498 233:0.15606383979320526 234:0.030048271641135216 235:0.06714951246976852 236:0.05546335503458977 237:0.07116277515888214 238:0.3189335763454437 239:0.38081488013267517 240:0.19130739569664001 241:0.10295475274324417 242:0.1122535839676857 243:0.0 244:0.07045717537403107 245:0.07801861315965652 246:0.21102434396743774 247:0.1526792198419571 248:0.41384369134902954 249:0.26432639360427856 250:0.1176852285861969 251:0.05910119041800499 252:0.0 253:0.08723712712526321 254:0.02621348947286606 255:0.14174117147922516 256:0.058301735669374466 257:0.19624705612659454 258:0.20283080637454987 259:0.11107297986745834 260:0.06647461652755737 261:0.04080547019839287 262:0.19538836181163788 263:0.08069389313459396 264:0.16229668259620667 265:0.2806757092475891 266:0.1455516368150711 267:0.28728657960891724 268:0.08578281104564667 269:0.14069947600364685 270:0.04463962838053703 271:0.08254225552082062 272:0.10010232031345367 273:0.11936098337173462 274:0.15243315696716309 275:0.22781728208065033 276:0.27951350808143616 277:0.1656327098608017 278:0.05106167867779732 279:0.012357156723737717 280:0.03907676041126251 281:0.09341943264007568 282:0.10795899480581284 283:0.15876469016075134 284:0.5111516714096069 285:0.13327579200267792 286:0.14796032011508942 287:0.1330678015947342 288:0.08468791842460632 289:0.07614712417125702 290:0.02559646964073181 291:0.0923517644405365 292:0.10907812416553497 293:0.057311978191137314 294:0.12212792783975601 295:0.051724378019571304 296:0.01516894344240427 297:0.0428650788962841 298:0.10699934512376785 299:0.1003856286406517 300:0.05217645317316055 301:0.13159720599651337 302:0.16229300200939178 303:0.048524923622608185 304:0.04970641806721687 305:0.009362541139125824 306:0.010706475004553795 307:0.024111371487379074 308:0.023225607350468636 309:0.038689542561769485 310:0.16581039130687714 311:0.4809202551841736 312:0.19297979772090912 313:0.035469334572553635 314:0.018725082278251648 315:0.04227638617157936 316:0.01298350840806961 317:0.020280888304114342 318:0.07733188569545746 319:0.5257844924926758 320:0.5150020718574524 321:0.15273167192935944 322:0.05892886593937874 323:0.0 324:0.013240632601082325 
-0.026030982583990194 -0.13453609588138335 0.09481191516431184 0.08654662714110632 0.09359512209613183 0.27804322158167416 1:0.35371845960617065 2:0.12319126725196838 3:0.07823947072029114 4:0.15831567347049713 5:0.07512255012989044 6:0.10954570770263672 7:0.08598670363426208 8:0.05420832335948944 9:0.08235776424407959 10:0.273617148399353 11:0.17879123985767365 12:0.14572589099407196 13:0.2770771384239197 14:0.06479920446872711 15:0.2912479639053345 16:0.11329647153615952 17:0.2040640413761139 18:0.045955318957567215 19:0.16972343623638153 20:0.12124418467283249 21:0.2515817880630493 22:0.18103726208209991 23:0.04984554275870323 24:0.12182871252298355 25:0.11726069450378418 26:0.11793726682662964 27:0.229048952460289 28:0.13425643742084503 29:0.13643468916416168 30:0.18108956515789032 31:0.11728718131780624 32:0.20014894008636475 33:0.2182506024837494 34:0.12034568935632706 35:0.12503363192081451 36:0.07270397990942001 37:0.028315803036093712 38:0.0330820269882679 39:0.056062422692775726 40:0.20914873480796814 41:0.38592660427093506 42:0.315111368894577 43:0.12893570959568024 44:0.0710112452507019 45:0.0 46:0.13753202557563782 47:0.03798963874578476 48:0.09690004587173462 49:0.3936764895915985 50:0.29664158821105957 51:0.22282813489437103 52:0.20902492105960846 53:0.0330820269882679 54:0.04678505286574364 55:0.07362108677625656 56:0.08864247798919678 57:0.08077029138803482 58:0.1710844337940216 59:0.1755579710006714 60:0.08646982163190842 61:0.13694463670253754 62:0.10415369272232056 63:0.0 64:0.3328365087509155 65:0.12040120363235474 66:0.1084049716591835 67:0.12248283624649048 68:0.062294766306877136 69:0.13535289466381073 70:0.10919801890850067 71:0.08691476285457611 72:0.035816971212625504 73:0.06374240666627884 74:0.08317969739437103 75:0.10776028037071228 76:0.30639153718948364 77:0.3068733513355255 78:0.2321876436471939 79:0.09399659186601639 80:0.021762294694781303 81:0.07097762823104858 82:0.11419584602117538 83:0.10052844882011414 84:0.06656540930271149 85:0.3748036324977875 86:0.2791141867637634 87:0.31152448058128357 88:0.19772100448608398 89:0.10961038619279861 90:0.08500435948371887 91:0.06405023485422134 92:0.03509064391255379 93:0.09314940124750137 94:0.0851181223988533 95:0.23884639143943787 96:0.052707280963659286 97:0.06193656474351883 98:0.06773408502340317 99:0.04498818889260292 100:0.06939827650785446 101:0.08944445848464966 102:0.09079565852880478 103:0.2034183144569397 104:0.25344496965408325 105:0.08196309208869934 106:0.2711871564388275 107:0.10567860305309296 108:0.10063785314559937 109:0.18681812286376953 110:0.17329949140548706 111:0.1981460303068161 112:0.1129014641046524 113:0.13671772181987762 114:0.11723364144563675 115:0.18951363861560822 116:0.12492747604846954 117:0.12847715616226196 118:0.2820091247558594 119:0.30626237392425537 120:0.14406678080558777 121:0.31465867161750793 122:0.22603122889995575 123:0.1617085337638855 124:0.15090739727020264 125:0.0743064135313034 126:0.09216386079788208 127:0.1860530823469162 128:0.12742134928703308 129:0.1471305787563324 130:0.10377255082130432 131:0.053353819996118546 132:0.05644509196281433 133:0.12640340626239777 134:0.23291456699371338 135:0.1280878782272339 136:0.1432388573884964 137:0.013255863450467587 138:0.3173806667327881 139:0.15464875102043152 140:0.11856403946876526 141:0.14509788155555725 142:0.12658630311489105 143:0.03463030233979225 144:0.04318922385573387 145:0.10022665560245514 146:0.23386462032794952 147:0.07573897391557693 148:0.12967945635318756 149:0.15712259709835052 150:0.19521984457969666 151:0.19640186429023743 152:0.15186168253421783 153:0.01980903185904026 154:0.11439179629087448 155:0.17469847202301025 156:0.2560642659664154 157:0.4887414276599884 158:0.31544241309165955 159:0.15333282947540283 160:0.19274821877479553 161:0.08543816208839417 162:0.0 163:0.16490137577056885 164:0.08404260128736496 165:0.15945960581302643 166:0.16489171981811523 167:0.10074509680271149 168:0.15920116007328033 169:0.07972981035709381 170:0.05917864292860031 171:0.01980903185904026 172:0.1753966510295868 173:0.10993500798940659 174:0.10231557488441467 175:0.08765814453363419 176:0.21298164129257202 177:0.1610097885131836 178:0.07573897391557693 179:0.03659287467598915 180:0.01980903185904026 181:0.13089673221111298 182:0.046214841306209564 183:0.1317507028579712 184:0.06550534069538116 185:0.14516493678092957 186:0.15769651532173157 187:0.24975599348545074 188:0.19210855662822723 189:0.07870045304298401 190:0.23043103516101837 191:0.11726941168308258 192:0.10264711827039719 193:0.2480069398880005 194:0.1865813285112381 195:0.21685461699962616 196:0.20556654036045074 197:0.11129924654960632 198:0.0 199:0.1397521197795868 200:0.20394259691238403 201:0.19046975672245026 202:0.21216890215873718 203:0.21356834471225739 204:0.10974884033203125 205:0.3190796375274658 206:0.03080989420413971 207:0.021785885095596313 208:0.25025081634521484 209:0.17920918762683868 210:0.07794354856014252 211:0.03512868285179138 212:0.18018163740634918 213:0.050533633679151535 214:0.2173374742269516 215:0.18599042296409607 216:0.10038240253925323 217:0.18115010857582092 218:0.10822764039039612 219:0.17825058102607727 220:0.22488188743591309 221:0.1867518126964569 222:0.19551457464694977 223:0.08803564310073853 224:0.13245339691638947 225:0.09636706858873367 226:0.15688923001289368 227:0.05219871923327446 228:0.20078960061073303 229:0.133392795920372 230:0.19453312456607819 231:0.18785615265369415 232:0.12709607183933258 233:0.06285510957241058 234:0.04921342432498932 235:0.25869959592819214 236:0.12883588671684265 237:0.15515202283859253 238:0.36037251353263855 239:0.12450120598077774 240:0.07680542767047882 241:0.11004454642534256 242:0.12771157920360565 243:0.07935425639152527 244:0.3012069761753082 245:0.14302679896354675 246:0.32502245903015137 247:0.2058095633983612 248:0.11671987920999527 249:0.07680542767047882 250:0.03301336616277695 251:0.10176173597574234 252:0.02460671216249466 253:0.08901606500148773 254:0.07428542524576187 255:0.07687702029943466 256:0.17986589670181274 257:0.12761767208576202 258:0.18008603155612946 259:0.1895962804555893 260:0.11693812161684036 261:0.026215901598334312 262:0.08979880809783936 263:0.04585028439760208 264:0.11284494400024414 265:0.0769769549369812 266:0.10173264145851135 267:0.1757313460111618 268:0.2274358719587326 269:0.21430744230747223 270:0.07253848761320114 271:0.1279485523700714 272:0.02292514219880104 273:0.2170151025056839 274:0.2976911664009094 275:0.20399153232574463 276:0.026215901598334312 277:0.0449599027633667 278:0.21965870261192322 279:0.04632258042693138 280:0.044508032500743866 281:0.02843513898551464 282:0.2541952431201935 283:0.2810192406177521 284:0.5037095546722412 285:0.11732661724090576 286:0.1134839877486229 287:0.042652711272239685 288:0.02010667882859707 289:0.14751143753528595 290:0.03558027744293213 291:0.20871295034885406 292:0.15506786108016968 293:0.12243085354566574 294:0.11127591878175735 295:0.10913559049367905 296:0.10475526750087738 297:0.03864163160324097 298:0.2950960099697113 299:0.13312838971614838 300:0.057552140206098557 301:0.10637341439723969 302:0.10110610723495483 303:0.30068472027778625 304:0.34757617115974426 305:0.07382792979478836 306:0.15842460095882416 307:0.08128135651350021 308:0.06494605541229248 309:0.17728233337402344 310:0.3160656690597534 311:0.1913207471370697 312:0.1800781488418579 313:0.07913167029619217 314:0.019123824313282967 315:0.01677270419895649 316:0.10918725281953812 317:0.0884312242269516 318:0.18466079235076904 319:0.21016058325767517 320:0.2990945279598236 321:0.2444741427898407 322:0.06412971019744873 323:0.11158353835344315 324:0.06560678780078888 
-0.048035517408977706 -0.14908083363898897 0.12924307761917636 0.10171365098863393 0.03242649061041647 0.19233548982915674 1:0.4232075810432434 2:0.19255134463310242 3:0.1439482718706131 4:0.07230450958013535 5:0.12188037484884262 6:0.07397062331438065 7:0.14296694099903107 8:0.22895841300487518 9:0.10222887247800827 10:0.17043262720108032 11:0.08878467231988907 12:0.09404759854078293 13:0.0906292274594307 14:0.15411382913589478 15:0.20744061470031738 16:0.09478965401649475 17:0.15466491878032684 18:0.08759713172912598 19:0.3902013599872589 20:0.06916828453540802 21:0.13975439965724945 22:0.08091175556182861 23:0.23846159875392914 24:0.0741540715098381 25:0.13151821494102478 26:0.07367867976427078 27:0.2278512865304947 28:0.10198850184679031 29:0.12675191462039948 30:0.28022196888923645 31:0.13823862373828888 32:0.13777782022953033 33:0.1416304111480713 34:0.026600470766425133 35:0.09286678582429886 36:0.01675737276673317 37:0.061874404549598694 38:0.07765127718448639 39:0.1678674817085266 40:0.3418281078338623 41:0.26038458943367004 42:0.16938351094722748 43:0.11462116241455078 44:0.0670158639550209 45:0.0 46:0.24148491024971008 47:0.08604326844215393 48:0.26988479495048523 49:0.2479739934206009 50:0.18031522631645203 51:0.2471737265586853 52:0.23928065598011017 53:0.2673826217651367 54:0.07653440535068512 55:0.18662728369235992 56:0.0361446738243103 57:0.16712331771850586 58:0.08085361868143082 59:0.08043672144412994 60:0.2147689312696457 61:0.1058708056807518 62:0.06708186864852905 63:0.0 64:0.11365904659032822 65:0.10343468934297562 66:0.10192884504795074 67:0.18709786236286163 68:0.19851018488407135 69:0.157481387257576 70:0.11856310814619064 71:0.10322654247283936 72:0.07676953822374344 73:0.07442166656255722 74:0.013867659494280815 75:0.1188383623957634 76:0.059358447790145874 77:0.4355003535747528 78:0.20897239446640015 79:0.061394739896059036 80:0.041602980345487595 81:0.01961183175444603 82:0.06302446871995926 83:0.036228589713573456 84:0.10611660033464432 85:0.2579772174358368 86:0.41658034920692444 87:0.25826945900917053 88:0.08857523649930954 89:0.036228589713573456 90:0.04518252983689308 91:0.018605416640639305 92:0.02773531898856163 93:0.15392108261585236 94:0.16306820511817932 95:0.22946681082248688 96:0.18169453740119934 97:0.09252634644508362 98:0.0 99:0.01961183175444603 100:0.09403349459171295 101:0.1340935230255127 102:0.1596091091632843 103:0.17124290764331818 104:0.26719093322753906 105:0.2521631121635437 106:0.19919747114181519 107:0.013867659494280815 108:0.01961183175444603 109:0.12616068124771118 110:0.07514067739248276 111:0.19642813503742218 112:0.1235845759510994 113:0.08981084078550339 114:0.1138099953532219 115:0.1144731193780899 116:0.1513499617576599 117:0.3179372251033783 118:0.0778360590338707 119:0.0834897831082344 120:0.1588294804096222 121:0.11401727050542831 122:0.2220289409160614 123:0.3353995382785797 124:0.09871890395879745 125:0.04836425930261612 126:0.08724085241556168 127:0.5258556008338928 128:0.08032925426959991 129:0.0723925232887268 130:0.10666406154632568 131:0.16203227639198303 132:0.20724129676818848 133:0.20509955286979675 134:0.2291090488433838 135:0.0 136:0.08981084078550339 137:0.10710567981004715 138:0.12701168656349182 139:0.040164630860090256 140:0.18011721968650818 141:0.018933787941932678 142:0.016934894025325775 143:0.0 144:0.0 145:0.24800293147563934 146:0.01729132980108261 147:0.35758280754089355 148:0.1893865168094635 149:0.054130423814058304 150:0.3249014616012573 151:0.07763484865427017 152:0.18088410794734955 153:0.08075012266635895 154:0.2731618583202362 155:0.045172762125730515 156:0.038817428052425385 157:0.1496885120868683 158:0.11599376797676086 159:0.03458265960216522 160:0.14216795563697815 161:0.03458265960216522 162:0.039430297911167145 163:0.27285897731781006 164:0.11425558477640152 165:0.16512282192707062 166:0.08645664900541306 167:0.03866458684206009 168:0.06916531920433044 169:0.10935996472835541 170:0.11433807015419006 171:0.024453632533550262 172:0.34888043999671936 173:0.11842000484466553 174:0.22099626064300537 175:0.06916531920433044 176:0.3093166947364807 177:0.12103930115699768 178:0.109359972178936 179:0.10782989859580994 180:0.07131393253803253 181:0.28030019998550415 182:0.14609801769256592 183:0.1859210878610611 184:0.2732354998588562 185:0.07943804562091827 186:0.07840918004512787 187:0.1011081263422966 188:0.1283351331949234 189:0.03275314345955849 190:0.2979523241519928 191:0.1923801451921463 192:0.10206352919340134 193:0.08326917886734009 194:0.15887609124183655 195:0.17209875583648682 196:0.30024316906929016 197:0.3245783746242523 198:0.1792706698179245 199:0.09532565623521805 200:0.017762888222932816 201:0.09604720771312714 202:0.06827891618013382 203:0.2621455490589142 204:0.1826087385416031 205:0.05617118254303932 206:0.03552577644586563 207:0.050241030752658844 208:0.13602261245250702 209:0.07504647225141525 210:0.1870335042476654 211:0.16179819405078888 212:0.19859512150287628 213:0.23284976184368134 214:0.07863964885473251 215:0.07105155289173126 216:0.050241030752658844 217:0.4210018217563629 218:0.05794473737478256 219:0.039767805486917496 220:0.05875781923532486 221:0.06748820841312408 222:0.0607207790017128 223:0.19571010768413544 224:0.15474027395248413 225:0.37238243222236633 226:0.18395574390888214 227:0.09573178738355637 228:0.14134778082370758 229:0.10365685075521469 230:0.12372837215662003 231:0.07870016992092133 232:0.1717870533466339 233:0.02812008559703827 234:0.08756367862224579 235:0.4394174814224243 236:0.025151370093226433 237:0.08748917281627655 238:0.17530561983585358 239:0.11248034238815308 240:0.10413108766078949 241:0.0643048956990242 242:0.08802978694438934 243:0.19267497956752777 244:0.10214495658874512 245:0.12088315933942795 246:0.12891250848770142 247:0.15031322836875916 248:0.29291436076164246 249:0.07870017737150192 250:0.1040726900100708 251:0.0 252:0.01778470352292061 253:0.33172503113746643 254:0.11270991712808609 255:0.24211888015270233 256:0.10837847739458084 257:0.12896953523159027 258:0.11660183221101761 259:0.08207571506500244 260:0.07533909380435944 261:0.0 262:0.05803629383444786 263:0.0 264:0.1103372797369957 265:0.151956707239151 266:0.2192482203245163 267:0.23086796700954437 268:0.06383665651082993 269:0.0865153968334198 270:0.02039187401533127 271:0.19659362733364105 272:0.08092724531888962 273:0.12356505542993546 274:0.0554262176156044 275:0.06448476761579514 276:0.11876755952835083 277:0.15072466433048248 278:0.0432576984167099 279:0.04078374803066254 280:0.16489249467849731 281:0.1684805303812027 282:0.3485076129436493 283:0.4166371822357178 284:0.16161338984966278 285:0.11893635988235474 286:0.08207571506500244 287:0.21780768036842346 288:0.24320925772190094 289:0.31737005710601807 290:0.018868975341320038 291:0.2765069007873535 292:0.04555373638868332 293:0.11813846975564957 294:0.21477389335632324 295:0.07816045731306076 296:0.09434486925601959 297:0.02668476104736328 298:0.16253572702407837 299:0.08438462018966675 300:0.12589560449123383 301:0.18250705301761627 302:0.20252308249473572 303:0.23377016186714172 304:0.20943209528923035 305:0.018868975341320038 306:0.0 307:0.15600042045116425 308:0.15230998396873474 309:0.2637249827384949 310:0.27055802941322327 311:0.1856461614370346 312:0.08005428314208984 313:0.16169695556163788 314:0.2124050110578537 315:0.11484694480895996 316:0.20630064606666565 317:0.1813770979642868 318:0.10858575999736786 319:0.1557110846042633 320:0.23627693951129913 321:0.09139959514141083 322:0.14976316690444946 323:0.08703222870826721 324:0.02668476104736328 
