svm_type c_svc
kernel_type linear
nr_class 4
total_sv 20
rho -0.5851019521021241 -0.15676104655728507 0.18960404337280407 0.1645380931832573 0.639602115462501 0.48723870779706474
label 8 9 6 7
probA -1.9397275608123417 -1.5182356381465278 -1.4024215289991107 -2.2380148055262548 -2.19231523623997 -1.7776607103113768
probB -0.4560897698959411 0.0382302359788816 0.053120245584043366 0.34779207151794855 -0.0436621786786656 0.32606188209865283
nr_sv 5 4 5 6
SV
0.021517565580376555 0.05904010069946103 0.15439040115468108 1:0.10103189945220947 2:0.13103002309799194 3:0.06531642377376556 4:0.06773420423269272 5:0.031388845294713974 6:0.04981009662151337 7:0.06835850328207016 8:0.029127394780516624 9:0.04473617672920227 10:0.053085118532180786 11:0.045444514602422714 12:0.05973879620432854 13:0.09034053981304169 14:0.1155385822057724 15:0.1420389860868454 16:0.049227774143218994 17:0.012224112637341022 18:0.01067015528678894 19:0.10804319381713867 20:0.04316491261124611 21:0.07119712233543396 22:0.110445536673069 23:0.08594489097595215 24:0.05967345088720322 25:0.04299279302358627 26:0.05550491437315941 27:0.028468983247876167 28:0.6215004324913025 29:0.045970793813467026 30:0.4512825906276703 31:0.41413649916648865 32:0.15172633528709412 33:0.03320803493261337 34:0.1899503916501999 35:0.08951441198587418 36:0.14389805495738983 37:0.003838387317955494 38:0.01131878886371851 39:0.009350570850074291 40:0.027937091886997223 41:0.0375501923263073 42:0.02447207272052765 43:0.01572076417505741 44:0.012040317058563232 45:0.008709241636097431 46:0.008567449636757374 47:0.024856222793459892 48:0.01571035012602806 49:0.02693953365087509 50:0.019618524238467216 51:0.029092300683259964 52:0.01880788430571556 53:0.01939263567328453 54:0.01399985421448946 55:0.2975000739097595 56:0.265550434589386 57:0.37590739130973816 58:0.25669801235198975 59:0.43306100368499756 60:0.01565435528755188 61:0.01087645348161459 62:0.006401131860911846 63:0.08911719173192978 64:0.04027418792247772 65:0.08542311936616898 66:0.06318332999944687 67:0.05509969964623451 68:0.6382777094841003 69:0.04597918316721916 70:0.018999094143509865 71:0.014770589768886566 72:0.06738720834255219 73:0.006626857910305262 74:0.006691210903227329 75:0.008316317573189735 76:0.07184634357690811 77:0.11636482924222946 78:0.09559152275323868 79:0.014201903715729713 80:0.0 81:0.0 82:0.010074710473418236 83:0.0063131037168204784 84:0.03559472784399986 85:0.08838958293199539 86:0.21534618735313416 87:0.04463977366685867 88:0.02076968550682068 89:0.0126852598041296 90:0.004223809577524662 91:0.03833790868520737 92:0.0 93:0.042506664991378784 94:0.02923702821135521 95:0.39020711183547974 96:0.5149520635604858 97:0.05160694196820259 98:0.31138256192207336 99:0.3317165970802307 100:0.015193449333310127 101:0.043553948402404785 102:0.03634844347834587 103:0.03417046368122101 104:0.15484769642353058 105:0.1633562594652176 106:0.3668140769004822 107:0.2985265851020813 108:0.05852195620536804 109:0.034621745347976685 110:0.02190031111240387 111:0.020733008161187172 112:0.02120909094810486 113:0.015926586464047432 114:0.040132876485586166 115:0.008677558973431587 116:0.02034563384950161 117:0.011623895727097988 118:0.48081251978874207 119:0.4003904461860657 120:0.1013832837343216 121:0.24134708940982819 122:0.22858606278896332 123:0.03504163399338722 124:0.13940812647342682 125:0.10101006925106049 126:0.5985251069068909 127:0.022788653150200844 128:0.013467292301356792 129:0.024576563388109207 130:0.02525949850678444 131:0.048919059336185455 132:0.02449868991971016 133:0.00940561294555664 134:0.026068471372127533 135:0.021218063309788704 136:0.023143844678997993 137:0.03288152068853378 138:0.03533901274204254 139:0.07049345970153809 140:0.02166776917874813 141:0.17313286662101746 142:0.07488618791103363 143:0.15430855751037598 144:0.14046654105186462 145:0.11099269241094589 146:0.02599441260099411 147:0.037323690950870514 148:0.03061293251812458 149:0.03144865483045578 150:0.04176945611834526 151:0.03543313220143318 152:0.030658192932605743 153:0.3190777599811554 154:0.02074575237929821 155:0.022195497527718544 156:0.019010184332728386 157:0.022431645542383194 158:0.03081664815545082 159:0.027462875470519066 160:0.0223944541066885 161:0.01613219827413559 162:0.007055229041725397 163:0.07191553711891174 164:0.012013823725283146 165:0.007668767124414444 166:0.06954360753297806 167:0.05704778432846069 168:0.5747784376144409 169:0.2851502597332001 170:0.47425681352615356 171:0.45941418409347534 172:0.021025002002716064 173:0.013802050612866879 174:0.04136768355965614 175:0.03252179175615311 176:0.08781493455171585 177:0.020122623071074486 178:0.03003053367137909 179:0.009205418638885021 180:0.0 181:0.04563209041953087 182:0.009365994483232498 183:0.014227624051272869 184:0.04985816776752472 185:0.038563381880521774 186:0.017600910738110542 187:0.01436516921967268 188:0.005377704277634621 189:0.0 190:0.2871527671813965 191:0.013670140877366066 192:0.03927801549434662 193:0.04354752227663994 194:0.14386990666389465 195:0.1968534141778946 196:0.18161624670028687 197:0.29459625482559204 198:0.41361522674560547 199:0.13308167457580566 200:0.21814168989658356 201:0.2712642550468445 202:0.2541630268096924 203:0.17255091667175293 204:0.07492420822381973 205:0.03481842577457428 206:0.09789527952671051 207:0.014650293625891209 208:0.2882775664329529 209:0.1239742860198021 210:0.048912592232227325 211:0.06534013897180557 212:0.4338754415512085 213:0.016543546691536903 214:0.005668597761541605 215:0.03675011917948723 216:0.10867717117071152 217:0.35002401471138 218:0.16145993769168854 219:0.10005632042884827 220:0.1276584267616272 221:0.15681059658527374 222:0.07296380400657654 223:0.07059113681316376 224:0.056845199316740036 225:0.21775364875793457 226:0.17985385656356812 227:0.10537874698638916 228:0.20872576534748077 229:0.14126725494861603 230:0.16203761100769043 231:0.04474654421210289 232:0.08919450640678406 233:0.12367412447929382 234:0.10290656983852386 235:0.28736865520477295 236:0.3270811140537262 237:0.2760322093963623 238:0.18117229640483856 239:0.05749721825122833 240:0.15086300671100616 241:0.13452212512493134 242:0.16490836441516876 243:0.22600775957107544 244:0.08564160019159317 245:0.11773788183927536 246:0.15614455938339233 247:0.22556157410144806 248:0.172491654753685 249:0.10438890010118484 250:0.10422167181968689 251:0.03506391495466232 252:0.01652928814291954 253:0.07257242500782013 254:0.13846738636493683 255:0.0627734363079071 256:0.2680922746658325 257:0.11374957114458084 258:0.20053784549236298 259:0.1364707201719284 260:0.20630468428134918 261:0.10541868954896927 262:0.20918117463588715 263:0.03157610073685646 264:0.1750321239233017 265:0.0868690237402916 266:0.39919018745422363 267:0.5546176433563232 268:0.12052102386951447 269:0.30333369970321655 270:0.27636343240737915 271:0.040633466094732285 272:0.016298795118927956 273:0.01814665086567402 274:0.09433601051568985 275:0.07912833243608475 276:0.05715849995613098 277:0.047028589993715286 278:0.015475080348551273 279:0.05085130035877228 280:0.029940448701381683 281:0.01912825182080269 282:0.03629330173134804 283:0.043526485562324524 284:0.08999834954738617 285:0.033354487270116806 286:0.012097768485546112 287:0.044114068150520325 288:0.0 289:0.09246093779802322 290:0.08866942673921585 291:0.17458194494247437 292:0.5976481437683105 293:0.52775639295578 294:0.3269311487674713 295:0.02552618645131588 296:0.06008380651473999 297:0.01456994004547596 298:0.06549958139657974 299:0.058271121233701706 300:0.10975300520658493 301:0.05849951505661011 302:0.2456234097480774 303:0.07911046594381332 304:0.06877559423446655 305:0.07536975294351578 306:0.009876006282866001 307:0.0676938146352768 308:0.10896207392215729 309:0.04292774945497513 310:0.07537886500358582 311:0.057685043662786484 312:0.050969164818525314 313:0.1365761160850525 314:0.06682685762643814 315:0.03202050179243088 316:0.0733661949634552 317:0.1186053454875946 318:0.09580730646848679 319:0.09612330794334412 320:0.04570862650871277 321:0.08285185694694519 322:0.04432482644915581 323:0.03457951545715332 324:0.041932642459869385 
0.22114260393691634 0.1548931425117021 0.27503084169011893 1:0.07755110412836075 2:0.022958576679229736 3:0.08690408617258072 4:0.05511617287993431 5:0.09971299022436142 6:0.08684072643518448 7:0.07455990463495255 8:0.026850951835513115 9:0.02696368284523487 10:0.08188924193382263 11:0.0462157316505909 12:0.028136558830738068 13:0.0959613099694252 14:0.09663553535938263 15:0.12824507057666779 16:0.11452073603868484 17:0.06399031728506088 18:0.023480437695980072 19:0.1040535643696785 20:0.053772859275341034 21:0.07136988639831543 22:0.08781683444976807 23:0.13995668292045593 24:0.16058972477912903 25:0.0934988483786583 26:0.06272329390048981 27:0.08501384407281876 28:0.11262400448322296 29:0.044619809836149216 30:0.022306302562355995 31:0.07169115543365479 32:0.8725740313529968 33:0.10472026467323303 34:0.09867694973945618 35:0.04222773760557175 36:0.0 37:0.032624244689941406 38:0.015660099685192108 39:0.01627771183848381 40:0.050067976117134094 41:0.06576012820005417 42:0.03261519968509674 43:0.01896483451128006 44:0.0025737325195223093 45:0.010919422842562199 46:0.0735025480389595 47:0.006723751313984394 48:0.012288874946534634 49:0.04018209129571915 50:0.06231192871928215 51:0.08125047385692596 52:0.022135671228170395 53:0.08097433298826218 54:0.01905827969312668 55:0.0315975658595562 56:0.011345833539962769 57:0.03193410113453865 58:0.05722322687506676 59:0.9672713279724121 60:0.10139942914247513 61:0.00813885685056448 62:0.004150018561631441 63:0.016524391248822212 64:0.010359073057770729 65:0.030448421835899353 66:0.02060536853969097 67:0.03365049511194229 68:0.07268042862415314 69:0.05382654443383217 70:0.03682112321257591 71:0.03149236738681793 72:0.01202534232288599 73:0.22901496291160583 74:0.09182731807231903 75:0.0967673808336258 76:0.15528172254562378 77:0.07325330376625061 78:0.09304606914520264 79:0.18290072679519653 80:0.13844069838523865 81:0.08126719295978546 82:0.13900072872638702 83:0.09899298846721649 84:0.07790177315473557 85:0.23106569051742554 86:0.5622943639755249 87:0.1664469689130783 88:0.09710705280303955 89:0.03786185011267662 90:0.11321068555116653 91:0.19128477573394775 92:0.11963091045618057 93:0.08546291291713715 94:0.07803843915462494 95:0.22623024880886078 96:0.12814593315124512 97:0.10766201466321945 98:0.065584696829319 99:0.08649343997240067 100:0.036626651883125305 101:0.09615026414394379 102:0.08879640698432922 103:0.2058929055929184 104:0.22132360935211182 105:0.3009923994541168 106:0.0673300251364708 107:0.030565567314624786 108:0.12277864664793015 109:0.07547632604837418 110:0.20605537295341492 111:0.6192296147346497 112:0.22788292169570923 113:0.09234785288572311 114:0.06153576821088791 115:0.04716501757502556 116:0.0023444874677807093 117:0.024497641250491142 118:0.07232943922281265 119:0.11750584840774536 120:0.08958795666694641 121:0.34666886925697327 122:0.28451400995254517 123:0.047619111835956573 124:0.030634941533207893 125:0.007426582742482424 126:0.012412432581186295 127:0.434249609708786 128:0.1701742559671402 129:0.10669660568237305 130:0.08722533285617828 131:0.022094568237662315 132:0.0515412800014019 133:0.0608227364718914 134:0.09350850433111191 135:0.12241760641336441 136:0.019170766696333885 137:0.021326780319213867 138:0.016301129013299942 139:0.010575613006949425 140:0.026392905041575432 141:0.01217898353934288 142:0.013365942984819412 143:0.018632100895047188 144:0.0068392702378332615 145:0.01096046157181263 146:0.04735051095485687 147:0.033726856112480164 148:0.03165561333298683 149:0.6071711182594299 150:0.32222169637680054 151:0.03622842952609062 152:0.09120417386293411 153:0.04523465037345886 154:0.03791533410549164 155:0.006529801059514284 156:0.017059307545423508 157:0.04968784376978874 158:0.13357949256896973 159:0.12061437219381332 160:0.6453054547309875 161:0.223269522190094 162:0.01578470878303051 163:0.024746211245656013 164:0.01550854742527008 165:0.024509912356734276 166:0.030519727617502213 167:0.03479751944541931 168:0.028217647224664688 169:0.008925439789891243 170:0.01724642515182495 171:0.0020965926814824343 172:0.018181852996349335 173:0.01040839683264494 174:0.019872181117534637 175:0.023590926080942154 176:0.017901021987199783 177:0.019169598817825317 178:0.021619951352477074 179:0.029184682294726372 180:0.0041931853629648685 181:0.022584177553653717 182:0.027895642444491386 183:0.07105353474617004 184:0.04485156759619713 185:0.1156531497836113 186:0.1803678423166275 187:0.19363051652908325 188:0.2991333603858948 189:0.19190119206905365 190:0.03578037768602371 191:0.023492703214287758 192:0.036516085267066956 193:0.014967693015933037 194:0.088907390832901 195:0.0373019240796566 196:0.040197767317295074 197:0.04414902627468109 198:0.043040625751018524 199:0.16625872254371643 200:0.007648741826415062 201:0.03780601546168327 202:0.024317916482686996 203:0.16831007599830627 204:0.18300983309745789 205:0.6455766558647156 206:0.31521502137184143 207:0.3507229685783386 208:0.07802903652191162 209:0.015376808121800423 210:0.047479674220085144 211:0.035105910152196884 212:0.03314285725355148 213:0.007654225453734398 214:0.007882166653871536 215:0.0734686478972435 216:0.12935885787010193 217:0.09470372647047043 218:0.010491004213690758 219:0.02686602622270584 220:0.015629610046744347 221:0.02921934984624386 222:0.18683648109436035 223:0.37677469849586487 224:0.2735441029071808 225:0.22574177384376526 226:0.0074460506439208984 227:0.008331655524671078 228:0.004058529157191515 229:0.01276072021573782 230:0.003689760575070977 231:0.017443405464291573 232:0.02243017964065075 233:0.01073679979890585 234:0.013247726485133171 235:0.02582736685872078 236:0.010862116701900959 237:0.005528606474399567 238:0.03540017828345299 239:0.06155501306056976 240:0.016878817230463028 241:0.26909390091896057 242:0.17875944077968597 243:0.02158990502357483 244:0.01979454979300499 245:0.006292024627327919 246:0.037456996738910675 247:0.013501504436135292 248:0.25627341866493225 249:0.3991756737232208 250:0.5541719198226929 251:0.17547643184661865 252:0.09552286565303802 253:0.006052420940250158 254:0.005382802803069353 255:0.009314898401498795 256:0.013264665380120277 257:0.013393174856901169 258:0.022306375205516815 259:0.018701281398534775 260:0.019113514572381973 261:0.004377809353172779 262:0.0188058502972126 263:0.008489098399877548 264:0.01157648116350174 265:0.019559839740395546 266:0.029765622690320015 267:0.015297197736799717 268:0.018449511379003525 269:0.004649505950510502 270:0.003127465955913067 271:0.013172388076782227 272:0.01502478402107954 273:0.06255193054676056 274:0.1031435951590538 275:0.6754871606826782 276:0.4472966492176056 277:0.07482887804508209 278:0.015503969974815845 279:0.007635793648660183 280:0.027452293783426285 281:0.04014594107866287 282:0.27150702476501465 283:0.18212780356407166 284:0.41191819310188293 285:0.14319050312042236 286:0.13397467136383057 287:0.03467535972595215 288:0.006076196674257517 289:0.29463887214660645 290:0.09599006175994873 291:0.20972533524036407 292:0.27336636185646057 293:0.04166294261813164 294:0.004147274419665337 295:0.07224676758050919 296:0.06384515017271042 297:0.13243944942951202 298:0.15076056122779846 299:0.06426160782575607 300:0.033035919070243835 301:0.047952800989151 302:0.0335102416574955 303:0.018925169482827187 304:0.01969579979777336 305:0.05143444985151291 306:0.09634478390216827 307:0.12079091370105743 308:0.5063366293907166 309:0.64264315366745 310:0.11059268563985825 311:0.06573555618524551 312:0.03481500595808029 313:0.016846269369125366 314:0.003637400222942233 315:0.0299149788916111 316:0.01852172240614891 317:0.03327654302120209 318:0.023223523050546646 319:0.03998801112174988 320:0.026907779276371002 321:0.045316342264413834 322:0.031840499490499496 323:0.047043509781360626 324:0.010872947052121162 
0.08088986381686403 0.048374536180840456 0.12092982278999469 1:0.09651500731706619 2:0.08409299701452255 3:0.08306652307510376 4:0.03635835647583008 5:0.0652996227145195 6:0.03885919973254204 7:0.03932482376694679 8:0.04218754917383194 9:0.03569287806749344 10:0.019027812406420708 11:0.0256093367934227 12:0.03934745118021965 13:0.08351978659629822 14:0.2030715048313141 15:0.09775156527757645 16:0.07877697050571442 17:0.009125900454819202 18:0.01241256669163704 19:0.16398555040359497 20:0.027763668447732925 21:0.07542280852794647 22:0.072585329413414 23:0.06967677921056747 24:0.08294368535280228 25:0.05809034779667854 26:0.07209151238203049 27:0.02973330020904541 28:0.6658145189285278 29:0.09650634974241257 30:0.4433852732181549 31:0.32889795303344727 32:0.14732742309570312 33:0.10121370106935501 34:0.15468594431877136 35:0.15101522207260132 36:0.0485721156001091 37:0.006568773649632931 38:0.005639887414872646 39:0.002322412095963955 40:0.034264273941516876 41:0.030152184888720512 42:0.022420842200517654 43:0.017267432063817978 44:0.0 45:0.0017310238908976316 46:0.006789492908865213 47:0.005921012721955776 48:0.017592839896678925 49:0.03372412547469139 50:0.03966590762138367 51:0.02398502826690674 52:0.01904756762087345 53:0.014046858064830303 54:0.0 55:0.33761391043663025 56:0.281570702791214 57:0.41837969422340393 58:0.3651948869228363 59:0.328249454498291 60:0.028012780472636223 61:0.002322412095963955 62:0.009804663248360157 63:0.007450050208717585 64:0.021623823791742325 65:0.05384715646505356 66:0.12629711627960205 67:0.09878262877464294 68:0.5831446647644043 69:0.0991111546754837 70:0.008555907756090164 71:0.03171605244278908 72:0.048952072858810425 73:0.02066626213490963 74:0.031052296981215477 75:0.046663250774145126 76:0.07104001939296722 77:0.11053276807069778 78:0.07351015508174896 79:0.043448276817798615 80:0.004797834437340498 81:0.02721964754164219 82:0.014063536189496517 83:0.022170500829815865 84:0.015195900574326515 85:0.07105598598718643 86:0.1347074806690216 87:0.08971385657787323 88:0.051030438393354416 89:0.008458212949335575 90:0.0077917189337313175 91:0.03013300895690918 92:0.011440294794738293 93:0.0385696180164814 94:0.09085661917924881 95:0.386342316865921 96:0.5091248750686646 97:0.05187064781785011 98:0.40456560254096985 99:0.2091827541589737 100:0.05616002902388573 101:0.026478243991732597 102:0.014649956487119198 103:0.06901055574417114 104:0.13669170439243317 105:0.18947723507881165 106:0.39785271883010864 107:0.2915075421333313 108:0.012580376118421555 109:0.024120263755321503 110:0.020184947177767754 111:0.027054008096456528 112:0.014034896157681942 113:0.011742539703845978 114:0.010565049014985561 115:0.018731441348791122 116:0.025616690516471863 117:0.004989619832485914 118:0.6026648879051208 119:0.2902909517288208 120:0.1534813791513443 121:0.20631612837314606 122:0.14769157767295837 123:0.1065533459186554 124:0.14054974913597107 125:0.13363899290561676 126:0.5569180846214294 127:0.017034990713000298 128:0.013128559105098248 129:0.04442092031240463 130:0.026700329035520554 131:0.04134184867143631 132:0.03234245255589485 133:0.021001940593123436 134:0.025591054931282997 135:0.0061888620257377625 136:0.05801341310143471 137:0.01854631118476391 138:0.038271840661764145 139:0.025485124439001083 140:0.06001454219222069 141:0.14969976246356964 142:0.013975745998322964 143:0.2226702719926834 144:0.11668263375759125 145:0.007090393453836441 146:0.014029450714588165 147:0.01500436570495367 148:0.026791008189320564 149:0.01618536002933979 150:0.07159669697284698 151:0.033492859452962875 152:0.0773400217294693 153:0.31926417350769043 154:0.010537730529904366 155:0.005082839168608189 156:0.008102317340672016 157:0.017565295100212097 158:0.03567691147327423 159:0.02924409508705139 160:0.009538112208247185 161:0.014963904395699501 162:0.002218344947323203 163:0.06847147643566132 164:0.014053144492208958 165:0.016448602080345154 166:0.06797108799219131 167:0.044736672192811966 168:0.6417122483253479 169:0.16358545422554016 170:0.5472952723503113 171:0.34273386001586914 172:0.016277369111776352 173:0.012579504400491714 174:0.016549130901694298 175:0.04072730243206024 176:0.10284167528152466 177:0.009096027351915836 178:0.027913182973861694 179:0.01704365201294422 180:0.003804430365562439 181:0.03738919645547867 182:0.017891697585582733 183:0.01210433803498745 184:0.018603840842843056 185:0.03847227245569229 186:0.02945207618176937 187:0.04170785844326019 188:0.014558736234903336 189:0.004950505681335926 190:0.26056399941444397 191:0.031220214441418648 192:0.039236653596162796 193:0.043613508343696594 194:0.16346490383148193 195:0.2577102780342102 196:0.137814462184906 197:0.37687981128692627 198:0.37368491291999817 199:0.21688807010650635 200:0.17087315022945404 201:0.22139722108840942 202:0.3175598978996277 203:0.22617211937904358 204:0.04996469244360924 205:0.029033297672867775 206:0.004754249472171068 207:0.10226517915725708 208:0.2563803493976593 209:0.05883513018488884 210:0.06900393217802048 211:0.06287717819213867 212:0.3783174455165863 213:0.04058579355478287 214:0.04856342822313309 215:0.031173424795269966 216:0.1013246476650238 217:0.4352233111858368 218:0.1304970383644104 219:0.07087158411741257 220:0.05585223808884621 221:0.08550616353750229 222:0.046888165175914764 223:0.08109341561794281 224:0.08352746814489365 225:0.1886046677827835 226:0.2299465835094452 227:0.2550412714481354 228:0.1482207030057907 229:0.1586773693561554 230:0.04750342294573784 231:0.060252055525779724 232:0.1397056132555008 233:0.0660707876086235 234:0.09341316670179367 235:0.2022973597049713 236:0.32628563046455383 237:0.11569821089506149 238:0.07693197578191757 239:0.08589931577444077 240:0.14351718127727509 241:0.21053177118301392 242:0.06646069139242172 243:0.3804444670677185 244:0.08550616353750229 245:0.010622087866067886 246:0.08118730038404465 247:0.07869181036949158 248:0.20024512708187103 249:0.2563680410385132 250:0.07758957892656326 251:0.03837177902460098 252:0.03924398869276047 253:0.19467727839946747 254:0.05886339768767357 255:0.07576480507850647 256:0.11643985658884048 257:0.3155299127101898 258:0.1853797733783722 259:0.11118309199810028 260:0.25209668278694153 261:0.14568565785884857 262:0.15479987859725952 263:0.10875096917152405 264:0.11139946430921555 265:0.13285519182682037 266:0.40218421816825867 267:0.4535822868347168 268:0.1657245010137558 269:0.22438430786132812 270:0.36992383003234863 271:0.04645586013793945 272:0.035194724798202515 273:0.08196663111448288 274:0.06793496012687683 275:0.054462872445583344 276:0.08329533785581589 277:0.08995582163333893 278:0.05483551695942879 279:0.013778137974441051 280:0.05481639504432678 281:0.06067798286676407 282:0.0355396531522274 283:0.026374299079179764 284:0.017428118735551834 285:0.06995687633752823 286:0.09889339655637741 287:0.01461392268538475 288:0.022760383784770966 289:0.07685751467943192 290:0.010246344842016697 291:0.10932622104883194 292:0.7018321752548218 293:0.5359452962875366 294:0.1377740204334259 295:0.12767741084098816 296:0.07389827072620392 297:0.0648808553814888 298:0.0415227971971035 299:0.06929746270179749 300:0.03596280515193939 301:0.08790827542543411 302:0.15869958698749542 303:0.18889743089675903 304:0.03742247447371483 305:0.010246344842016697 306:0.03062846139073372 307:0.09552700817584991 308:0.02797749638557434 309:0.03604084998369217 310:0.046635642647743225 311:0.1378014087677002 312:0.06134955957531929 313:0.07333999127149582 314:0.022931400686502457 315:0.0 316:0.05839421600103378 317:0.046460267156362534 318:0.04915379360318184 319:0.10789325088262558 320:0.0711885541677475 321:0.038427699357271194 322:0.08966422080993652 323:0.04149581119418144 324:0.021129293367266655 
0.25278744594122077 0.3978314577323778 0.3387041400084819 1:0.4110066592693329 2:0.21546973288059235 3:0.08633460104465485 4:0.09210022538900375 5:0.10001152008771896 6:0.25391265749931335 7:0.057445645332336426 8:0.15713225305080414 9:0.08252068608999252 10:0.1766008883714676 11:0.05842292681336403 12:0.24211664497852325 13:0.1475323587656021 14:0.17543403804302216 15:0.17617392539978027 16:0.20042182505130768 17:0.15736377239227295 18:0.031626421958208084 19:0.25366806983947754 20:0.11544511467218399 21:0.1928599774837494 22:0.1985468864440918 23:0.17060180008411407 24:0.10151930898427963 25:0.1296364814043045 26:0.04718795046210289 27:0.1384751796722412 28:0.09803461283445358 29:0.15508124232292175 30:0.21125781536102295 31:0.20866097509860992 32:0.12501440942287445 33:0.0828370675444603 34:0.11763760447502136 35:0.15496329963207245 36:0.05117262154817581 37:0.016198262572288513 38:0.01225718017667532 39:0.012332892045378685 40:0.011049048975110054 41:0.043469857424497604 42:0.021433377638459206 43:0.017173005267977715 44:0.009276675991714 45:0.0027478893753141165 46:0.01816859468817711 47:0.019732056185603142 48:0.050976142287254333 49:0.021807540208101273 50:0.04014436900615692 51:0.01624269410967827 52:0.03406210616230965 53:0.007803062442690134 54:0.02200625091791153 55:0.37468335032463074 56:0.2645626664161682 57:0.18312600255012512 58:0.32457301020622253 59:0.1088295429944992 60:0.037487637251615524 61:0.022982560098171234 62:0.012524888850748539 63:0.008782952092587948 64:0.3129328191280365 65:0.08182519674301147 66:0.05869121477007866 67:0.22383561730384827 68:0.563611626625061 69:0.057253818958997726 70:0.02045653946697712 71:0.020969917997717857 72:0.3820503354072571 73:0.013250046409666538 74:0.020911771804094315 75:0.011330223642289639 76:0.051171574741601944 77:0.048518043011426926 78:0.025848614051938057 79:0.022664247080683708 80:0.0043816473335027695 81:0.005830444861203432 82:0.004361446015536785 83:0.0 84:0.014599989168345928 85:0.032723210752010345 86:0.09452321380376816 87:0.0405503548681736 88:0.012548970989882946 89:0.0054688844829797745 90:0.0013792102690786123 91:0.07133626937866211 92:0.01659676805138588 93:0.03065384551882744 94:0.029116032645106316 95:0.8529660701751709 96:0.1392693817615509 97:0.00901280902326107 98:0.07457271218299866 99:0.015755629166960716 100:0.06413868814706802 101:0.01787642017006874 102:0.014886618591845036 103:0.03236404433846474 104:0.1479368656873703 105:0.24613936245441437 106:0.25164610147476196 107:0.20228250324726105 108:0.1690395474433899 109:0.40522903203964233 110:0.040542345494031906 111:0.11965905129909515 112:0.02702822908759117 113:0.09669913351535797 114:0.02702822908759117 115:0.07307330518960953 116:0.073088638484478 117:0.11320973932743073 118:0.1470102071762085 119:0.10578596591949463 120:0.0861976370215416 121:0.10157539695501328 122:0.2300899475812912 123:0.251172810792923 124:0.25883182883262634 125:0.2145683765411377 126:0.19692538678646088 127:0.2638264298439026 128:0.04881908372044563 129:0.17636509239673615 130:0.1724250316619873 131:0.12691761553287506 132:0.2668144106864929 133:0.07692369073629379 134:0.16551466286182404 135:0.048725832253694534 136:0.17314650118350983 137:0.13329733908176422 138:0.18557202816009521 139:0.08487337827682495 140:0.2840537130832672 141:0.13623112440109253 142:0.12886600196361542 143:0.02179085463285446 144:0.07484756410121918 145:0.4628617465496063 146:0.1267893761396408 147:0.10539967566728592 148:0.09549184143543243 149:0.1572115421295166 150:0.07566152513027191 151:0.009611116722226143 152:0.17538565397262573 153:0.22595354914665222 154:0.02825857698917389 155:0.011414352804422379 156:0.012415420264005661 157:0.021277856081724167 158:0.04132036119699478 159:0.010265868157148361 160:0.003921466879546642 161:0.020068708807229996 162:0.007850304245948792 163:0.07712370902299881 164:0.05147325620055199 165:0.05342302471399307 166:0.05574224889278412 167:0.16618938744068146 168:0.3546098470687866 169:0.3078019618988037 170:0.32662272453308105 171:0.08904141932725906 172:0.06627380847930908 173:0.10354692488908768 174:0.08008185029029846 175:0.05851373076438904 176:0.13677658140659332 177:0.3109261989593506 178:0.28335270285606384 179:0.09694062918424606 180:0.1611863374710083 181:0.024649977684020996 182:0.0017286943038925529 183:0.013705377466976643 184:0.022595735266804695 185:0.03799379616975784 186:0.023107284680008888 187:0.025347651913762093 188:0.019396180287003517 189:0.010328802280128002 190:0.48043081164360046 191:0.10264305770397186 192:0.1393056958913803 193:0.11562943458557129 194:0.07832842320203781 195:0.1967948079109192 196:0.11096812039613724 197:0.19217802584171295 198:0.17066867649555206 199:0.21725845336914062 200:0.248966783285141 201:0.14372101426124573 202:0.10255136340856552 203:0.30501696467399597 204:0.08000491559505463 205:0.09421944618225098 206:0.151645228266716 207:0.09869420528411865 208:0.2937828600406647 209:0.1565800905227661 210:0.11407313495874405 211:0.3624458611011505 212:0.19934706389904022 213:0.02156599424779415 214:0.011005554348230362 215:0.029933208599686623 216:0.14279203116893768 217:0.45816570520401 218:0.13979455828666687 219:0.14132201671600342 220:0.0958872139453888 221:0.16127647459506989 222:0.09599874168634415 223:0.09564618766307831 224:0.06803623586893082 225:0.14419345557689667 226:0.10989226400852203 227:0.190471813082695 228:0.1397905796766281 229:0.0940713882446289 230:0.14603880047798157 231:0.07124394178390503 232:0.14051909744739532 233:0.06288694590330124 234:0.08585233986377716 235:0.3887052834033966 236:0.060726165771484375 237:0.18167456984519958 238:0.21806839108467102 239:0.1416974812746048 240:0.12577766180038452 241:0.12968675792217255 242:0.15238894522190094 243:0.2296394407749176 244:0.11242499202489853 245:0.07254461199045181 246:0.16007977724075317 247:0.22185488045215607 248:0.234111025929451 249:0.12408345937728882 250:0.08885680139064789 251:0.037645403295755386 252:0.032903291285037994 253:0.01849316991865635 254:0.02533060498535633 255:0.08222799003124237 256:0.071124367415905 257:0.08914384245872498 258:0.044822849333286285 259:0.0632435753941536 260:0.03372389078140259 261:0.02498607523739338 262:0.044899459928274155 263:0.046147920191287994 264:0.024404173716902733 265:0.05898956581950188 266:0.9511150121688843 267:0.03205350413918495 268:0.011417812667787075 269:0.01353986095637083 270:0.014272266067564487 271:0.048690155148506165 272:0.03478933498263359 273:0.05173155292868614 274:0.06277567148208618 275:0.1112990602850914 276:0.04622797667980194 277:0.037390533834695816 278:0.021882757544517517 279:0.0 280:0.039004743099212646 281:0.019046666100621223 282:0.04024498909711838 283:0.06357663869857788 284:0.12155812978744507 285:0.05905270576477051 286:0.033279042690992355 287:0.05981038138270378 288:0.0 289:0.07752583175897598 290:0.012764993123710155 291:0.023906443268060684 292:0.06243779882788658 293:0.9530704021453857 294:0.05948823690414429 295:0.03779919818043709 296:0.00791651289910078 297:0.021922698244452477 298:0.05566821247339249 299:0.022215520963072777 300:0.06081162765622139 301:0.09898772090673447 302:0.060479339212179184 303:0.0852489173412323 304:0.03413303196430206 305:0.03174826502799988 306:0.0055978200398385525 307:0.04985247179865837 308:0.026300184428691864 309:0.03419332578778267 310:0.09777577966451645 311:0.062396034598350525 312:0.05460589751601219 313:0.025282099843025208 314:0.035106927156448364 315:0.02365024760365486 316:0.06169046089053154 317:0.07647258788347244 318:0.05006842315196991 319:0.061560168862342834 320:0.0479208268225193 321:0.0287295114248991 322:0.04030262306332588 323:0.03409028798341751 324:0.014597328379750252 
0.05737482012489375 0.10651567702946012 0.0 1:0.13954739272594452 2:0.052930451929569244 3:0.0394580215215683 4:0.06992661207914352 5:0.10122381895780563 6:0.09680531919002533 7:0.06320967525243759 8:0.1097613051533699 9:0.07820700854063034 10:0.02516998164355755 11:0.011256357654929161 12:0.061253659427165985 13:0.16406454145908356 14:0.13088390231132507 15:0.09251583367586136 16:0.02135743573307991 17:0.020331524312496185 18:0.023212071508169174 19:0.08910935372114182 20:0.05191940441727638 21:0.09554856270551682 22:0.06714675575494766 23:0.10675549507141113 24:0.07044366002082825 25:0.04983402043581009 26:0.02728833630681038 27:0.052019231021404266 28:0.39048299193382263 29:0.18967656791210175 30:0.6177215576171875 31:0.3893381357192993 32:0.16693900525569916 33:0.057435546070337296 34:0.08949963003396988 35:0.03170478343963623 36:0.25021013617515564 37:0.012859213165938854 38:0.014863571152091026 39:0.02292538620531559 40:0.03342181816697121 41:0.02297545224428177 42:0.022408537566661835 43:0.017041737213730812 44:0.01660039834678173 45:0.01184817310422659 46:0.013327695429325104 47:0.01355808787047863 48:0.01572028174996376 49:0.029954254627227783 50:0.0442194938659668 51:0.01898474618792534 52:0.012955154292285442 53:0.01114268321543932 54:0.0032786917872726917 55:0.2736029624938965 56:0.26857295632362366 57:0.3482600748538971 58:0.4706522822380066 59:0.2810954451560974 60:0.02918318845331669 61:0.0 62:0.025724807754158974 63:0.02185281738638878 64:0.06674033403396606 65:0.06903547048568726 66:0.07005524635314941 67:0.04512420669198036 68:0.6325787901878357 69:0.05987684428691864 70:0.0059114559553563595 71:0.022320598363876343 72:0.02962546795606613 73:0.006983790080994368 74:0.013271729461848736 75:0.015573580749332905 76:0.03707251325249672 77:0.18955770134925842 78:0.0964646115899086 79:0.011528322473168373 80:0.006105227395892143 81:0.0 82:0.014302144758403301 83:0.0021320378873497248 84:0.022794824093580246 85:0.09315625578165054 86:0.281261682510376 87:0.04659752547740936 88:0.019144907593727112 89:0.013295533135533333 90:0.0030151570681482553 91:0.10814537107944489 92:0.02948291040956974 93:0.0605938583612442 94:0.05797635763883591 95:0.44149214029312134 96:0.41330820322036743 97:0.06698908656835556 98:0.31944262981414795 99:0.27685055136680603 100:0.07718449831008911 101:0.018848096951842308 102:0.05809864029288292 103:0.10752458870410919 104:0.15181021392345428 105:0.2839263379573822 106:0.2539733648300171 107:0.31458520889282227 108:0.06798155605792999 109:0.029816441237926483 110:0.009666962549090385 111:0.017363088205456734 112:0.021727368235588074 113:0.01312203612178564 114:0.030096592381596565 115:0.04544311761856079 116:0.016175176948308945 117:0.0 118:0.5886791944503784 119:0.41418278217315674 120:0.09087798744440079 121:0.2197178304195404 122:0.2225823700428009 123:0.05091594159603119 124:0.15475936233997345 125:0.084502674639225 126:0.46947360038757324 127:0.033528879284858704 128:0.018511686474084854 129:0.014907142147421837 130:0.048607103526592255 131:0.030977260321378708 132:0.0541006363928318 133:0.04548889771103859 134:0.028212158009409904 135:0.014593199826776981 136:0.028311608359217644 137:0.02728433907032013 138:0.010767385363578796 139:0.015846023336052895 140:0.03842882066965103 141:0.17729395627975464 142:0.03609544038772583 143:0.03330864757299423 144:0.26140114665031433 145:0.12490871548652649 146:0.012987127527594566 147:0.022151248529553413 148:0.0159902423620224 149:0.05271538347005844 150:0.03642827272415161 151:0.014432007446885109 152:0.06054626405239105 153:0.32007554173469543 154:0.004899752791970968 155:0.02079613134264946 156:0.0386146679520607 157:0.030769385397434235 158:0.009004386141896248 159:0.01610039360821247 160:0.013583065010607243 161:0.01668349839746952 162:0.00816994160413742 163:0.2577965259552002 164:0.021394312381744385 165:0.020429102703928947 166:0.08074979484081268 167:0.05956282094120979 168:0.6039247512817383 169:0.27053049206733704 170:0.5162847638130188 171:0.2736607789993286 172:0.018296288326382637 173:0.013210352510213852 174:0.014991153962910175 175:0.015648048371076584 176:0.05352585390210152 177:0.0811343640089035 178:0.019287610426545143 179:0.040172986686229706 180:0.011099454015493393 181:0.028040966019034386 182:0.016567610204219818 183:0.021862298250198364 184:0.0235246941447258 185:0.04712309688329697 186:0.016340376809239388 187:0.03019486367702484 188:0.018579203635454178 189:0.014006584882736206 190:0.3411646783351898 191:0.052870240062475204 192:0.02831699326634407 193:0.03311895206570625 194:0.18381254374980927 195:0.18138927221298218 196:0.2658825218677521 197:0.2734196186065674 198:0.38409507274627686 199:0.24766945838928223 200:0.19325105845928192 201:0.2217089682817459 202:0.2843859791755676 203:0.2030860334634781 204:0.0799485296010971 205:0.012802866287529469 206:0.06923823058605194 207:0.006554013583809137 208:0.1588733047246933 209:0.06503380089998245 210:0.07751786708831787 211:0.08254219591617584 212:0.36450931429862976 213:0.03961614891886711 214:0.026216594502329826 215:0.02249518595635891 216:0.23223868012428284 217:0.4040680527687073 218:0.11255654692649841 219:0.056155625730752945 220:0.0 221:0.12075646966695786 222:0.13273662328720093 223:0.29556143283843994 224:0.15931716561317444 225:0.16707710921764374 226:0.09410317987203598 227:0.058287397027015686 228:0.1660299003124237 229:0.2435816377401352 230:0.09791846573352814 231:0.038369424641132355 232:0.06920039653778076 233:0.09172967076301575 234:0.10158051550388336 235:0.28232908248901367 236:0.19689378142356873 237:0.12223878502845764 238:0.11358694732189178 239:0.17283596098423004 240:0.17726387083530426 241:0.17631056904792786 242:0.08768270909786224 243:0.28331804275512695 244:0.1630166918039322 245:0.16073410212993622 246:0.22869804501533508 247:0.11099696904420853 248:0.08853426575660706 249:0.1769946664571762 250:0.10264071822166443 251:0.1082846149802208 252:0.09592489898204803 253:0.06732992082834244 254:0.23983068764209747 255:0.28220072388648987 256:0.08459202945232391 257:0.23716185986995697 258:0.13719037175178528 259:0.11108182370662689 260:0.12815961241722107 261:0.23053015768527985 262:0.22336354851722717 263:0.24944429099559784 264:0.07303369790315628 265:0.2800115942955017 266:0.4600754976272583 267:0.242336243391037 268:0.02584238536655903 269:0.30979499220848083 270:0.29218384623527527 271:0.036073509603738785 272:0.025902029126882553 273:0.05253772437572479 274:0.04015824943780899 275:0.06701477617025375 276:0.07296508550643921 277:0.07165678590536118 278:0.0505429245531559 279:0.015110179781913757 280:0.07206157594919205 281:0.052613306790590286 282:0.035644035786390305 283:0.04632983356714249 284:0.08839777857065201 285:0.03334978222846985 286:0.02208186313509941 287:0.029983147978782654 288:0.01218221615999937 289:0.0715208575129509 290:0.09015694260597229 291:0.06036952883005142 292:0.6845737099647522 293:0.5550187826156616 294:0.14006732404232025 295:0.15090014040470123 296:0.032896410673856735 297:0.011614195071160793 298:0.016313742846250534 299:0.008212476037442684 300:0.12187357991933823 301:0.1302250176668167 302:0.1597091406583786 303:0.08848237246274948 304:0.03543318063020706 305:0.02151811309158802 306:0.0072028180584311485 307:0.06751874089241028 308:0.0499977245926857 309:0.11245682835578918 310:0.12805502116680145 311:0.0845797210931778 312:0.10947683453559875 313:0.06324678659439087 314:0.0348806157708168 315:0.03765185549855232 316:0.08022653311491013 317:0.06778738647699356 318:0.0879167839884758 319:0.06155875325202942 320:0.05940952152013779 321:0.07744108140468597 322:0.025769582018256187 323:0.01648181676864624 324:0.026019830256700516 
-0.08899145060530274 0.053698901284079274 0.16752153794310387 1:0.27032527327537537 2:0.1443546563386917 3:0.1567685455083847 4:0.2042469084262848 5:0.08956853300333023 6:0.11914294213056564 7:0.053787149488925934 8:0.09428352862596512 9:0.06498518586158752 10:0.04459970444440842 11:0.04213409870862961 12:0.12456902116537094 13:0.21995572745800018 14:0.41601866483688354 15:0.13746458292007446 16:0.12677155435085297 17:0.0 18:0.03249259293079376 19:0.30942192673683167 20:0.17724552750587463 21:0.1273079663515091 22:0.23797422647476196 23:0.17029595375061035 24:0.08640513569116592 25:0.2027168720960617 26:0.04595146328210831 27:0.19082939624786377 28:0.08601223677396774 29:0.09226898849010468 30:0.08537335693836212 31:0.10036259144544601 32:0.10703928768634796 33:0.28693369030952454 34:0.17411375045776367 35:0.15084978938102722 36:0.16909976303577423 37:0.1794636845588684 38:0.05300154164433479 39:0.17887897789478302 40:0.2424178421497345 41:0.15999531745910645 42:0.28027182817459106 43:0.1301921159029007 44:0.06111675873398781 45:0.018738875165581703 46:0.1752290427684784 47:0.013250385411083698 48:0.18143972754478455 49:0.3201087713241577 50:0.42266929149627686 51:0.18101540207862854 52:0.17393586039543152 53:0.03461598977446556 54:0.018738875165581703 55:0.19843466579914093 56:0.13840073347091675 57:0.1607677936553955 58:0.17567522823810577 59:0.11851504445075989 60:0.11698006838560104 61:0.04650644212961197 62:0.10898313671350479 63:0.04317137598991394 64:0.1693032830953598 65:0.1089831292629242 66:0.1267358362674713 67:0.22767721116542816 68:0.13629230856895447 69:0.10942330211400986 70:0.16525574028491974 71:0.11433030664920807 72:0.03604494407773018 73:0.09411665797233582 74:0.03728479519486427 75:0.1005939468741417 76:0.10265335440635681 77:0.4823015630245209 78:0.13958284258842468 79:0.01886478066444397 80:0.0 81:0.010545733384788036 82:0.043894268572330475 83:0.04817919805645943 84:0.1431957334280014 85:0.521057665348053 86:0.42251670360565186 87:0.2797089219093323 88:0.09381065517663956 89:0.0074569592252373695 90:0.010545733384788036 91:0.06669706851243973 92:0.043612170964479446 93:0.07380151003599167 94:0.06664437800645828 95:0.08670619130134583 96:0.1411021202802658 97:0.08522668480873108 98:0.029827836900949478 99:0.021091466769576073 100:0.07090331614017487 101:0.050831388682127 102:0.06426622718572617 103:0.18228381872177124 104:0.13360175490379333 105:0.1725975126028061 106:0.06861831992864609 107:0.0672675222158432 108:0.021091466769576073 109:0.18857817351818085 110:0.06736954301595688 111:0.12113717198371887 112:0.20804725587368011 113:0.1308629959821701 114:0.11293922364711761 115:0.1574169546365738 116:0.10362055152654648 117:0.07847796380519867 118:0.2857103645801544 119:0.17489632964134216 120:0.16668584942817688 121:0.11680754274129868 122:0.20286664366722107 123:0.11616604775190353 124:0.1757713407278061 125:0.12149319052696228 126:0.0819316878914833 127:0.1003689095377922 128:0.12959113717079163 129:0.12410008162260056 130:0.09114301949739456 131:0.0766795203089714 132:0.21424616873264313 133:0.18988148868083954 134:0.23457884788513184 135:0.13947759568691254 136:0.11405126005411148 137:0.14834775030612946 138:0.19853070378303528 139:0.32430601119995117 140:0.37380293011665344 141:0.17141078412532806 142:0.08392258733510971 143:0.0 144:0.03270195052027702 145:0.14277265965938568 146:0.0 147:0.09143377095460892 148:0.13735206425189972 149:0.23275238275527954 150:0.11916343122720718 151:0.0731470137834549 152:0.10784201323986053 153:0.04571688547730446 154:0.14367368817329407 155:0.09552689641714096 156:0.24119645357131958 157:0.5027840733528137 158:0.1947653591632843 159:0.2942068874835968 160:0.09723573923110962 161:0.11890699714422226 162:0.12095984816551208 163:0.11175595223903656 164:0.03232672065496445 165:0.12891265749931335 166:0.13136377930641174 167:0.09751524776220322 168:0.2507510483264923 169:0.2301395982503891 170:0.11346563696861267 171:0.04089042544364929 172:0.09802933782339096 173:0.1338256299495697 174:0.2070840299129486 175:0.19665490090847015 176:0.1422375738620758 177:0.12537550926208496 178:0.05988463759422302 179:0.15992647409439087 180:0.0 181:0.03316950798034668 182:0.06833963841199875 183:0.1791110783815384 184:0.3234391510486603 185:0.24284008145332336 186:0.1654154360294342 187:0.026805009692907333 188:0.010595611296594143 189:0.05413062125444412 190:0.07394272834062576 191:0.1820196807384491 192:0.13507118821144104 193:0.20185649394989014 194:0.23252330720424652 195:0.2860100567340851 196:0.09162364900112152 197:0.03827613219618797 198:0.014984456822276115 199:0.18270665407180786 200:0.06595664471387863 201:0.07437733560800552 202:0.1655566692352295 203:0.12833170592784882 204:0.08749984949827194 205:0.05361001938581467 206:0.09641615301370621 207:0.06449071317911148 208:0.038491345942020416 209:0.13580802083015442 210:0.05729242414236069 211:0.25887253880500793 212:0.48160499334335327 213:0.28432604670524597 214:0.0542735755443573 215:0.07006295770406723 216:0.043699052184820175 217:0.4804494380950928 218:0.23932506144046783 219:0.027164015918970108 220:0.06887274235486984 221:0.06242554634809494 222:0.1208210214972496 223:0.06169656291604042 224:0.19366899132728577 225:0.1669498234987259 226:0.03361375629901886 227:0.05622238293290138 228:0.20342926681041718 229:0.1342271864414215 230:0.18287210166454315 231:0.14352737367153168 232:0.08589620888233185 233:0.053687598556280136 234:0.0547831654548645 235:0.36250773072242737 236:0.19166021049022675 237:0.17690818011760712 238:0.06274909526109695 239:0.12044655531644821 240:0.07961026579141617 241:0.07843276858329773 242:0.21177229285240173 243:0.13229551911354065 244:0.11602640897035599 245:0.03474734351038933 246:0.10253749787807465 247:0.3050512671470642 248:0.24157562851905823 249:0.10201463848352432 250:0.07470104098320007 251:0.021475041285157204 252:0.04428432136774063 253:0.04735635966062546 254:0.09726051986217499 255:0.22155733406543732 256:0.1236492469906807 257:0.35123753547668457 258:0.05547774210572243 259:0.12448583543300629 260:0.18360535800457 261:0.04247257485985756 262:0.08744751662015915 263:0.06012748181819916 264:0.03750902786850929 265:0.3663313388824463 266:0.18696901202201843 267:0.06647885590791702 268:0.10718019306659698 269:0.17840775847434998 270:0.05530666559934616 271:0.2107871025800705 272:0.08619929850101471 273:0.18239682912826538 274:0.3405643403530121 275:0.26865488290786743 276:0.2169351577758789 277:0.06595704704523087 278:0.10428724437952042 279:0.036871109157800674 280:0.17116577923297882 281:0.14659753441810608 282:0.1162412017583847 283:0.1611369103193283 284:0.19286702573299408 285:0.0944143757224083 286:0.13703051209449768 287:0.12865513563156128 288:0.07211106270551682 289:0.1212427020072937 290:0.03511402755975723 291:0.02961074560880661 292:0.1660826951265335 293:0.14656572043895721 294:0.2624911367893219 295:0.06662417203187943 296:0.0 297:0.0 298:0.08898632228374481 299:0.023409349843859673 300:0.1642216593027115 301:0.32714158296585083 302:0.22093357145786285 303:0.09665863960981369 304:0.0706920251250267 305:0.08668338507413864 306:0.0 307:0.13928945362567902 308:0.150201216340065 309:0.05181879922747612 310:0.18974225223064423 311:0.13118812441825867 312:0.17640194296836853 313:0.22119790315628052 314:0.1253814548254013 315:0.0 316:0.17650792002677917 317:0.0567503459751606 318:0.12296199053525925 319:0.44553130865097046 320:0.284012109041214 321:0.32289940118789673 322:0.0968644767999649 323:0.10179601609706879 324:0.03701343387365341 
-0.2033643145551948 0.20004021860794724 0.2030012708736294 1:0.17446881532669067 2:0.15546849370002747 3:0.20794954895973206 4:0.04165495187044144 5:0.1877559870481491 6:0.14970746636390686 7:0.09275554120540619 8:0.1909417361021042 9:0.10623093694448471 10:0.3042210042476654 11:0.1761167049407959 12:0.19411295652389526 13:0.14606709778308868 14:0.051109760999679565 15:0.19126039743423462 16:0.06063104420900345 17:0.19333072006702423 18:0.15170158445835114 19:0.26931193470954895 20:0.14792555570602417 21:0.1497686356306076 22:0.16860687732696533 23:0.09701065719127655 24:0.08856971561908722 25:0.1130557432770729 26:0.12779439985752106 27:0.18525339663028717 28:0.09838375449180603 29:0.13319997489452362 30:0.3020406663417816 31:0.0723114162683487 32:0.15900814533233643 33:0.10456184297800064 34:0.16106729209423065 35:0.24729780852794647 36:0.1655464619398117 37:0.13134002685546875 38:0.04327508062124252 39:0.1798183172941208 40:0.2450999915599823 41:0.109937883913517 42:0.10766474902629852 43:0.13082093000411987 44:0.05974232777953148 45:0.03777379170060158 46:0.12675927579402924 47:0.05535796657204628 48:0.1250484436750412 49:0.34162065386772156 50:0.3085789382457733 51:0.26323646306991577 52:0.25260618329048157 53:0.1338944286108017 54:0.14705109596252441 55:0.07900050282478333 56:0.047244682908058167 57:0.214656263589859 58:0.15865136682987213 59:0.10535714030265808 60:0.0929136574268341 61:0.04890687018632889 62:0.037001825869083405 63:0.10244178771972656 64:0.2598690092563629 65:0.09737278521060944 66:0.08110129833221436 67:0.26314109563827515 68:0.26679226756095886 69:0.18591687083244324 70:0.13055908679962158 71:0.10184121876955032 72:0.1537076234817505 73:0.2091412991285324 74:0.08451297134160995 75:0.18991339206695557 76:0.1654670536518097 77:0.11640533804893494 78:0.26088932156562805 79:0.08923990279436111 80:0.09727416932582855 81:0.019883524626493454 82:0.0706447958946228 83:0.19654932618141174 84:0.16808408498764038 85:0.3120352029800415 86:0.15521953999996185 87:0.26731306314468384 88:0.25694116950035095 89:0.18140897154808044 90:0.04921742156147957 91:0.24343793094158173 92:0.1599450409412384 93:0.14829175174236298 94:0.17179298400878906 95:0.15993952751159668 96:0.0844167172908783 97:0.12707196176052094 98:0.246768057346344 99:0.04447335749864578 100:0.19740097224712372 101:0.06322889775037766 102:0.044572293758392334 103:0.10252715647220612 104:0.18325360119342804 105:0.14582321047782898 106:0.17359855771064758 107:0.1741861253976822 108:0.035133492201566696 109:0.3143678903579712 110:0.1610671877861023 111:0.14333844184875488 112:0.16712705790996552 113:0.19078698754310608 114:0.17268064618110657 115:0.04215836897492409 116:0.23860245943069458 117:0.07956551015377045 118:0.2834971249103546 119:0.10965150594711304 120:0.09274839609861374 121:0.16637077927589417 122:0.275997132062912 123:0.2839667499065399 124:0.0971977487206459 125:0.12050607055425644 126:0.09426897764205933 127:0.2357810139656067 128:0.17443910241127014 129:0.09274841099977493 130:0.12134507298469543 131:0.0298104677349329 132:0.08322467654943466 133:0.15248717367649078 134:0.1211642399430275 135:0.12457986176013947 136:0.1192418709397316 137:0.07797039300203323 138:0.16587305068969727 139:0.2124744951725006 140:0.26381245255470276 141:0.12126648426055908 142:0.07208666950464249 143:0.1450543850660324 144:0.055119797587394714 145:0.26477184891700745 146:0.14481449127197266 147:0.14363734424114227 148:0.22364835441112518 149:0.1731189638376236 150:0.11457309871912003 151:0.2038343995809555 152:0.121225506067276 153:0.27356401085853577 154:0.15007451176643372 155:0.11745188385248184 156:0.20357878506183624 157:0.08822520822286606 158:0.2856087386608124 159:0.18168847262859344 160:0.20835933089256287 161:0.11491021513938904 162:0.0237288661301136 163:0.16692069172859192 164:0.07088897377252579 165:0.18145257234573364 166:0.19360221922397614 167:0.18008942902088165 168:0.1760917454957962 169:0.10133815556764603 170:0.16120575368404388 171:0.0 172:0.15879592299461365 173:0.06711536645889282 174:0.12256190925836563 175:0.09517522156238556 176:0.21760804951190948 177:0.14515307545661926 178:0.18683898448944092 179:0.14846789836883545 180:0.15690596401691437 181:0.19738870859146118 182:0.14934590458869934 183:0.18767231702804565 184:0.12554681301116943 185:0.21539510786533356 186:0.08160236477851868 187:0.12857729196548462 188:0.1508335918188095 189:0.07937362045049667 190:0.0978502705693245 191:0.04661014303565025 192:0.18767228722572327 193:0.17259392142295837 194:0.42384201288223267 195:0.06858237087726593 196:0.10366244614124298 197:0.0 198:0.021972231566905975 199:0.21721066534519196 200:0.1683768630027771 201:0.14417721331119537 202:0.1499442160129547 203:0.1667575091123581 204:0.1192028820514679 205:0.08400987088680267 206:0.04661014303565025 207:0.0927257239818573 208:0.14762355387210846 209:0.17799170315265656 210:0.14283022284507751 211:0.22747857868671417 212:0.32076868414878845 213:0.20791824162006378 214:0.23420800268650055 215:0.09079264849424362 216:0.0574013888835907 217:0.552797257900238 218:0.12112470716238022 219:0.1225050836801529 220:0.08896216750144958 221:0.1431046426296234 222:0.0245848149061203 223:0.16764496266841888 224:0.026665976271033287 225:0.15270966291427612 226:0.1252165585756302 227:0.20091018080711365 228:0.10119026154279709 229:0.2585986256599426 230:0.07751501351594925 231:0.11999689787626266 232:0.23858295381069183 233:0.20907597243785858 234:0.062296196818351746 235:0.10953059792518616 236:0.15259651839733124 237:0.0805264413356781 238:0.06990005820989609 239:0.19080619513988495 240:0.04373687878251076 241:0.03836384043097496 242:0.13941238820552826 243:0.3489547371864319 244:0.19750294089317322 245:0.06966356933116913 246:0.029931319877505302 247:0.04552166908979416 248:0.08993388712406158 249:0.09124975651502609 250:0.13492034375667572 251:0.1281626969575882 252:0.0 253:0.09614626318216324 254:0.0529523640871048 255:0.269555926322937 256:0.14969873428344727 257:0.34930264949798584 258:0.10671258717775345 259:0.256947785615921 260:0.034342389553785324 261:0.02428373694419861 262:0.2394099086523056 263:0.10336270183324814 264:0.19017833471298218 265:0.11207880079746246 266:0.07698429375886917 267:0.13304080069065094 268:0.21708720922470093 269:0.11964134871959686 270:0.12159639596939087 271:0.1687338501214981 272:0.11949431151151657 273:0.12201129645109177 274:0.29612457752227783 275:0.2061385065317154 276:0.06904403865337372 277:0.06288177520036697 278:0.19656868278980255 279:0.01862477697432041 280:0.1612699329853058 281:0.23564523458480835 282:0.09684182703495026 283:0.11421211808919907 284:0.10643265396356583 285:0.14252957701683044 286:0.2765148878097534 287:0.04261806234717369 288:0.1603161245584488 289:0.1291268914937973 290:0.041906118392944336 291:0.13274993002414703 292:0.19812807440757751 293:0.34544190764427185 294:0.14385764300823212 295:0.14839041233062744 296:0.08381222933530807 297:0.0 298:0.07290128618478775 299:0.06416366994380951 300:0.11238005757331848 301:0.18958477675914764 302:0.2660212218761444 303:0.15025366842746735 304:0.1881878525018692 305:0.10388123244047165 306:0.022685281932353973 307:0.3055477738380432 308:0.15091805160045624 309:0.0923110619187355 310:0.2099202573299408 311:0.18711033463478088 312:0.18469329178333282 313:0.14404144883155823 314:0.14470143616199493 315:0.12547728419303894 316:0.23509857058525085 317:0.13572172820568085 318:0.24970027804374695 319:0.2113085687160492 320:0.19369032979011536 321:0.032081834971904755 322:0.16332721710205078 323:0.12589745223522186 324:0.022685281932353973 
-0.1552848529470708 0.061302703031177706 0.16583861326812793 1:0.35371845960617065 2:0.12319126725196838 3:0.07823947072029114 4:0.15831567347049713 5:0.07512255012989044 6:0.10954570770263672 7:0.08598670363426208 8:0.05420832335948944 9:0.08235776424407959 10:0.273617148399353 11:0.17879123985767365 12:0.14572589099407196 13:0.2770771384239197 14:0.06479920446872711 15:0.2912479639053345 16:0.11329647153615952 17:0.2040640413761139 18:0.045955318957567215 19:0.16972343623638153 20:0.12124418467283249 21:0.2515817880630493 22:0.18103726208209991 23:0.04984554275870323 24:0.12182871252298355 25:0.11726069450378418 26:0.11793726682662964 27:0.229048952460289 28:0.13425643742084503 29:0.13643468916416168 30:0.18108956515789032 31:0.11728718131780624 32:0.20014894008636475 33:0.2182506024837494 34:0.12034568935632706 35:0.12503363192081451 36:0.07270397990942001 37:0.028315803036093712 38:0.0330820269882679 39:0.056062422692775726 40:0.20914873480796814 41:0.38592660427093506 42:0.315111368894577 43:0.12893570959568024 44:0.0710112452507019 45:0.0 46:0.13753202557563782 47:0.03798963874578476 48:0.09690004587173462 49:0.3936764895915985 50:0.29664158821105957 51:0.22282813489437103 52:0.20902492105960846 53:0.0330820269882679 54:0.04678505286574364 55:0.07362108677625656 56:0.08864247798919678 57:0.08077029138803482 58:0.1710844337940216 59:0.1755579710006714 60:0.08646982163190842 61:0.13694463670253754 62:0.10415369272232056 63:0.0 64:0.3328365087509155 65:0.12040120363235474 66:0.1084049716591835 67:0.12248283624649048 68:0.062294766306877136 69:0.13535289466381073 70:0.10919801890850067 71:0.08691476285457611 72:0.035816971212625504 73:0.06374240666627884 74:0.08317969739437103 75:0.10776028037071228 76:0.30639153718948364 77:0.3068733513355255 78:0.2321876436471939 79:0.09399659186601639 80:0.021762294694781303 81:0.07097762823104858 82:0.11419584602117538 83:0.10052844882011414 84:0.06656540930271149 85:0.3748036324977875 86:0.2791141867637634 87:0.31152448058128357 88:0.19772100448608398 89:0.10961038619279861 90:0.08500435948371887 91:0.06405023485422134 92:0.03509064391255379 93:0.09314940124750137 94:0.0851181223988533 95:0.23884639143943787 96:0.052707280963659286 97:0.06193656474351883 98:0.06773408502340317 99:0.04498818889260292 100:0.06939827650785446 101:0.08944445848464966 102:0.09079565852880478 103:0.2034183144569397 104:0.25344496965408325 105:0.08196309208869934 106:0.2711871564388275 107:0.10567860305309296 108:0.10063785314559937 109:0.18681812286376953 110:0.17329949140548706 111:0.1981460303068161 112:0.1129014641046524 113:0.13671772181987762 114:0.11723364144563675 115:0.18951363861560822 116:0.12492747604846954 117:0.12847715616226196 118:0.2820091247558594 119:0.30626237392425537 120:0.14406678080558777 121:0.31465867161750793 122:0.22603122889995575 123:0.1617085337638855 124:0.15090739727020264 125:0.0743064135313034 126:0.09216386079788208 127:0.1860530823469162 128:0.12742134928703308 129:0.1471305787563324 130:0.10377255082130432 131:0.053353819996118546 132:0.05644509196281433 133:0.12640340626239777 134:0.23291456699371338 135:0.1280878782272339 136:0.1432388573884964 137:0.013255863450467587 138:0.3173806667327881 139:0.15464875102043152 140:0.11856403946876526 141:0.14509788155555725 142:0.12658630311489105 143:0.03463030233979225 144:0.04318922385573387 145:0.10022665560245514 146:0.23386462032794952 147:0.07573897391557693 148:0.12967945635318756 149:0.15712259709835052 150:0.19521984457969666 151:0.19640186429023743 152:0.15186168253421783 153:0.01980903185904026 154:0.11439179629087448 155:0.17469847202301025 156:0.2560642659664154 157:0.4887414276599884 158:0.31544241309165955 159:0.15333282947540283 160:0.19274821877479553 161:0.08543816208839417 162:0.0 163:0.16490137577056885 164:0.08404260128736496 165:0.15945960581302643 166:0.16489171981811523 167:0.10074509680271149 168:0.15920116007328033 169:0.07972981035709381 170:0.05917864292860031 171:0.01980903185904026 172:0.1753966510295868 173:0.10993500798940659 174:0.10231557488441467 175:0.08765814453363419 176:0.21298164129257202 177:0.1610097885131836 178:0.07573897391557693 179:0.03659287467598915 180:0.01980903185904026 181:0.13089673221111298 182:0.046214841306209564 183:0.1317507028579712 184:0.06550534069538116 185:0.14516493678092957 186:0.15769651532173157 187:0.24975599348545074 188:0.19210855662822723 189:0.07870045304298401 190:0.23043103516101837 191:0.11726941168308258 192:0.10264711827039719 193:0.2480069398880005 194:0.1865813285112381 195:0.21685461699962616 196:0.20556654036045074 197:0.11129924654960632 198:0.0 199:0.1397521197795868 200:0.20394259691238403 201:0.19046975672245026 202:0.21216890215873718 203:0.21356834471225739 204:0.10974884033203125 205:0.3190796375274658 206:0.03080989420413971 207:0.021785885095596313 208:0.25025081634521484 209:0.17920918762683868 210:0.07794354856014252 211:0.03512868285179138 212:0.18018163740634918 213:0.050533633679151535 214:0.2173374742269516 215:0.18599042296409607 216:0.10038240253925323 217:0.18115010857582092 218:0.10822764039039612 219:0.17825058102607727 220:0.22488188743591309 221:0.1867518126964569 222:0.19551457464694977 223:0.08803564310073853 224:0.13245339691638947 225:0.09636706858873367 226:0.15688923001289368 227:0.05219871923327446 228:0.20078960061073303 229:0.133392795920372 230:0.19453312456607819 231:0.18785615265369415 232:0.12709607183933258 233:0.06285510957241058 234:0.04921342432498932 235:0.25869959592819214 236:0.12883588671684265 237:0.15515202283859253 238:0.36037251353263855 239:0.12450120598077774 240:0.07680542767047882 241:0.11004454642534256 242:0.12771157920360565 243:0.07935425639152527 244:0.3012069761753082 245:0.14302679896354675 246:0.32502245903015137 247:0.2058095633983612 248:0.11671987920999527 249:0.07680542767047882 250:0.03301336616277695 251:0.10176173597574234 252:0.02460671216249466 253:0.08901606500148773 254:0.07428542524576187 255:0.07687702029943466 256:0.17986589670181274 257:0.12761767208576202 258:0.18008603155612946 259:0.1895962804555893 260:0.11693812161684036 261:0.026215901598334312 262:0.08979880809783936 263:0.04585028439760208 264:0.11284494400024414 265:0.0769769549369812 266:0.10173264145851135 267:0.1757313460111618 268:0.2274358719587326 269:0.21430744230747223 270:0.07253848761320114 271:0.1279485523700714 272:0.02292514219880104 273:0.2170151025056839 274:0.2976911664009094 275:0.20399153232574463 276:0.026215901598334312 277:0.0449599027633667 278:0.21965870261192322 279:0.04632258042693138 280:0.044508032500743866 281:0.02843513898551464 282:0.2541952431201935 283:0.2810192406177521 284:0.5037095546722412 285:0.11732661724090576 286:0.1134839877486229 287:0.042652711272239685 288:0.02010667882859707 289:0.14751143753528595 290:0.03558027744293213 291:0.20871295034885406 292:0.15506786108016968 293:0.12243085354566574 294:0.11127591878175735 295:0.10913559049367905 296:0.10475526750087738 297:0.03864163160324097 298:0.2950960099697113 299:0.13312838971614838 300:0.057552140206098557 301:0.10637341439723969 302:0.10110610723495483 303:0.30068472027778625 304:0.34757617115974426 305:0.07382792979478836 306:0.15842460095882416 307:0.08128135651350021 308:0.06494605541229248 309:0.17728233337402344 310:0.3160656690597534 311:0.1913207471370697 312:0.1800781488418579 313:0.07913167029619217 314:0.019123824313282967 315:0.01677270419895649 316:0.10918725281953812 317:0.0884312242269516 318:0.18466079235076904 319:0.21016058325767517 320:0.2990945279598236 321:0.2444741427898407 322:0.06412971019744873 323:0.11158353835344315 324:0.06560678780078888 
-0.18607168129270313 0.11824026906365044 0.12995184742309232 1:0.4232075810432434 2:0.19255134463310242 3:0.1439482718706131 4:0.07230450958013535 5:0.12188037484884262 6:0.07397062331438065 7:0.14296694099903107 8:0.22895841300487518 9:0.10222887247800827 10:0.17043262720108032 11:0.08878467231988907 12:0.09404759854078293 13:0.0906292274594307 14:0.15411382913589478 15:0.20744061470031738 16:0.09478965401649475 17:0.15466491878032684 18:0.08759713172912598 19:0.3902013599872589 20:0.06916828453540802 21:0.13975439965724945 22:0.08091175556182861 23:0.23846159875392914 24:0.0741540715098381 25:0.13151821494102478 26:0.07367867976427078 27:0.2278512865304947 28:0.10198850184679031 29:0.12675191462039948 30:0.28022196888923645 31:0.13823862373828888 32:0.13777782022953033 33:0.1416304111480713 34:0.026600470766425133 35:0.09286678582429886 36:0.01675737276673317 37:0.061874404549598694 38:0.07765127718448639 39:0.1678674817085266 40:0.3418281078338623 41:0.26038458943367004 42:0.16938351094722748 43:0.11462116241455078 44:0.0670158639550209 45:0.0 46:0.24148491024971008 47:0.08604326844215393 48:0.26988479495048523 49:0.2479739934206009 50:0.18031522631645203 51:0.2471737265586853 52:0.23928065598011017 53:0.2673826217651367 54:0.07653440535068512 55:0.18662728369235992 56:0.0361446738243103 57:0.16712331771850586 58:0.08085361868143082 59:0.08043672144412994 60:0.2147689312696457 61:0.1058708056807518 62:0.06708186864852905 63:0.0 64:0.11365904659032822 65:0.10343468934297562 66:0.10192884504795074 67:0.18709786236286163 68:0.19851018488407135 69:0.157481387257576 70:0.11856310814619064 71:0.10322654247283936 72:0.07676953822374344 73:0.07442166656255722 74:0.013867659494280815 75:0.1188383623957634 76:0.059358447790145874 77:0.4355003535747528 78:0.20897239446640015 79:0.061394739896059036 80:0.041602980345487595 81:0.01961183175444603 82:0.06302446871995926 83:0.036228589713573456 84:0.10611660033464432 85:0.2579772174358368 86:0.41658034920692444 87:0.25826945900917053 88:0.08857523649930954 89:0.036228589713573456 90:0.04518252983689308 91:0.018605416640639305 92:0.02773531898856163 93:0.15392108261585236 94:0.16306820511817932 95:0.22946681082248688 96:0.18169453740119934 97:0.09252634644508362 98:0.0 99:0.01961183175444603 100:0.09403349459171295 101:0.1340935230255127 102:0.1596091091632843 103:0.17124290764331818 104:0.26719093322753906 105:0.2521631121635437 106:0.19919747114181519 107:0.013867659494280815 108:0.01961183175444603 109:0.12616068124771118 110:0.07514067739248276 111:0.19642813503742218 112:0.1235845759510994 113:0.08981084078550339 114:0.1138099953532219 115:0.1144731193780899 116:0.1513499617576599 117:0.3179372251033783 118:0.0778360590338707 119:0.0834897831082344 120:0.1588294804096222 121:0.11401727050542831 122:0.2220289409160614 123:0.3353995382785797 124:0.09871890395879745 125:0.04836425930261612 126:0.08724085241556168 127:0.5258556008338928 128:0.08032925426959991 129:0.0723925232887268 130:0.10666406154632568 131:0.16203227639198303 132:0.20724129676818848 133:0.20509955286979675 134:0.2291090488433838 135:0.0 136:0.08981084078550339 137:0.10710567981004715 138:0.12701168656349182 139:0.040164630860090256 140:0.18011721968650818 141:0.018933787941932678 142:0.016934894025325775 143:0.0 144:0.0 145:0.24800293147563934 146:0.01729132980108261 147:0.35758280754089355 148:0.1893865168094635 149:0.054130423814058304 150:0.3249014616012573 151:0.07763484865427017 152:0.18088410794734955 153:0.08075012266635895 154:0.2731618583202362 155:0.045172762125730515 156:0.038817428052425385 157:0.1496885120868683 158:0.11599376797676086 159:0.03458265960216522 160:0.14216795563697815 161:0.03458265960216522 162:0.039430297911167145 163:0.27285897731781006 164:0.11425558477640152 165:0.16512282192707062 166:0.08645664900541306 167:0.03866458684206009 168:0.06916531920433044 169:0.10935996472835541 170:0.11433807015419006 171:0.024453632533550262 172:0.34888043999671936 173:0.11842000484466553 174:0.22099626064300537 175:0.06916531920433044 176:0.3093166947364807 177:0.12103930115699768 178:0.109359972178936 179:0.10782989859580994 180:0.07131393253803253 181:0.28030019998550415 182:0.14609801769256592 183:0.1859210878610611 184:0.2732354998588562 185:0.07943804562091827 186:0.07840918004512787 187:0.1011081263422966 188:0.1283351331949234 189:0.03275314345955849 190:0.2979523241519928 191:0.1923801451921463 192:0.10206352919340134 193:0.08326917886734009 194:0.15887609124183655 195:0.17209875583648682 196:0.30024316906929016 197:0.3245783746242523 198:0.1792706698179245 199:0.09532565623521805 200:0.017762888222932816 201:0.09604720771312714 202:0.06827891618013382 203:0.2621455490589142 204:0.1826087385416031 205:0.05617118254303932 206:0.03552577644586563 207:0.050241030752658844 208:0.13602261245250702 209:0.07504647225141525 210:0.1870335042476654 211:0.16179819405078888 212:0.19859512150287628 213:0.23284976184368134 214:0.07863964885473251 215:0.07105155289173126 216:0.050241030752658844 217:0.4210018217563629 218:0.05794473737478256 219:0.039767805486917496 220:0.05875781923532486 221:0.06748820841312408 222:0.0607207790017128 223:0.19571010768413544 224:0.15474027395248413 225:0.37238243222236633 226:0.18395574390888214 227:0.09573178738355637 228:0.14134778082370758 229:0.10365685075521469 230:0.12372837215662003 231:0.07870016992092133 232:0.1717870533466339 233:0.02812008559703827 234:0.08756367862224579 235:0.4394174814224243 236:0.025151370093226433 237:0.08748917281627655 238:0.17530561983585358 239:0.11248034238815308 240:0.10413108766078949 241:0.0643048956990242 242:0.08802978694438934 243:0.19267497956752777 244:0.10214495658874512 245:0.12088315933942795 246:0.12891250848770142 247:0.15031322836875916 248:0.29291436076164246 249:0.07870017737150192 250:0.1040726900100708 251:0.0 252:0.01778470352292061 253:0.33172503113746643 254:0.11270991712808609 255:0.24211888015270233 256:0.10837847739458084 257:0.12896953523159027 258:0.11660183221101761 259:0.08207571506500244 260:0.07533909380435944 261:0.0 262:0.05803629383444786 263:0.0 264:0.1103372797369957 265:0.151956707239151 266:0.2192482203245163 267:0.23086796700954437 268:0.06383665651082993 269:0.0865153968334198 270:0.02039187401533127 271:0.19659362733364105 272:0.08092724531888962 273:0.12356505542993546 274:0.0554262176156044 275:0.06448476761579514 276:0.11876755952835083 277:0.15072466433048248 278:0.0432576984167099 279:0.04078374803066254 280:0.16489249467849731 281:0.1684805303812027 282:0.3485076129436493 283:0.4166371822357178 284:0.16161338984966278 285:0.11893635988235474 286:0.08207571506500244 287:0.21780768036842346 288:0.24320925772190094 289:0.31737005710601807 290:0.018868975341320038 291:0.2765069007873535 292:0.04555373638868332 293:0.11813846975564957 294:0.21477389335632324 295:0.07816045731306076 296:0.09434486925601959 297:0.02668476104736328 298:0.16253572702407837 299:0.08438462018966675 300:0.12589560449123383 301:0.18250705301761627 302:0.20252308249473572 303:0.23377016186714172 304:0.20943209528923035 305:0.018868975341320038 306:0.0 307:0.15600042045116425 308:0.15230998396873474 309:0.2637249827384949 310:0.27055802941322327 311:0.1856461614370346 312:0.08005428314208984 313:0.16169695556163788 314:0.2124050110578537 315:0.11484694480895996 316:0.20630064606666565 317:0.1813770979642868 318:0.10858575999736786 319:0.1557110846042633 320:0.23627693951129913 321:0.09139959514141083 322:0.14976316690444946 323:0.08703222870826721 324:0.02668476104736328 
-0.0522011380201454 -0.09441043740790259 0.07364414714989619 1:0.03735649213194847 2:0.026872508227825165 3:0.02074705995619297 4:0.014516666531562805 5:0.04298004135489464 6:0.06300894916057587 7:0.010309725999832153 8:0.01771770417690277 9:0.03146878257393837 10:0.012757634744048119 11:0.02054692804813385 12:0.025293249636888504 13:0.055061325430870056 14:0.06242060661315918 15:0.021423501893877983 16:0.04409387335181236 17:0.04327681288123131 18:0.014847329817712307 19:0.03801171854138374 20:0.10393552482128143 21:0.07752150297164917 22:0.24094036221504211 23:0.39100590348243713 24:0.019065847620368004 25:0.10666044056415558 26:0.04188131168484688 27:0.06841212511062622 28:0.07426278293132782 29:0.0969804972410202 30:0.01226754579693079 31:0.5332980155944824 32:0.6419012546539307 33:0.0878206193447113 34:0.010999877005815506 35:0.030673708766698837 36:0.09851845353841782 37:0.006352018099278212 38:0.013626845553517342 39:0.01863512024283409 40:0.04955649748444557 41:0.05032945051789284 42:0.03015677072107792 43:0.008873866870999336 44:0.01565968245267868 45:0.014317133463919163 46:0.009819460101425648 47:0.0 48:0.015757910907268524 49:0.04524870589375496 50:0.0333528146147728 51:0.03003183752298355 52:0.024826453998684883 53:0.020287899300456047 54:0.00838820543140173 55:0.010770975612103939 56:0.06248536705970764 57:0.047274038195610046 58:0.16882364451885223 59:0.6257412433624268 60:0.2014807164669037 61:0.06414449214935303 62:0.017774224281311035 63:0.020044146105647087 64:0.14152847230434418 65:0.019071361050009727 66:0.06958546489477158 67:0.12320020794868469 68:0.683279812335968 69:0.08431626856327057 70:0.014793475158512592 71:0.015256811864674091 72:0.03020714782178402 73:0.014453794807195663 74:0.018439631909132004 75:0.0333414301276207 76:0.0381193608045578 77:0.049489863216876984 78:0.03760196268558502 79:0.021977130323648453 80:0.021342283114790916 81:0.007914820685982704 82:0.043666861951351166 83:0.022730162367224693 84:0.011943966150283813 85:0.02973148040473461 86:0.06445855647325516 87:0.06627107411623001 88:0.1362396776676178 89:0.0330708883702755 90:0.007713094353675842 91:0.016745198518037796 92:0.08002563565969467 93:0.010204154998064041 94:0.281968891620636 95:0.7215548753738403 96:0.16465847194194794 97:0.01792849786579609 98:0.012755366042256355 99:0.015131968073546886 100:0.132375568151474 101:0.2761850655078888 102:0.16885925829410553 103:0.12026967108249664 104:0.35599324107170105 105:0.16422858834266663 106:0.046236198395490646 107:0.12915204465389252 108:0.12747031450271606 109:0.3977365791797638 110:0.0439746156334877 111:0.050813134759664536 112:0.01227994542568922 113:0.30331525206565857 114:0.19542446732521057 115:0.036911915987730026 116:0.1072378009557724 117:0.302310049533844 118:0.026897402480244637 119:0.008568746969103813 120:0.022016260772943497 121:0.03273623064160347 122:0.0845734179019928 123:0.014795135706663132 124:0.012523024342954159 125:0.0175899900496006 126:0.01663857512176037 127:0.4702393412590027 128:0.1341036707162857 129:0.0360214002430439 130:0.017394429072737694 131:0.03945327177643776 132:0.07922220975160599 133:0.05673368275165558 134:0.09824367612600327 135:0.5727640390396118 136:0.01534953061491251 137:0.016503889113664627 138:0.012093745172023773 139:0.01660246029496193 140:0.01707911305129528 141:0.023257428780198097 142:0.02475281059741974 143:0.012578875757753849 144:0.01490830909460783 145:0.2797645032405853 146:0.10092619061470032 147:0.08476684242486954 148:0.15486040711402893 149:0.15050311386585236 150:0.15006348490715027 151:0.11805509030818939 152:0.09778840094804764 153:0.06419381499290466 154:0.1389414370059967 155:0.05352593958377838 156:0.08807318657636642 157:0.22712446749210358 158:0.3277677893638611 159:0.145913764834404 160:0.10668255388736725 161:0.14223645627498627 162:0.08471537381410599 163:0.15195681154727936 164:0.01160466205328703 165:0.17517690360546112 166:0.22738803923130035 167:0.312410831451416 168:0.2504950165748596 169:0.15816116333007812 170:0.01160466205328703 171:0.05422087386250496 172:0.13945533335208893 173:0.11865653842687607 174:0.06365207582712173 175:0.18133297562599182 176:0.3533981144428253 177:0.2295529544353485 178:0.1174309030175209 179:0.04902856796979904 180:0.016411470249295235 181:0.023848949000239372 182:0.03420843556523323 183:0.02718447707593441 184:0.0371093675494194 185:0.03040074184536934 186:0.0065924315713346004 187:0.02646290510892868 188:0.0065924315713346004 189:0.021142208948731422 190:0.43298524618148804 191:0.027575530111789703 192:0.032588496804237366 193:0.13261006772518158 194:0.2539711594581604 195:0.1322619616985321 196:0.029003217816352844 197:0.006237665191292763 198:0.5610607862472534 199:0.036033593118190765 200:0.026812881231307983 201:0.03383500128984451 202:0.02999259904026985 203:0.004325042478740215 204:0.025355234742164612 205:0.018621327355504036 206:0.019838960841298103 207:0.0063019185326993465 208:0.4051387310028076 209:0.07346660643815994 210:0.03197026252746582 211:0.051739372313022614 212:0.21391157805919647 213:0.07516258955001831 214:0.028247663751244545 215:0.008921486325562 216:0.3980155289173126 217:0.10665352642536163 218:0.04206136614084244 219:0.06266229599714279 220:0.013340221717953682 221:0.16528280079364777 222:0.07599086314439774 223:0.2504524290561676 224:0.130006805062294 225:0.08429519832134247 226:0.08940161764621735 227:0.0162423737347126 228:0.029551109299063683 229:0.02760465443134308 230:0.9032116532325745 231:0.14823663234710693 232:0.032926153391599655 233:0.015456601977348328 234:0.06055404990911484 235:0.03159525617957115 236:0.019745919853448868 237:0.019428616389632225 238:0.020060377195477486 239:0.025436462834477425 240:0.02989576756954193 241:0.013859855942428112 242:0.0195833221077919 243:0.042745448648929596 244:0.017184345051646233 245:0.0118895648047328 246:0.021109336987137794 247:0.02242850698530674 248:0.03491104394197464 249:0.033745259046554565 250:0.013504409231245518 251:0.007693755906075239 252:0.013467234559357166 253:0.08182055503129959 254:0.024624522775411606 255:0.07825689762830734 256:0.17988558113574982 257:0.7434372305870056 258:0.15350139141082764 259:0.03480800241231918 260:0.09096517413854599 261:0.0 262:0.030193079262971878 263:0.12987855076789856 264:0.19040924310684204 265:0.23018375039100647 266:0.46807971596717834 267:0.14718973636627197 268:0.11232446134090424 269:0.007420980371534824 270:0.03543155640363693 271:0.01910397596657276 272:0.006584681570529938 273:0.029548728838562965 274:0.015055234543979168 275:0.027444180101156235 276:0.017341459169983864 277:0.011649484746158123 278:0.008798341266810894 279:0.0 280:0.012399527244269848 281:0.0013594185002148151 282:0.029147760942578316 283:0.03269016370177269 284:0.028046773746609688 285:0.027383405715227127 286:0.009058154188096523 287:0.012263002805411816 288:0.01181125734001398 289:0.10651401430368423 290:0.05784039944410324 291:0.130030557513237 292:0.09866185486316681 293:0.8420398235321045 294:0.27947568893432617 295:0.15218238532543182 296:0.028675280511379242 297:0.08501522988080978 298:0.15695054829120636 299:0.14301298558712006 300:0.025185290724039078 301:0.10752207040786743 302:0.1758405715227127 303:0.05495529994368553 304:0.036330852657556534 305:0.01895495317876339 306:0.19105780124664307 307:0.010405262932181358 308:0.005019546020776033 309:0.013292307034134865 310:0.03450111672282219 311:0.04807090386748314 312:0.02722170762717724 313:0.011869351379573345 314:0.016882963478565216 315:0.0021936220582574606 316:0.007022238802164793 317:0.03021121770143509 318:0.037640444934368134 319:0.04294571653008461 320:0.027160394936800003 321:0.021835103631019592 322:0.02177666500210762 323:0.004653375595808029 324:0.0 
-0.06175956438224911 -0.06603222888919161 0.09987568221049924 1:0.0999716967344284 2:0.08134433627128601 3:0.03430502116680145 4:0.048763033002614975 5:0.03579521179199219 6:0.01673082634806633 7:0.014370802789926529 8:0.03494274988770485 9:0.08852758258581161 10:0.020612530410289764 11:0.012532689608633518 12:0.04974779486656189 13:0.03643032908439636 14:0.05300848186016083 15:0.03499329835176468 16:0.05955718830227852 17:0.003469303250312805 18:0.014343861490488052 19:0.10731538385152817 20:0.05852467939257622 21:0.04091822728514671 22:0.04532704874873161 23:0.024824311956763268 24:0.019191235303878784 25:0.03427435830235481 26:0.03494275361299515 27:0.05885140225291252 28:0.08758444339036942 29:0.15111896395683289 30:0.39241713285446167 31:0.6251065135002136 32:0.586808979511261 33:0.04040025919675827 34:0.07458069175481796 35:0.04169522225856781 36:0.052683357149362564 37:0.010703968815505505 38:0.005232835188508034 39:0.010250039398670197 40:0.020446188747882843 41:0.03330815210938454 42:0.02517871931195259 43:0.011033377610147 44:0.017430908977985382 45:0.003503203159198165 46:0.00784455705434084 47:0.004954277537763119 48:0.013008615002036095 49:0.03205038979649544 50:0.02502470463514328 51:0.029676755890250206 52:0.011816718615591526 53:0.018786972388625145 54:0.0017516015795990825 55:0.01928122714161873 56:0.02851814590394497 57:0.09480321407318115 58:0.2114841639995575 59:0.6293724775314331 60:0.015528339892625809 61:0.02142835594713688 62:0.022340532392263412 63:0.014807820320129395 64:0.08741512149572372 65:0.028184354305267334 66:0.014627006836235523 67:0.3374132513999939 68:0.6447638273239136 69:0.030735066160559654 70:0.006266720127314329 71:0.024287648499011993 72:0.040623873472213745 73:0.008207214064896107 74:0.010195493698120117 75:0.014876676723361015 76:0.0532347708940506 77:0.04492563009262085 78:0.028132621198892593 79:0.029313962906599045 80:0.010676858946681023 81:0.03217422589659691 82:0.03141326084733009 83:0.012267217971384525 84:0.01555596012622118 85:0.03943054378032684 86:0.05306239426136017 87:0.016353093087673187 88:0.00902747455984354 89:0.013942040503025055 90:0.0037599122151732445 91:0.22350089251995087 92:0.15815412998199463 93:0.014849800616502762 94:0.21448899805545807 95:0.8684532046318054 96:0.20140741765499115 97:0.1333242654800415 98:0.07864033430814743 99:0.20314431190490723 100:0.039695944637060165 101:0.011509462259709835 102:0.02203354239463806 103:0.015613081865012646 104:0.008207214064896107 105:0.03677176684141159 106:0.013732761144638062 107:0.0159388966858387 108:0.012411076575517654 109:0.030616305768489838 110:0.009696259163320065 111:0.009415277279913425 112:0.006661750376224518 113:0.013206240721046925 114:0.003691256744787097 115:0.0031127408146858215 116:0.009140891022980213 117:0.029708607122302055 118:0.2156819999217987 119:0.03152553364634514 120:0.09326183795928955 121:0.004436338320374489 122:0.13025647401809692 123:0.03928269073367119 124:0.13744711875915527 125:0.5012781023979187 126:0.34339895844459534 127:0.03333265706896782 128:0.00964322779327631 129:0.00509673124179244 130:0.005239274352788925 131:0.018158581107854843 132:0.013641099445521832 133:0.007527085952460766 134:0.004921675194054842 135:0.03630170598626137 136:0.4300045073032379 137:0.0 138:0.02772880345582962 139:0.038643062114715576 140:0.06492676585912704 141:0.08607514202594757 142:0.006716779433190823 143:0.007399195339530706 144:0.5768667459487915 145:0.10643739253282547 146:0.02445095404982567 147:0.058308910578489304 148:0.053129617124795914 149:0.04724319279193878 150:0.024711843580007553 151:0.027553271502256393 152:0.0358322411775589 153:0.03406313806772232 154:0.053160399198532104 155:0.02009439840912819 156:0.0858236700296402 157:0.02103530801832676 158:0.03312128037214279 159:0.05010370910167694 160:0.031822677701711655 161:0.10009031742811203 162:0.014194188639521599 163:0.050972241908311844 164:0.02009439840912819 165:0.05315905436873436 166:0.02045212872326374 167:0.0642942488193512 168:0.07704028487205505 169:0.034578002989292145 170:0.03086051158607006 171:0.028417767956852913 172:0.0375739149749279 173:0.00871310941874981 174:0.028993427753448486 175:0.11342496424913406 176:0.9551181197166443 177:0.05213998630642891 178:0.013776635751128197 179:0.01742621883749962 180:0.0 181:0.38966116309165955 182:0.045517999678850174 183:0.0495748370885849 184:0.005972776096314192 185:0.0947028249502182 186:0.12749382853507996 187:0.07366116344928741 188:0.008844569325447083 189:0.5015720129013062 190:0.02506755106151104 191:0.017570223659276962 192:0.021122122183442116 193:0.01566527970135212 194:0.01376180537045002 195:0.014984874986112118 196:0.012291871942579746 197:0.016934826970100403 198:0.006871365942060947 199:0.15434972941875458 200:0.050358809530735016 201:0.023284269496798515 202:0.13417349755764008 203:0.35362446308135986 204:0.13128335773944855 205:0.10602343082427979 206:0.16922692954540253 207:0.5668306350708008 208:0.04523072764277458 209:0.0016195963835343719 210:0.004097290802747011 211:0.01929745450615883 212:0.037663888186216354 213:0.029490342363715172 214:0.009218904189765453 215:0.05126524344086647 216:0.054447680711746216 217:0.09556467086076736 218:0.017799556255340576 219:0.020638614892959595 220:0.017336497083306313 221:0.0026534011121839285 222:0.020303089171648026 223:0.009381189942359924 224:0.017799556255340576 225:0.0811825543642044 226:0.10935661941766739 227:0.08124109357595444 228:0.05117309093475342 229:0.22222651541233063 230:0.39182159304618835 231:0.7090976238250732 232:0.2658384442329407 233:0.24993377923965454 234:0.31689369678497314 235:0.05599258840084076 236:0.027366528287529945 237:0.030391370877623558 238:0.010128580965101719 239:0.046434517949819565 240:0.019028358161449432 241:0.043677348643541336 242:0.027712037786841393 243:0.06501340866088867 244:0.03354613110423088 245:0.03510245680809021 246:0.01876237988471985 247:0.04892255365848541 248:0.025207310914993286 249:0.026956090703606606 250:0.03100988268852234 251:0.012533565983176231 252:0.005470126401633024 253:0.05193128064274788 254:0.009436285123229027 255:0.01801258698105812 256:0.13634568452835083 257:0.9148263931274414 258:0.02124853804707527 259:0.0246223546564579 260:0.004735604394227266 261:0.004869562573730946 262:0.03867807984352112 263:0.019684433937072754 264:0.14831320941448212 265:0.24260835349559784 266:0.23098798096179962 267:0.03026535175740719 268:0.02967226132750511 269:0.006850750185549259 270:0.019857559353113174 271:0.015004629269242287 272:0.009952058084309101 273:0.010092985816299915 274:0.01126045547425747 275:0.011061153374612331 276:0.007194829173386097 277:0.005959174130111933 278:0.0018991216784343123 279:0.0 280:0.014016029424965382 281:0.008522534742951393 282:0.010901231318712234 283:0.014253595843911171 284:0.012674110941588879 285:0.013443492352962494 286:0.014317171648144722 287:0.0047111413441598415 288:0.005503008607774973 289:0.08854395151138306 290:0.07909350842237473 291:0.2791527807712555 292:0.19031821191310883 293:0.8542696237564087 294:0.13136795163154602 295:0.13525846600532532 296:0.04782580956816673 297:0.035172998905181885 298:0.1944407820701599 299:0.04962630197405815 300:0.044151660054922104 301:0.08559560775756836 302:0.12578889727592468 303:0.020242763683199883 304:0.021505430340766907 305:0.046386778354644775 306:0.1219971626996994 307:0.02473863773047924 308:0.01808999665081501 309:0.035746607929468155 310:0.043496523052453995 311:0.04620636999607086 312:0.017451036721467972 313:0.033909935504198074 314:0.0032231896184384823 315:0.0 316:0.06100890785455704 317:0.028484469279646873 318:0.02965952828526497 319:0.06010362133383751 320:0.025946175679564476 321:0.009669569320976734 322:0.03169804811477661 323:0.03317517414689064 324:0.00455827871337533 
-0.12542505040688298 -0.006083820797743434 0.15737119726314805 1:0.10158611088991165 2:0.016886267811059952 3:0.03689566254615784 4:0.020070461556315422 5:0.009970592334866524 6:0.010934949852526188 7:0.04422162473201752 8:0.015420414507389069 9:0.05173921585083008 10:0.02326471544802189 11:0.01544807106256485 12:0.02839396335184574 13:0.020032109692692757 14:0.05325522646307945 15:0.02396044135093689 16:0.020522590726614 17:0.023462295532226562 18:0.004567755851894617 19:0.10472633689641953 20:0.054147250950336456 21:0.014100546017289162 22:0.010934949852526188 23:0.009970592334866524 24:0.008457736112177372 25:0.011806128546595573 26:0.01204808708280325 27:0.0854545384645462 28:0.22604218125343323 29:0.1078215092420578 30:0.30466896295547485 31:0.5926868319511414 32:0.6246855854988098 33:0.23300151526927948 34:0.040506795048713684 35:0.022812960669398308 36:0.025909334421157837 37:0.012313352897763252 38:0.0012423584703356028 39:0.008385863155126572 40:0.016412561759352684 41:0.029525749385356903 42:0.014334920793771744 43:0.009074871428310871 44:0.0024847169406712055 45:0.001756960293278098 46:0.01006919052451849 47:0.007958396337926388 48:0.011517827399075031 49:0.021014466881752014 50:0.03337056562304497 51:0.02844936214387417 52:0.0027889793273061514 53:0.008827331475913525 54:0.00404775608330965 55:0.05738625302910805 56:0.05429147183895111 57:0.21505442261695862 58:0.1925305426120758 59:0.7840843200683594 60:0.01728268340229988 61:0.011829566210508347 62:0.0060097286477684975 63:0.011889854446053505 64:0.01703719049692154 65:0.017937956377863884 66:0.17604975402355194 67:0.20512324571609497 68:0.45080432295799255 69:0.08814342319965363 70:0.03592013940215111 71:0.06582393497228622 72:0.017744652926921844 73:0.020151788368821144 74:0.015253432095050812 75:0.020873231813311577 76:0.04764215648174286 77:0.034094326198101044 78:0.022438794374465942 79:0.013536891900002956 80:0.0 81:0.008275129832327366 82:0.054016388952732086 83:0.005313271656632423 84:0.007840950973331928 85:0.027992788702249527 86:0.046119652688503265 87:0.035723697394132614 88:0.026104308664798737 89:0.011462738737463951 90:0.009048108011484146 91:0.18786926567554474 92:0.021360713988542557 93:0.3055605888366699 94:0.10693790018558502 95:0.8975675106048584 96:0.10602200776338577 97:0.03692743182182312 98:0.030720725655555725 99:0.1470581442117691 100:0.05570369213819504 101:0.012795957736670971 102:0.014657028950750828 103:0.027147570624947548 104:0.030229225754737854 105:0.0 106:0.005096069537103176 107:0.008169068954885006 108:0.008275129832327366 109:0.061726003885269165 110:0.008311736397445202 111:0.006589497439563274 112:0.010862610302865505 113:0.009959936141967773 114:0.005431305151432753 115:0.0050305272452533245 116:0.016882209107279778 117:0.030246881768107414 118:0.18616051971912384 119:0.047792091965675354 120:0.03496762737631798 121:0.13244175910949707 122:0.16415733098983765 123:0.004772377200424671 124:0.2782403230667114 125:0.3385877013206482 126:0.6010128259658813 127:0.058915067464113235 128:0.012109830975532532 129:0.010061053559184074 130:0.01179447490721941 131:0.017785601317882538 132:0.0015907924389466643 133:0.006567547097802162 134:0.004772377200424671 135:0.02897403948009014 136:0.4338098466396332 137:0.13562633097171783 138:0.06507425755262375 139:0.00745734479278326 140:0.028575168922543526 141:0.04693242162466049 142:0.11082463711500168 143:0.1089479848742485 144:0.3398924171924591 145:0.04496302455663681 146:0.03741477057337761 147:0.03992413729429245 148:0.09407662600278854 149:0.1059718206524849 150:0.03020562045276165 151:0.02583036758005619 152:0.023998577147722244 153:0.0 154:0.0534384585916996 155:0.07156803458929062 156:0.07749109715223312 157:0.07533249258995056 158:0.1003943607211113 159:0.0628608912229538 160:0.08215006440877914 161:0.026415249332785606 162:0.04061925783753395 163:0.14088770747184753 164:0.06066754087805748 165:0.04594019800424576 166:0.13217750191688538 167:0.06414084136486053 168:0.03630811721086502 169:0.06397783756256104 170:0.006235794629901648 171:0.06913746893405914 172:0.044619712978601456 173:0.09781388938426971 174:0.0437178909778595 175:0.027489371597766876 176:0.9186137318611145 177:0.09646108746528625 178:0.038147468119859695 179:0.012471589259803295 180:0.059298817068338394 181:0.26682400703430176 182:0.1286274492740631 183:0.028270011767745018 184:0.0550667941570282 185:0.08934155106544495 186:0.16462115943431854 187:0.06673243641853333 188:0.011598480865359306 189:0.322859525680542 190:0.013248072937130928 191:0.009665400721132755 192:0.011658021248877048 193:0.019529683515429497 194:0.02773553878068924 195:0.022231895476579666 196:0.030268395319581032 197:0.013531560078263283 198:0.011765786446630955 199:0.1592758148908615 200:0.05976200848817825 201:0.15871787071228027 202:0.12311408668756485 203:0.6501287221908569 204:0.16833540797233582 205:0.061662983149290085 206:0.05512154474854469 207:0.4641770124435425 208:0.041688621044158936 209:0.001933080144226551 210:0.01845986768603325 211:0.025507625192403793 212:0.062369346618652344 213:0.008533027954399586 214:0.01534286979585886 215:0.09825200587511063 216:0.04532206431031227 217:0.06880083680152893 218:0.050190091133117676 219:0.02505587600171566 220:0.01381622813642025 221:0.019976655021309853 222:0.012727842666208744 223:0.004985515493899584 224:0.02686692774295807 225:0.06304619461297989 226:0.09063085913658142 227:0.07416986674070358 228:0.07403570413589478 229:0.10378415137529373 230:0.532928466796875 231:0.43759673833847046 232:0.5649568438529968 233:0.15279841423034668 234:0.3451889455318451 235:0.08058035373687744 236:0.03220603987574577 237:0.025817548856139183 238:0.01159877609461546 239:0.009400778450071812 240:0.010510389693081379 241:0.008309192955493927 242:0.04164353385567665 243:0.044858671724796295 244:0.02134244330227375 245:0.010510389693081379 246:0.02176845259964466 247:0.047384366393089294 248:0.02937743254005909 249:0.030545877292752266 250:0.026753969490528107 251:0.023870639503002167 252:0.027985891327261925 253:0.06306885927915573 254:0.027880344539880753 255:0.075600266456604 256:0.227264866232872 257:0.8057317733764648 258:0.025063302367925644 259:0.011252160184085369 260:0.008530608378350735 261:0.0 262:0.04480075091123581 263:0.028504829853773117 264:0.15947815775871277 265:0.22363270819187164 266:0.4507088363170624 267:0.00481767300516367 268:0.013420522212982178 269:0.009424984455108643 270:0.029051000252366066 271:0.015343925915658474 272:0.012902911752462387 273:0.00879773497581482 274:0.009739588014781475 275:0.008618115447461605 276:0.010989425703883171 277:0.012187854386866093 278:0.005555320996791124 279:0.005627446807920933 280:0.015751782804727554 281:0.025477994233369827 282:0.02622559294104576 283:0.03674055263400078 284:0.008647948503494263 285:0.022232888266444206 286:0.01956440694630146 287:0.015830978751182556 288:0.013866934925317764 289:0.09612562507390976 290:0.10457098484039307 291:0.13150471448898315 292:0.05377748981118202 293:0.9163922071456909 294:0.10670195519924164 295:0.03359122946858406 296:0.06824948638677597 297:0.1045798659324646 298:0.1896694153547287 299:0.07810672372579575 300:0.10284163057804108 301:0.045864541083574295 302:0.12787596881389618 303:0.027616774663329124 304:0.02100263349711895 305:0.022334255278110504 306:0.06571366637945175 307:0.04184623062610626 308:0.02018696442246437 309:0.02029208093881607 310:0.01244921050965786 311:0.03803425282239914 312:0.01284524705260992 313:0.04282737150788307 314:0.011690134182572365 315:0.004889741539955139 316:0.020353373140096664 317:0.013855581171810627 318:0.03125326707959175 319:0.04905339702963829 320:0.0571812242269516 321:0.007955504581332207 322:0.02190922014415264 323:0.01915924996137619 324:0.011250782757997513 
